<?xml version="1.0"?>
<opencv_storage>
<opencv_ml_svm>
  <format>3</format>
  <svmType>C_SVC</svmType>
  <kernel>
    <type>RBF</type>
    <gamma>5.0625000000000009e-01</gamma></kernel>
  <C>5.0000000000000000e-01</C>
  <term_criteria><epsilon>9.9999999999999995e-07</epsilon>
    <iterations>100</iterations></term_criteria>
  <var_count>100</var_count>
  <class_count>15</class_count>
  <class_labels type_id="opencv-matrix">
    <rows>15</rows>
    <cols>1</cols>
    <dt>i</dt>
    <data>
      0 1 2 3 4 5 6 7 8 9 10 11 12 13 14</data></class_labels>
  <sv_total>2742</sv_total>
  <support_vectors>
    <_>
      1.88679248e-02 2.83018872e-02 4.71698120e-03 2.35849060e-02 0. 0.
      2.35849060e-02 4.71698120e-03 0. 9.43396240e-03 9.43396240e-03
      4.71698120e-03 1.88679248e-02 3.30188684e-02 4.71698120e-03
      4.71698120e-03 2.35849060e-02 9.43396240e-03 1.41509436e-02
      9.43396240e-03 4.71698120e-03 0. 9.43396240e-03 9.43396240e-03
      4.71698120e-03 4.71698120e-03 9.43396240e-03 0. 4.71698120e-03 0.
      4.71698120e-03 0. 2.35849060e-02 4.71698120e-03 9.43396240e-03
      4.71698120e-03 2.83018872e-02 4.71698120e-03 1.41509436e-02
      1.88679248e-02 0. 9.43396240e-03 1.41509436e-02 4.71698120e-03
      4.71698120e-03 0. 9.43396240e-03 4.71698120e-03 1.41509436e-02
      4.24528308e-02 4.71698120e-03 4.24528308e-02 0. 0. 0. 0.
      4.71698120e-03 9.43396240e-03 1.41509436e-02 2.35849060e-02
      3.77358496e-02 0. 9.43396240e-03 4.71698120e-03 1.41509436e-02
      9.43396240e-03 0. 1.41509436e-02 9.43396240e-03 2.83018872e-02
      4.71698120e-03 4.71698120e-03 0. 2.35849060e-02 1.41509436e-02 0.
      0. 0. 0. 0. 2.35849060e-02 4.71698120e-03 2.83018872e-02
      1.41509436e-02 4.71698120e-03 4.71698120e-03 2.35849060e-02
      1.88679248e-02 1.41509436e-02 2.35849060e-02 1.41509436e-02 0. 0.
      4.71698120e-03 0. 0. 2.35849060e-02 4.71698120e-03 0.
      9.43396240e-03</_>
    <_>
      0. 0. 0. 8.13008100e-03 0. 0. 2.43902430e-02 8.13008100e-03 0. 0.
      0. 0. 0. 0. 0. 2.43902430e-02 1.62601620e-02 0. 0. 0.
      2.43902430e-02 4.06504050e-02 3.25203240e-02 0. 0. 1.62601620e-02
      0. 1.62601620e-02 0. 0. 1.62601620e-02 0. 0. 2.43902430e-02 0.
      8.13008100e-03 0. 8.13008100e-03 0. 0. 8.13008100e-03
      8.13008100e-03 0. 8.13008100e-03 0. 3.25203240e-02 0.
      1.62601620e-02 4.87804860e-02 2.43902430e-02 1.62601620e-02 0.
      1.62601620e-02 4.06504050e-02 0. 8.13008100e-03 0. 8.13008100e-03
      0. 0. 8.13008100e-03 4.87804860e-02 0. 0. 8.13008100e-03 0.
      4.06504050e-02 8.13008100e-03 2.43902430e-02 0. 0. 8.13008100e-03
      0. 8.13008100e-03 4.87804860e-02 0. 1.62601620e-02 0.
      5.69105670e-02 0. 0. 4.87804860e-02 0. 3.25203240e-02 0. 0.
      8.13008100e-03 0. 0. 6.50406480e-02 8.13008100e-03 8.13008100e-03
      0. 0. 0. 2.43902430e-02 2.43902430e-02 0. 0. 0.</_>
    <_>
      4.36681230e-03 8.73362459e-03 8.73362459e-03 1.74672492e-02
      4.36681230e-03 0. 0. 1.31004369e-02 0. 8.73362459e-03 0.
      2.18340605e-02 0. 4.36681230e-03 8.73362459e-03 8.73362459e-03
      8.73362459e-03 2.18340605e-02 8.73362459e-03 1.31004369e-02 0.
      8.73362459e-03 1.31004369e-02 2.62008738e-02 0. 8.73362459e-03 0.
      4.36681230e-03 1.31004369e-02 4.36681230e-03 8.73362459e-03
      5.67685589e-02 4.36681230e-03 0. 4.36681230e-03 4.36681230e-03
      1.31004369e-02 5.67685589e-02 1.31004369e-02 8.73362459e-03
      3.49344984e-02 0. 0. 4.36681230e-03 8.73362459e-03 8.73362459e-03
      4.36681230e-03 4.36681230e-03 2.62008738e-02 0. 1.31004369e-02
      8.73362459e-03 8.73362459e-03 1.31004369e-02 0. 0. 4.36681230e-03
      8.73362459e-03 2.62008738e-02 1.74672492e-02 4.36681230e-03
      8.73362459e-03 4.36681230e-03 4.36681230e-03 8.73362459e-03
      1.31004369e-02 1.74672492e-02 0. 2.18340605e-02 4.36681230e-03 0.
      4.36681230e-03 1.31004369e-02 8.73362459e-03 1.74672492e-02 0.
      5.24017476e-02 0. 4.36681230e-03 2.18340605e-02 1.74672492e-02 0.
      4.36681230e-03 2.18340605e-02 8.73362459e-03 1.31004369e-02
      1.31004369e-02 0. 8.73362459e-03 3.49344984e-02 8.73362459e-03 0.
      4.36681230e-03 0. 0. 0. 4.36681230e-03 1.74672492e-02
      4.36681230e-03 2.62008738e-02</_>
    <_>
      3.33333351e-02 0. 0. 5.55555560e-02 0. 0. 0. 3.33333351e-02 0.
      1.11111114e-02 0. 0. 0. 1.11111114e-02 0. 2.22222228e-02
      1.11111114e-02 1.11111114e-02 2.22222228e-02 0. 0. 0. 0. 0.
      1.11111114e-02 1.11111114e-02 0. 1.11111114e-02 1.11111114e-02 0.
      2.22222228e-02 3.33333351e-02 1.11111114e-02 0. 0. 1.11111114e-02
      0. 0. 4.44444455e-02 0. 0. 0. 0. 0. 1.11111114e-02 1.11111114e-02
      1.11111114e-02 0. 6.66666701e-02 0. 0. 0. 1.11111114e-02 0. 0. 0.
      0. 1.11111114e-02 4.44444455e-02 0. 0. 0. 0. 1.11111114e-02
      1.11111114e-02 0. 4.44444455e-02 1.11111114e-02 4.44444455e-02 0.
      0. 0. 3.33333351e-02 0. 0. 0. 3.33333351e-02 0. 0. 0.
      2.22222228e-02 0. 5.55555560e-02 2.22222228e-02 1.11111114e-02
      3.33333351e-02 0. 0. 0. 4.44444455e-02 0. 1.11111114e-02 0. 0.
      1.11111114e-02 0. 2.22222228e-02 0. 0. 3.33333351e-02</_>
    <_>
      7.78210117e-03 1.94552522e-02 0. 3.89105058e-03 0. 1.16731515e-02
      1.16731515e-02 7.78210117e-03 3.89105058e-03 1.55642023e-02 0.
      1.55642023e-02 2.33463030e-02 1.55642023e-02 3.89105058e-03
      7.78210117e-03 3.11284047e-02 7.78210117e-03 2.33463030e-02 0.
      3.89105058e-03 7.78210117e-03 3.89105058e-03 1.94552522e-02
      1.16731515e-02 3.89105058e-03 3.89105058e-03 3.89105058e-03 0.
      1.16731515e-02 1.55642023e-02 3.89105058e-03 2.33463030e-02
      1.94552522e-02 3.89105058e-03 0. 0. 1.16731515e-02 0.
      3.89105058e-03 0. 7.78210117e-03 7.78210117e-03 7.78210117e-03 0.
      1.16731515e-02 1.55642023e-02 2.72373538e-02 3.89105058e-03
      7.78210117e-03 7.78210117e-03 0. 1.16731515e-02 0. 0.
      7.78210117e-03 1.16731515e-02 0. 0. 1.16731515e-02 1.94552522e-02
      0. 7.78210117e-03 1.16731515e-02 0. 1.55642023e-02 7.78210117e-03
      3.89105058e-03 2.72373538e-02 0. 3.89105058e-03 0. 3.89105058e-03
      4.66926061e-02 2.72373538e-02 3.89105058e-03 7.78210117e-03
      3.89105058e-03 7.78210117e-03 1.55642023e-02 7.78210117e-03
      7.78210117e-03 3.89105058e-03 3.89105044e-02 7.78210117e-03
      1.55642023e-02 0. 2.33463030e-02 1.16731515e-02 1.55642023e-02
      3.11284047e-02 1.94552522e-02 1.16731515e-02 3.89105058e-03
      1.94552522e-02 0. 3.11284047e-02 1.16731515e-02 1.16731515e-02
      1.16731515e-02</_>
    <_>
      0. 0. 1.19047631e-02 7.93650839e-03 0. 1.98412705e-02
      7.93650839e-03 7.93650839e-03 0. 2.38095261e-02 0. 2.77777798e-02
      7.93650839e-03 1.19047631e-02 0. 1.98412705e-02 3.96825410e-02
      3.96825420e-03 7.93650839e-03 7.93650839e-03 0. 3.96825420e-03
      3.96825420e-03 3.96825420e-03 7.93650839e-03 7.93650839e-03
      1.19047631e-02 3.96825420e-03 0. 3.96825420e-03 3.96825420e-03 0.
      2.77777798e-02 0. 3.96825420e-03 7.93650839e-03 0. 2.77777798e-02
      7.93650839e-03 7.93650839e-03 3.96825420e-03 0. 2.38095261e-02 0.
      0. 1.19047631e-02 0. 5.95238134e-02 0. 0. 7.93650839e-03
      1.19047631e-02 1.19047631e-02 7.93650839e-03 0. 0. 7.93650839e-03
      3.96825420e-03 3.17460336e-02 2.77777798e-02 5.15873060e-02 0.
      1.19047631e-02 3.96825420e-03 7.93650839e-03 7.93650839e-03
      7.93650839e-03 3.96825420e-03 3.96825420e-03 0. 0. 0. 0.
      1.19047631e-02 1.98412705e-02 0. 7.93650839e-03 3.96825420e-03
      7.93650839e-03 3.96825420e-03 1.98412705e-02 0. 1.19047631e-02
      3.17460336e-02 1.98412705e-02 1.58730168e-02 1.58730168e-02
      3.17460336e-02 1.19047631e-02 2.38095261e-02 0. 7.93650839e-03
      2.38095261e-02 1.19047631e-02 1.98412705e-02 3.96825420e-03
      2.77777798e-02 3.96825420e-03 7.93650839e-03 3.96825420e-03</_>
    <_>
      0. 0. 4.62962966e-03 4.62962966e-03 1.85185187e-02 4.62962966e-03
      4.62962966e-03 2.77777780e-02 0. 0. 0. 9.25925933e-03
      4.62962966e-03 9.25925933e-03 9.25925933e-03 1.38888890e-02 0.
      1.38888890e-02 1.38888890e-02 3.70370373e-02 1.38888890e-02
      1.38888890e-02 1.38888890e-02 4.62962966e-03 1.38888890e-02
      9.25925933e-03 0. 9.25925933e-03 4.16666679e-02 2.31481493e-02
      1.85185187e-02 0. 1.85185187e-02 0. 0. 4.16666679e-02 0.
      2.31481493e-02 0. 9.25925933e-03 1.85185187e-02 4.62962966e-03 0.
      9.25925933e-03 4.62962966e-03 2.77777780e-02 9.25925933e-03
      4.62962966e-03 2.31481493e-02 4.62962966e-03 0. 0. 0.
      2.31481493e-02 2.31481493e-02 0. 4.62962966e-03 4.62962966e-03
      1.38888890e-02 4.62962966e-03 1.85185187e-02 4.62962966e-03
      1.38888890e-02 0. 2.77777780e-02 2.31481493e-02 1.85185187e-02
      4.62962966e-03 4.62962985e-02 9.25925933e-03 9.25925933e-03
      9.25925933e-03 0. 0. 2.77777780e-02 1.38888890e-02 4.62962966e-03
      4.62962966e-03 0. 1.38888890e-02 2.31481493e-02 0. 4.62962966e-03
      4.62962966e-03 4.62962966e-03 4.62962966e-03 4.62962966e-03
      4.62962966e-03 0. 0. 2.31481493e-02 4.62962966e-03 4.62962966e-03
      4.62962966e-03 1.85185187e-02 1.85185187e-02 0. 0. 4.62962966e-03
      9.25925933e-03</_>
    <_>
      0. 0. 0. 1.80180185e-02 0. 9.00900923e-03 3.15315314e-02
      4.50450461e-03 0. 0. 4.50450461e-03 4.05405425e-02 1.80180185e-02
      0. 4.50450461e-03 2.25225240e-02 9.00900923e-03 9.00900923e-03
      2.25225240e-02 9.00900923e-03 0. 4.50450461e-03 9.00900923e-03 0.
      3.60360369e-02 1.35135138e-02 4.50450461e-03 1.35135138e-02 0.
      2.25225240e-02 4.50450461e-03 0. 3.60360369e-02 0. 0.
      1.80180185e-02 0. 2.70270277e-02 4.50450461e-03 0. 4.50450461e-03
      0. 4.50450461e-03 1.35135138e-02 0. 2.25225240e-02 9.00900923e-03
      9.00900923e-03 4.50450461e-03 4.50450461e-03 1.35135138e-02
      4.50450461e-03 1.80180185e-02 9.00900923e-03 0. 0. 4.50450461e-03
      4.50450461e-03 5.85585609e-02 0. 4.05405425e-02 9.00900923e-03
      4.50450461e-03 9.00900923e-03 4.50450461e-03 1.35135138e-02
      1.80180185e-02 4.50450480e-02 1.35135138e-02 0. 4.50450461e-03
      4.50450461e-03 0. 2.25225240e-02 2.25225240e-02 4.50450461e-03
      4.50450461e-03 4.50450461e-03 0. 0. 0. 0. 0. 4.95495498e-02 0. 0.
      0. 9.00900923e-03 0. 5.40540554e-02 1.80180185e-02 1.80180185e-02
      4.50450461e-03 0. 0. 1.80180185e-02 1.80180185e-02 0. 0.
      4.50450461e-03</_>
    <_>
      0. 2.95857992e-02 5.91715984e-03 1.18343197e-02 2.95857992e-03
      2.95857992e-03 2.95857992e-03 1.18343197e-02 0. 5.91715984e-03
      8.87573976e-03 2.95857992e-03 0. 1.47928996e-02 0. 5.91715984e-03
      2.95857992e-03 2.07100585e-02 5.02958596e-02 2.95857992e-03 0. 0.
      8.87573976e-03 1.77514795e-02 2.66272202e-02 2.95857992e-03
      8.87573976e-03 8.87573976e-03 0. 0. 1.77514795e-02 1.18343197e-02
      1.47928996e-02 1.47928996e-02 8.87573976e-03 0. 2.95857992e-03
      1.47928996e-02 5.91715984e-03 1.47928996e-02 0. 0. 2.95857992e-03
      1.18343197e-02 0. 2.95857992e-03 0. 2.95857992e-03 1.77514795e-02
      5.91715984e-03 8.87573976e-03 1.18343197e-02 5.91715984e-03
      5.91715984e-03 0. 1.18343197e-02 2.36686394e-02 2.07100585e-02 0.
      1.77514795e-02 1.18343197e-02 1.47928996e-02 1.18343197e-02
      1.47928996e-02 1.18343197e-02 1.47928996e-02 8.87573976e-03
      5.91715984e-03 2.07100585e-02 1.18343197e-02 8.87573976e-03
      2.36686394e-02 1.77514795e-02 8.87573976e-03 8.87573976e-03
      8.87573976e-03 1.47928996e-02 0. 0. 2.66272202e-02 5.91715984e-03
      8.87573976e-03 5.91715984e-03 2.95857992e-03 1.47928996e-02
      8.87573976e-03 4.43786979e-02 2.95857992e-03 8.87573976e-03
      5.91715984e-03 2.07100585e-02 2.07100585e-02 5.91715984e-03
      1.18343197e-02 5.91715984e-03 2.95857992e-02 8.87573976e-03 0. 0.
      2.66272202e-02</_>
    <_>
      4.67289705e-03 4.67289705e-03 0. 2.33644843e-02 0. 0.
      4.20560725e-02 2.80373823e-02 0. 0. 0. 5.60747646e-02
      4.67289705e-03 4.67289705e-03 4.67289705e-03 1.40186911e-02
      9.34579410e-03 9.34579410e-03 4.67289705e-03 2.33644843e-02 0. 0.
      0. 1.40186911e-02 0. 2.33644843e-02 2.33644843e-02 2.80373823e-02
      3.27102803e-02 0. 1.86915882e-02 0. 4.20560725e-02 4.67289705e-03
      0. 4.67289686e-02 0. 1.86915882e-02 4.67289705e-03 4.67289705e-03
      4.67289705e-03 0. 4.67289705e-03 1.40186911e-02 0. 1.40186911e-02
      1.86915882e-02 0. 1.40186911e-02 4.67289705e-03 1.40186911e-02 0.
      4.67289686e-02 4.67289705e-03 0. 0. 0. 9.34579410e-03
      3.73831764e-02 4.67289705e-03 0. 9.34579410e-03 0. 4.67289705e-03
      9.34579410e-03 9.34579410e-03 0. 1.40186911e-02 2.80373823e-02
      4.67289705e-03 0. 4.67289705e-03 1.40186911e-02 2.33644843e-02
      9.34579410e-03 0. 0. 0. 1.40186911e-02 0. 9.34579410e-03 0.
      9.34579410e-03 4.67289705e-03 1.40186911e-02 4.67289705e-03 0.
      1.40186911e-02 4.67289705e-03 4.67289686e-02 4.67289705e-03 0.
      9.34579410e-03 1.40186911e-02 1.40186911e-02 4.67289705e-03
      9.34579410e-03 0. 0. 4.67289705e-03</_>
    <_>
      4.38596494e-03 8.77192989e-03 4.38596494e-03 4.38596494e-03
      8.77192989e-03 4.38596494e-03 8.77192989e-03 1.75438598e-02
      1.31578948e-02 0. 0. 8.77192989e-03 1.31578948e-02 1.75438598e-02
      0. 2.19298247e-02 0. 8.77192989e-03 1.75438598e-02 2.63157897e-02
      0. 1.31578948e-02 0. 2.63157897e-02 0. 0. 8.77192989e-03
      1.31578948e-02 2.19298247e-02 1.75438598e-02 8.77192989e-03 0.
      2.19298247e-02 1.75438598e-02 4.38596494e-03 3.94736826e-02
      8.77192989e-03 0. 1.75438598e-02 0. 0. 2.63157897e-02 0.
      1.31578948e-02 0. 0. 2.19298247e-02 0. 6.14035092e-02 0. 0.
      4.38596494e-03 1.31578948e-02 4.38596494e-02 8.77192989e-03 0. 0.
      1.31578948e-02 4.38596494e-03 0. 4.38596494e-03 4.38596494e-03
      1.31578948e-02 1.31578948e-02 4.38596494e-03 0. 0. 0.
      6.14035092e-02 1.31578948e-02 1.31578948e-02 4.38596494e-03 0.
      8.77192989e-03 0. 3.07017546e-02 2.19298247e-02 1.75438598e-02
      1.75438598e-02 2.19298247e-02 4.38596494e-03 0. 1.31578948e-02 0.
      1.31578948e-02 2.19298247e-02 0. 8.77192989e-03 1.75438598e-02
      4.38596494e-03 0. 0. 1.31578948e-02 0. 0. 8.77192989e-03 0. 0.
      2.19298247e-02 4.38596494e-03</_>
    <_>
      3.15457419e-03 3.15457419e-03 0. 3.15457419e-03 3.15457419e-03
      6.30914839e-03 9.46372282e-03 9.46372282e-03 0. 3.15457419e-03 0.
      3.15457419e-03 3.15457419e-03 6.30914839e-03 1.26182968e-02
      3.15457419e-03 6.30914839e-03 2.20820196e-02 4.10094634e-02 0.
      1.89274456e-02 1.26182968e-02 1.26182968e-02 6.30914839e-03
      2.83911675e-02 6.30914839e-03 0. 6.30914839e-03 9.46372282e-03
      9.46372282e-03 0. 1.57728717e-02 3.47003154e-02 2.83911675e-02
      3.15457419e-03 0. 0. 6.62460551e-02 3.15457419e-03 3.15457419e-03
      9.46372282e-03 3.15457419e-03 1.26182968e-02 0. 1.57728717e-02 0.
      0. 1.26182968e-02 6.30914839e-03 6.30914839e-03 3.15457419e-03
      3.15457419e-03 0. 0. 6.30914839e-03 0. 1.89274456e-02
      3.15457419e-03 0. 9.46372282e-03 1.26182968e-02 3.15457419e-03
      3.15457419e-03 3.15457419e-03 1.26182968e-02 3.15457433e-02
      1.89274456e-02 2.20820196e-02 4.41640392e-02 0. 3.15457419e-03
      6.30914839e-03 3.15457419e-03 6.30914839e-03 0. 9.46372282e-03
      2.52365936e-02 2.20820196e-02 3.15457419e-03 0. 3.15457419e-03 0.
      0. 9.46372282e-03 9.46372282e-03 9.46372282e-03 3.78548913e-02
      6.30914839e-03 3.15457419e-03 0. 2.52365936e-02 1.26182968e-02
      6.30914839e-03 3.15457419e-03 9.46372282e-03 8.20189267e-02
      3.15457419e-03 0. 3.15457419e-03 3.15457433e-02</_>
    <_>
      1.49999997e-02 9.99999978e-03 4.99999989e-03 9.99999978e-03
      9.99999978e-03 9.99999978e-03 1.49999997e-02 0. 9.99999978e-03
      4.99999989e-03 2.49999985e-02 9.99999978e-03 4.99999989e-03
      1.99999996e-02 4.49999981e-02 4.99999989e-03 9.99999978e-03
      2.99999993e-02 0. 0. 0. 0. 9.99999978e-03 1.99999996e-02
      4.99999989e-03 4.99999989e-03 0. 1.49999997e-02 0. 9.99999978e-03
      4.99999989e-03 1.49999997e-02 9.99999978e-03 4.99999989e-03
      2.49999985e-02 0. 2.49999985e-02 4.99999989e-03 1.99999996e-02
      9.99999978e-03 9.99999978e-03 4.99999989e-03 4.99999989e-03 0.
      4.99999989e-03 0. 0. 2.49999985e-02 9.99999978e-03 0.
      1.49999997e-02 9.99999978e-03 1.49999997e-02 4.99999989e-03
      4.99999989e-03 2.99999993e-02 4.99999989e-03 4.99999989e-03
      2.49999985e-02 3.50000001e-02 2.49999985e-02 0. 1.49999997e-02 0.
      9.99999978e-03 4.99999989e-03 2.99999993e-02 0. 9.99999978e-03 0.
      1.49999997e-02 4.99999989e-03 9.99999978e-03 4.99999989e-03 0.
      4.99999989e-03 2.49999985e-02 1.49999997e-02 0. 4.99999989e-03
      2.49999985e-02 1.49999997e-02 9.99999978e-03 1.49999997e-02
      1.49999997e-02 1.99999996e-02 9.99999978e-03 4.99999989e-03
      9.99999978e-03 9.99999978e-03 0. 1.99999996e-02 0. 4.99999989e-03
      0. 0. 1.49999997e-02 0. 0. 9.99999978e-03</_>
    <_>
      8.40336177e-03 2.52100863e-02 0. 1.68067235e-02 0. 0.
      8.40336177e-03 4.20168079e-02 8.40336177e-03 8.40336177e-03
      1.68067235e-02 8.40336177e-03 8.40336177e-03 0. 8.40336177e-03
      1.68067235e-02 0. 0. 8.40336177e-03 0. 0. 8.40336177e-03 0.
      1.68067235e-02 2.52100863e-02 2.52100863e-02 2.52100863e-02
      3.36134471e-02 0. 0. 0. 1.68067235e-02 0. 8.40336177e-03
      3.36134471e-02 0. 1.68067235e-02 0. 8.40336177e-03 8.40336177e-03
      0. 0. 3.36134471e-02 0. 3.36134471e-02 1.68067235e-02 0. 0.
      5.88235334e-02 0. 0. 8.40336177e-03 2.52100863e-02 8.40336177e-03
      0. 8.40336177e-03 0. 1.68067235e-02 5.04201725e-02 8.40336177e-03
      1.68067235e-02 0. 0. 8.40336177e-03 3.36134471e-02 0. 0. 0.
      7.56302550e-02 0. 8.40336177e-03 0. 8.40336177e-03 1.68067235e-02
      8.40336177e-03 0. 8.40336177e-03 8.40336177e-03 0. 0.
      8.40336177e-03 0. 8.40336177e-03 1.68067235e-02 0. 1.68067235e-02
      8.40336177e-03 8.40336177e-03 8.40336177e-03 0. 0. 0.
      8.40336177e-03 0. 0. 0. 0. 8.40336177e-03 1.68067235e-02
      1.68067235e-02</_>
    <_>
      0. 6.47249212e-03 2.91262139e-02 3.23624606e-03 0. 2.58899685e-02
      2.58899685e-02 0. 0. 3.23624606e-03 0. 1.94174759e-02
      6.47249212e-03 0. 0. 0. 1.61812305e-02 6.47249212e-03
      6.47249212e-03 3.23624606e-03 0. 1.61812305e-02 0. 6.47249212e-03
      1.61812305e-02 1.61812305e-02 0. 1.61812305e-02 0. 6.47249212e-03
      0. 0. 2.58899685e-02 0. 0. 0. 0. 1.00323625e-01 0. 9.70873795e-03
      0. 0. 9.70873795e-03 2.26537231e-02 3.23624606e-03 6.47249212e-03
      0. 3.23624611e-02 6.47249212e-03 0. 6.47249212e-03 0.
      6.47249212e-03 0. 0. 0. 3.55987065e-02 3.23624606e-03
      1.61812305e-02 2.58899685e-02 3.23624611e-02 9.70873795e-03
      6.47249212e-03 6.47249212e-03 1.29449842e-02 7.44336620e-02 0.
      6.47249222e-02 1.61812305e-02 0. 0. 3.23624606e-03 0.
      6.47249212e-03 9.70873795e-03 1.29449842e-02 0. 0. 0.
      2.91262139e-02 3.23624606e-03 0. 3.23624606e-03 2.91262139e-02
      3.23624606e-03 0. 0. 6.47249212e-03 6.47249212e-03 6.47249212e-03
      1.29449842e-02 0. 6.47249212e-03 0. 2.58899685e-02 3.55987065e-02
      2.91262139e-02 0. 0. 6.47249212e-03</_>
    <_>
      0. 0. 0. 1.31004369e-02 0. 4.36681230e-03 2.62008738e-02
      1.74672492e-02 0. 1.31004369e-02 0. 1.74672492e-02 8.73362459e-03
      4.36681230e-03 1.31004369e-02 4.36681230e-03 2.18340605e-02 0.
      2.18340605e-02 1.31004369e-02 0. 4.36681230e-03 1.31004369e-02
      4.36681230e-03 2.62008738e-02 3.49344984e-02 8.73362459e-03
      1.74672492e-02 4.36681230e-03 4.36681230e-03 0. 4.36681230e-03
      2.18340605e-02 0. 4.36681230e-03 4.36681230e-03 0. 2.18340605e-02
      0. 8.73362459e-03 4.36681230e-03 0. 1.31004369e-02 2.62008738e-02
      4.36681230e-03 0. 4.36681230e-03 8.73362459e-03 4.80349362e-02
      4.36681230e-03 1.31004369e-02 4.36681230e-03 0. 8.73362459e-03
      4.36681230e-03 4.36681230e-03 4.36681230e-03 2.18340605e-02
      1.31004369e-02 2.18340605e-02 3.49344984e-02 0. 0. 0. 0.
      4.36681211e-02 0. 8.73362459e-03 8.73362459e-03 0. 0. 0. 0.
      8.73362459e-03 1.74672492e-02 0. 0. 4.36681230e-03 0. 0.
      2.62008738e-02 0. 4.36681230e-03 4.36681211e-02 4.36681230e-03
      2.62008738e-02 2.18340605e-02 1.74672492e-02 4.36681230e-03
      1.74672492e-02 3.05676870e-02 4.36681230e-03 0. 0. 1.31004369e-02
      1.74672492e-02 4.36681211e-02 4.36681230e-03 0. 2.18340605e-02</_>
    <_>
      7.72200758e-03 1.93050189e-03 5.79150580e-03 1.93050189e-03
      7.72200758e-03 1.15830116e-02 1.73745174e-02 0. 1.93050189e-03
      1.54440152e-02 1.35135129e-02 9.65250935e-03 1.35135129e-02
      1.93050187e-02 1.35135129e-02 1.93050189e-03 1.73745174e-02
      1.93050189e-03 2.50965245e-02 9.65250935e-03 0. 0. 1.73745174e-02
      9.65250935e-03 7.72200758e-03 5.79150580e-03 1.15830116e-02
      7.72200758e-03 1.93050189e-03 0. 3.86100379e-03 0. 1.15830116e-02
      1.93050189e-03 7.72200758e-03 1.73745174e-02 5.79150580e-03
      3.28185335e-02 1.93050189e-03 1.93050187e-02 5.79150580e-03
      1.93050189e-03 3.28185335e-02 5.79150580e-03 0. 5.79150580e-03
      1.93050189e-03 3.08880303e-02 3.86100379e-03 9.65250935e-03
      1.93050189e-03 1.73745174e-02 1.15830116e-02 1.54440152e-02 0.
      2.70270258e-02 0. 9.65250935e-03 3.86100379e-03 2.12355200e-02
      2.50965245e-02 9.65250935e-03 7.72200758e-03 3.86100379e-03
      5.79150580e-03 9.65250935e-03 9.65250935e-03 1.54440152e-02
      5.79150580e-03 0. 3.86100379e-03 3.86100379e-03 1.93050189e-03
      1.54440152e-02 1.73745174e-02 2.31660232e-02 7.72200758e-03 0.
      7.72200758e-03 2.70270258e-02 3.86100379e-03 1.73745174e-02
      1.15830116e-02 9.65250935e-03 1.54440152e-02 7.72200758e-03
      5.79150580e-03 2.70270258e-02 1.54440152e-02 1.15830116e-02
      9.65250935e-03 2.89575290e-02 1.35135129e-02 1.93050189e-03
      3.86100379e-03 1.35135129e-02 3.86100379e-03 3.86100379e-03
      5.79150580e-03 2.12355200e-02</_>
    <_>
      1.82291679e-02 7.81250000e-03 2.86458340e-02 0. 1.30208340e-02
      7.81250000e-03 1.30208340e-02 7.81250000e-03 2.86458340e-02
      2.60416679e-02 1.04166670e-02 1.04166670e-02 2.60416674e-03
      7.81250000e-03 7.81250000e-03 0. 5.20833349e-03 2.60416674e-03
      1.56250000e-02 0. 5.20833349e-03 1.30208340e-02 2.60416674e-03
      2.60416674e-03 7.81250000e-03 1.56250000e-02 0. 2.08333340e-02 0.
      5.20833349e-03 5.20833349e-03 5.20833349e-03 1.82291679e-02
      2.60416674e-03 0. 5.20833349e-03 1.56250000e-02 2.08333340e-02
      5.20833349e-03 2.08333340e-02 5.20833349e-03 2.60416674e-03
      2.34375000e-02 3.12500000e-02 5.20833349e-03 5.20833349e-03 0.
      4.16666679e-02 0. 1.04166670e-02 2.60416674e-03 1.30208340e-02
      7.81250000e-03 2.60416674e-03 7.81250000e-03 7.81250000e-03
      1.30208340e-02 5.20833349e-03 5.20833349e-03 1.30208340e-02
      1.56250000e-02 0. 1.30208340e-02 2.60416674e-03 1.82291679e-02 0.
      0. 1.30208340e-02 1.30208340e-02 0. 7.81250000e-03 2.60416674e-03
      2.60416674e-03 0. 5.20833349e-03 7.81250000e-03 5.20833349e-03
      2.34375000e-02 5.20833349e-03 2.60416674e-03 1.30208340e-02 0.
      1.56250000e-02 7.81250000e-03 3.38541679e-02 2.60416674e-03
      2.08333340e-02 3.12500000e-02 1.82291679e-02 0. 7.81250000e-03
      1.82291679e-02 1.04166670e-02 2.60416679e-02 1.04166670e-02
      1.82291679e-02 7.81250000e-03 2.34375000e-02 0. 7.81250000e-03</_>
    <_>
      5.40540554e-03 2.16216221e-02 0. 2.16216221e-02 5.40540554e-03
      1.62162166e-02 3.24324332e-02 5.40540554e-03 0. 5.40540554e-03 0.
      3.78378406e-02 5.40540554e-03 5.40540554e-03 0. 0. 0.
      5.40540554e-03 1.08108111e-02 1.62162166e-02 0. 0. 0.
      1.08108111e-02 1.62162166e-02 1.62162166e-02 1.08108111e-02
      1.08108111e-02 0. 0. 2.16216221e-02 5.40540554e-02 0.
      5.40540554e-03 0. 5.40540554e-03 5.40540554e-03 3.24324332e-02
      5.40540554e-03 2.70270277e-02 2.16216221e-02 5.40540554e-03 0.
      1.08108111e-02 0. 5.40540554e-03 0. 0. 2.70270277e-02
      1.08108111e-02 1.62162166e-02 0. 1.08108111e-02 0. 1.08108111e-02
      0. 1.08108111e-02 5.40540554e-03 0. 5.40540554e-03 2.70270277e-02
      1.62162166e-02 0. 1.08108111e-02 1.62162166e-02 1.08108111e-02
      1.08108111e-02 2.70270277e-02 2.16216221e-02 0. 5.40540554e-03 0.
      1.62162166e-02 1.08108111e-02 1.08108111e-02 0. 3.24324332e-02
      1.08108111e-02 0. 5.40540554e-03 0. 5.40540554e-03 0.
      1.62162166e-02 0. 5.40540554e-03 1.62162166e-02 0. 5.40540554e-03
      3.78378406e-02 2.16216221e-02 0. 0. 0. 1.62162166e-02
      1.62162166e-02 3.78378406e-02 0. 5.40540554e-03 2.70270277e-02</_>
    <_>
      0. 9.17431153e-03 3.21100913e-02 4.58715577e-03 0. 0.
      1.83486231e-02 4.58715577e-03 0. 9.17431153e-03 0. 1.83486231e-02
      9.17431153e-03 0. 9.17431153e-03 0. 2.75229346e-02 9.17431153e-03
      2.29357779e-02 9.17431153e-03 0. 0. 0. 0. 3.21100913e-02
      3.21100913e-02 0. 9.17431153e-03 0. 9.17431153e-03 0.
      2.29357779e-02 2.29357779e-02 4.58715577e-03 4.58715577e-03 0. 0.
      5.50458692e-02 0. 0. 4.58715577e-03 0. 9.17431153e-03
      2.75229346e-02 0. 0. 0. 3.66972461e-02 0. 0. 4.58715577e-03 0.
      4.58715577e-03 0. 0. 0. 9.17431153e-03 4.58715577e-03
      6.88073337e-02 1.37614673e-02 5.50458692e-02 4.58715577e-03
      4.58715577e-03 0. 0. 6.88073337e-02 0. 1.37614673e-02 0. 0. 0. 0.
      0. 1.37614673e-02 9.17431153e-03 9.17431153e-03 4.58715577e-03 0.
      0. 4.58715577e-03 0. 0. 0. 5.50458692e-02 4.58715577e-03 0.
      1.37614673e-02 9.17431153e-03 0. 2.75229346e-02 9.17431153e-03
      4.58715577e-03 4.58715577e-03 1.83486231e-02 0. 9.17431153e-03
      5.50458692e-02 0. 9.17431153e-03 3.21100913e-02</_>
    <_>
      0. 1.01351356e-02 0. 2.02702712e-02 0. 1.01351356e-02
      1.68918930e-02 0. 0. 2.36486495e-02 6.75675692e-03 1.68918930e-02
      6.75675692e-03 6.75675692e-03 1.68918930e-02 6.75675692e-03
      4.39189188e-02 0. 1.01351356e-02 0. 3.37837846e-03 6.75675692e-03
      6.75675692e-03 6.75675692e-03 2.36486495e-02 4.72972989e-02 0.
      1.01351356e-02 0. 1.01351356e-02 3.37837846e-03 6.75675692e-03
      1.68918930e-02 0. 1.01351356e-02 0. 0. 0. 0. 3.37837846e-03 0.
      3.37837846e-03 4.39189188e-02 3.37837846e-03 0. 1.35135138e-02 0.
      2.02702712e-02 3.37837846e-03 3.04054059e-02 1.35135138e-02
      1.01351356e-02 1.01351356e-02 0. 0. 0. 0. 0. 4.05405425e-02
      2.70270277e-02 6.75675720e-02 0. 1.35135138e-02 1.01351356e-02
      6.75675692e-03 3.37837846e-03 3.37837846e-03 2.36486495e-02
      3.37837846e-03 3.37837846e-03 0. 0. 0. 1.68918930e-02
      2.36486495e-02 3.37837846e-03 0. 3.37837846e-03 0. 3.37837846e-03
      1.01351356e-02 0. 0. 1.01351356e-02 6.75675692e-03 0.
      6.75675692e-03 1.01351356e-02 1.68918930e-02 6.75675692e-03
      4.72972989e-02 2.02702712e-02 3.37837846e-03 0. 1.01351356e-02
      1.01351356e-02 5.40540554e-02 0. 0. 3.04054059e-02</_>
    <_>
      4.18410031e-03 0. 4.18410031e-03 8.36820062e-03 0. 2.92887017e-02
      3.34728025e-02 0. 0. 2.92887017e-02 4.18410031e-03 1.67364012e-02
      8.36820062e-03 1.25523005e-02 5.85774034e-02 0. 0. 8.36820062e-03
      1.25523005e-02 0. 5.02092019e-02 4.18410031e-03 5.02092019e-02 0.
      1.67364012e-02 4.18410031e-03 1.25523005e-02 8.36820062e-03 0. 0.
      1.25523005e-02 0. 1.25523005e-02 0. 4.18410031e-03 0.
      8.36820062e-03 1.25523005e-02 0. 0. 0. 8.36820062e-03
      2.09205020e-02 4.18410031e-03 0. 8.36820062e-03 4.18410031e-03
      2.51046009e-02 0. 2.51046009e-02 0. 0. 8.36820062e-03 0.
      4.18410031e-03 0. 0. 0. 2.51046009e-02 4.60251048e-02
      3.34728025e-02 0. 4.18410031e-03 4.18410031e-03 0. 4.18410031e-03
      4.18410031e-03 1.67364012e-02 8.36820062e-03 0. 0. 0. 0.
      1.25523005e-02 8.36820062e-03 8.36820062e-03 4.18410031e-03
      4.18410031e-03 0. 4.18410031e-03 0. 0. 0. 5.85774034e-02
      2.09205020e-02 0. 0. 2.09205020e-02 4.18410031e-03 8.36820062e-03
      4.18410031e-03 2.09205020e-02 4.18410031e-03 0. 8.36820062e-03
      1.67364012e-02 3.34728025e-02 4.18410031e-03 0. 7.11297020e-02</_>
    <_>
      1.85185187e-02 3.70370364e-03 2.59259250e-02 2.96296291e-02
      3.70370364e-03 7.40740728e-03 1.11111104e-02 2.22222209e-02
      1.48148146e-02 7.40740728e-03 3.70370364e-03 0. 3.33333313e-02
      7.40740728e-03 1.85185187e-02 7.40740728e-03 0. 0. 1.85185187e-02
      0. 7.40740728e-03 7.40740728e-03 0. 2.22222209e-02 1.48148146e-02
      1.85185187e-02 1.48148146e-02 0. 3.70370364e-03 2.22222209e-02
      1.48148146e-02 0. 7.40740728e-03 7.40740728e-03 7.40740728e-03
      1.11111104e-02 1.48148146e-02 7.40740728e-03 7.40740728e-03
      1.11111104e-02 3.70370364e-03 3.70370364e-03 3.70370364e-03
      1.11111104e-02 0. 4.81481478e-02 3.70370364e-03 3.70370364e-03
      1.48148146e-02 1.85185187e-02 7.40740728e-03 3.70370364e-03
      2.22222209e-02 3.70370364e-03 0. 7.40740728e-03 0. 7.40740728e-03
      1.48148146e-02 0. 7.40740728e-03 0. 1.48148146e-02 1.11111104e-02
      1.11111104e-02 0. 0. 1.48148146e-02 2.96296291e-02 1.11111104e-02
      7.40740728e-03 0. 0. 1.85185187e-02 1.85185187e-02 7.40740728e-03
      0. 0. 0. 0. 1.48148146e-02 3.70370364e-03 4.44444418e-02
      3.70370364e-03 1.11111104e-02 2.59259250e-02 1.11111104e-02
      1.11111104e-02 3.70370364e-03 1.48148146e-02 1.85185187e-02
      1.11111104e-02 2.22222209e-02 0. 7.40740728e-03 3.70370364e-03 0.
      1.48148146e-02 0. 1.48148146e-02</_>
    <_>
      2.19780225e-02 3.66300368e-03 7.32600736e-03 7.32600736e-03
      1.09890113e-02 0. 1.09890113e-02 7.32600736e-03 3.66300382e-02
      1.09890113e-02 1.09890113e-02 0. 7.32600736e-03 0. 0.
      7.32600736e-03 3.66300368e-03 1.09890113e-02 7.32600736e-03
      7.32600736e-03 1.09890113e-02 1.83150191e-02 2.19780225e-02
      2.93040294e-02 3.66300368e-03 0. 0. 1.83150191e-02 7.32600736e-03
      0. 0. 0. 3.29670347e-02 5.12820520e-02 7.32600736e-03
      1.09890113e-02 7.32600736e-03 0. 2.93040294e-02 2.19780225e-02
      3.66300368e-03 0. 0. 0. 1.09890113e-02 0. 1.09890113e-02
      7.32600736e-03 3.29670347e-02 3.66300368e-03 0. 2.19780225e-02
      7.32600736e-03 1.46520147e-02 0. 3.66300368e-03 1.83150191e-02
      2.56410260e-02 1.83150191e-02 1.09890113e-02 3.66300368e-03 0.
      3.66300368e-03 2.19780225e-02 1.09890113e-02 7.32600736e-03
      7.32600736e-03 1.46520147e-02 3.66300382e-02 2.19780225e-02
      1.83150191e-02 1.09890113e-02 0. 0. 3.66300368e-03 7.32600736e-03
      1.09890113e-02 0. 3.66300368e-03 1.46520147e-02 1.09890113e-02
      2.19780225e-02 7.32600736e-03 0. 7.32600736e-03 1.83150191e-02
      1.09890113e-02 1.09890113e-02 3.66300368e-03 1.46520147e-02
      1.09890113e-02 7.32600736e-03 3.66300368e-03 7.32600736e-03
      3.66300368e-03 0. 0. 0. 1.46520147e-02 1.46520147e-02</_>
    <_>
      0. 0. 4.49438207e-02 0. 1.12359552e-02 0. 1.12359552e-02 0. 0. 0.
      0. 0. 1.12359552e-02 1.12359552e-02 5.61797759e-03 0.
      1.12359552e-02 0. 3.37078646e-02 0. 0. 0. 5.05617969e-02
      5.61797759e-03 5.61797759e-03 0. 5.61797759e-03 0. 0.
      5.61797759e-03 0. 0. 2.24719103e-02 2.80898884e-02 5.61797759e-03
      5.61797768e-02 1.68539323e-02 6.74157292e-02 1.68539323e-02
      1.12359552e-02 1.12359552e-02 0. 0. 0. 0. 0. 5.61797759e-03
      1.68539323e-02 2.24719103e-02 0. 0. 1.68539323e-02 0.
      1.12359552e-02 0. 0. 6.17977530e-02 0. 1.68539323e-02 0.
      5.61797759e-03 0. 5.61797759e-03 1.68539323e-02 1.12359552e-02
      2.24719103e-02 0. 5.61797759e-03 5.61797759e-03 0. 0. 0.
      1.12359552e-02 3.93258445e-02 5.61797759e-03 0. 5.61797759e-03 0.
      1.12359552e-02 2.24719103e-02 5.61797759e-03 1.12359552e-02
      2.24719103e-02 2.24719103e-02 2.80898884e-02 0. 3.93258445e-02
      5.61797759e-03 5.61797759e-03 0. 1.12359552e-02 0. 1.68539323e-02
      0. 0. 5.61797759e-03 4.49438207e-02 0. 0. 1.12359552e-02</_>
    <_>
      7.75862038e-02 8.62068962e-03 8.62068962e-03 0. 7.75862038e-02
      8.62068962e-03 0. 0. 1.03448272e-01 1.72413792e-02 0.
      8.62068962e-03 0. 1.72413792e-02 0. 8.62068962e-03 0.
      8.62068962e-03 0. 0. 0. 8.62068962e-03 0. 1.72413792e-02 0. 0. 0.
      0. 2.58620679e-02 0. 0. 0. 8.62068962e-03 0. 0. 1.72413792e-02
      6.89655170e-02 0. 7.75862038e-02 8.62068962e-03 0. 8.62068962e-03
      0. 0. 0. 0. 0. 0. 3.44827585e-02 1.72413792e-02 0. 6.03448264e-02
      0. 1.72413792e-02 0. 0. 0. 2.58620679e-02 0. 0. 0. 0.
      1.72413792e-02 0. 0. 0. 0. 0. 8.62068962e-03 9.48275849e-02
      8.62068962e-03 8.62068962e-03 0. 8.62068962e-03 0. 8.62068962e-03
      8.62068962e-03 0. 1.72413792e-02 0. 8.62068962e-03 8.62068962e-03
      2.58620679e-02 0. 8.62068962e-03 0. 0. 8.62068962e-03 0. 0.
      8.62068962e-03 0. 0. 0. 0. 0. 0. 0. 8.62068962e-03 0.</_>
    <_>
      4.99999989e-03 4.99999989e-03 9.99999978e-03 1.49999997e-02 0.
      3.50000001e-02 1.49999997e-02 1.99999996e-02 0. 0. 0. 0. 0.
      4.99999989e-03 0. 9.99999978e-03 4.99999989e-03 4.99999989e-03
      4.49999981e-02 0. 9.99999978e-03 9.99999978e-03 0. 9.99999978e-03
      4.99999989e-03 1.99999996e-02 4.99999989e-03 4.99999989e-03 0.
      4.99999989e-03 1.99999996e-02 0. 1.49999997e-02 4.99999989e-03
      1.99999996e-02 4.99999989e-03 4.99999989e-03 1.49999997e-02
      1.49999997e-02 4.99999989e-03 0. 0. 1.49999997e-02 4.99999989e-03
      4.99999989e-03 2.49999985e-02 9.99999978e-03 0. 2.99999993e-02
      9.99999978e-03 4.99999989e-03 9.99999978e-03 4.99999989e-03
      9.99999978e-03 0. 0. 4.99999989e-03 1.49999997e-02 0. 0.
      1.49999997e-02 0. 9.99999978e-03 3.50000001e-02 1.49999997e-02
      1.99999996e-02 0. 4.99999989e-03 4.99999970e-02 0. 0. 0.
      4.99999989e-03 5.99999987e-02 4.99999989e-03 4.99999989e-03 0.
      4.99999989e-03 4.99999989e-03 9.99999978e-03 0. 9.99999978e-03
      2.49999985e-02 1.99999996e-02 2.49999985e-02 1.99999996e-02 0.
      1.99999996e-02 4.99999989e-03 1.49999997e-02 4.99999989e-03 0.
      1.99999996e-02 1.99999996e-02 4.99999989e-03 1.49999997e-02
      2.99999993e-02 9.99999978e-03 0. 9.99999978e-03</_>
    <_>
      2.29885057e-02 1.91570874e-02 1.14942528e-02 0. 1.53256701e-02
      1.91570874e-02 3.83141753e-03 0. 3.83141753e-03 0. 1.14942528e-02
      0. 3.83141753e-03 1.14942528e-02 1.91570874e-02 0. 2.68199220e-02
      3.83141753e-03 2.29885057e-02 1.14942528e-02 3.83141753e-03
      1.53256701e-02 3.83141753e-03 7.66283507e-03 3.83141753e-03 0. 0.
      7.66283507e-03 3.83141753e-03 0. 0. 0. 1.53256701e-02 0.
      7.66283507e-03 0. 3.83141753e-03 5.36398441e-02 1.14942528e-02
      1.91570874e-02 0. 2.68199220e-02 1.14942528e-02 0. 3.83141753e-03
      7.66283507e-03 1.91570874e-02 0. 0. 2.29885057e-02 1.14942528e-02
      0. 3.83141749e-02 0. 3.83141753e-03 0. 1.91570874e-02
      7.66283507e-03 7.66283507e-03 1.14942528e-02 3.06513403e-02 0.
      3.83141753e-03 1.53256701e-02 1.53256701e-02 1.53256701e-02 0.
      3.44827585e-02 1.53256701e-02 0. 0. 7.66283507e-03 0.
      7.66283507e-03 2.68199220e-02 1.53256701e-02 0. 3.83141753e-03 0.
      3.83141753e-03 2.68199220e-02 1.53256701e-02 7.66283507e-03
      1.91570874e-02 3.83141753e-03 1.91570874e-02 7.66283507e-03 0.
      7.66283507e-03 2.29885057e-02 3.83141753e-03 0. 3.83141753e-03 0.
      3.06513403e-02 3.83141753e-03 5.36398441e-02 0. 1.91570874e-02
      3.83141753e-03</_>
    <_>
      1.99999996e-02 0. 0. 1.49999997e-02 4.99999989e-03 4.99999989e-03
      0. 4.99999989e-03 9.99999978e-03 0. 0. 0. 0. 9.99999978e-03
      9.99999978e-03 2.99999993e-02 3.50000001e-02 9.99999978e-03
      9.99999978e-03 2.99999993e-02 4.99999989e-03 9.99999978e-03
      2.99999993e-02 4.99999989e-03 4.99999989e-03 1.99999996e-02
      4.99999989e-03 0. 2.49999985e-02 0. 0. 0. 1.99999996e-02
      6.49999976e-02 4.99999989e-03 9.99999978e-03 2.49999985e-02 0.
      4.49999981e-02 9.99999978e-03 0. 0. 9.99999978e-03 4.99999989e-03
      2.99999993e-02 2.49999985e-02 0. 0. 4.99999989e-03 0. 0.
      9.99999978e-03 4.99999989e-03 4.99999989e-03 9.99999978e-03 0.
      2.49999985e-02 0. 4.99999989e-03 4.99999989e-03 4.99999989e-03 0.
      4.99999989e-03 9.99999978e-03 1.99999996e-02 0. 9.99999978e-03 0.
      9.99999978e-03 4.99999989e-03 4.99999989e-03 4.99999989e-03
      4.99999989e-03 4.99999989e-03 1.99999996e-02 0. 0. 0.
      4.99999989e-03 0. 9.99999978e-03 2.49999985e-02 1.99999996e-02
      1.99999996e-02 1.99999996e-02 4.99999989e-03 3.50000001e-02 0.
      1.49999997e-02 3.50000001e-02 1.49999997e-02 4.99999989e-03 0. 0.
      9.99999978e-03 4.99999989e-03 2.49999985e-02 1.99999996e-02 0.
      4.99999989e-03</_>
    <_>
      1.94805190e-02 0. 2.59740259e-02 2.27272734e-02 1.62337665e-02 0.
      3.24675324e-03 0. 6.49350649e-03 6.49350649e-03 3.24675324e-03
      9.74025950e-03 6.49350649e-03 1.62337665e-02 9.74025950e-03 0.
      3.24675324e-03 6.49350649e-03 9.74025950e-03 3.24675324e-03 0. 0.
      3.24675329e-02 9.74025950e-03 6.49350649e-03 1.62337665e-02
      1.29870130e-02 1.29870130e-02 3.24675324e-03 0. 0. 0.
      1.62337665e-02 2.92207785e-02 1.62337665e-02 9.74025950e-03
      1.94805190e-02 1.29870130e-02 6.49350649e-03 1.94805190e-02 0. 0.
      1.29870130e-02 9.74025950e-03 0. 1.62337665e-02 3.24675324e-03
      1.94805190e-02 3.24675324e-03 9.74025950e-03 3.24675324e-03
      9.74025950e-03 6.49350649e-03 1.62337665e-02 0. 0. 3.24675324e-03
      0. 1.62337665e-02 3.24675324e-03 1.62337665e-02 0. 6.49350649e-03
      0. 3.24675324e-03 3.24675324e-03 6.49350649e-03 2.27272734e-02
      1.62337665e-02 2.59740259e-02 3.24675329e-02 1.29870130e-02 0.
      2.92207785e-02 1.29870130e-02 6.49350649e-03 3.24675324e-03 0. 0.
      1.62337665e-02 2.59740259e-02 3.24675329e-02 0. 2.92207785e-02
      1.94805190e-02 1.29870130e-02 2.92207785e-02 1.29870130e-02
      3.24675324e-03 1.29870130e-02 9.74025950e-03 9.74025950e-03 0. 0.
      1.94805190e-02 9.74025950e-03 1.29870130e-02 6.49350649e-03 0.
      1.29870130e-02</_>
    <_>
      0. 1.06951874e-02 2.67379684e-03 0. 0. 1.33689847e-02
      2.67379694e-02 1.33689847e-02 0. 1.87165774e-02 0. 2.13903747e-02
      5.34759369e-03 5.34759369e-03 2.67379684e-03 2.40641721e-02
      8.02139007e-03 5.34759369e-03 1.06951874e-02 1.87165774e-02
      2.67379684e-03 8.02139007e-03 5.34759369e-03 2.67379684e-03
      1.06951874e-02 8.02139007e-03 2.67379684e-03 2.67379684e-03
      1.33689847e-02 0. 2.67379684e-03 1.33689847e-02 3.47593576e-02
      5.34759369e-03 0. 8.02139007e-03 2.67379684e-03 8.02139044e-02 0.
      5.34759369e-03 2.67379684e-03 5.34759369e-03 1.60427801e-02
      1.33689847e-02 1.60427801e-02 0. 0. 2.13903747e-02 2.40641721e-02
      0. 0. 0. 1.06951874e-02 1.06951874e-02 0. 0. 1.60427801e-02
      1.87165774e-02 2.67379684e-03 1.06951874e-02 3.20855603e-02
      1.06951874e-02 2.67379684e-03 2.67379684e-03 2.67379684e-03
      5.88235296e-02 0. 1.33689847e-02 2.40641721e-02 0. 0. 0.
      2.67379684e-03 5.34759369e-03 5.34759369e-03 5.34759369e-03 0.
      2.67379684e-03 2.13903747e-02 0. 2.67379684e-03 8.02139007e-03
      2.67379684e-03 2.67379694e-02 1.60427801e-02 0. 8.02139007e-03
      8.02139007e-03 2.67379684e-03 1.87165774e-02 1.87165774e-02 0.
      5.34759369e-03 0. 1.06951874e-02 8.55614990e-02 1.33689847e-02 0.
      0. 1.87165774e-02</_>
    <_>
      0. 3.69003713e-02 3.69003695e-03 2.21402217e-02 0. 0.
      7.38007389e-03 2.95202956e-02 0. 3.69003695e-03 0. 7.38007389e-03
      0. 7.38007389e-03 0. 7.38007389e-03 1.47601478e-02 1.10701108e-02
      1.10701108e-02 1.47601478e-02 7.38007389e-03 0. 3.69003695e-03
      2.58302577e-02 2.58302577e-02 3.69003713e-02 4.79704812e-02
      3.32103334e-02 1.10701108e-02 3.69003695e-03 3.69003695e-03
      3.69003695e-03 0. 1.10701108e-02 3.69003695e-03 1.10701108e-02
      7.38007389e-03 0. 0. 3.69003695e-03 0. 7.38007389e-03 0. 0.
      7.38007389e-03 3.69003695e-03 0. 1.10701108e-02 1.84501857e-02
      1.47601478e-02 1.10701108e-02 3.69003695e-03 1.84501857e-02
      6.27306253e-02 1.10701108e-02 0. 0. 1.47601478e-02 3.32103334e-02
      3.69003695e-03 1.84501857e-02 0. 0. 3.69003695e-03 3.69003695e-03
      0. 0. 0. 4.42804433e-02 0. 3.69003695e-03 0. 3.69003695e-03
      2.21402217e-02 4.42804433e-02 3.69003695e-03 3.69003695e-03
      3.69003695e-03 0. 3.69003695e-03 7.38007389e-03 1.10701108e-02
      2.21402217e-02 0. 3.69003695e-03 1.47601478e-02 2.95202956e-02
      1.10701108e-02 1.10701108e-02 1.47601478e-02 1.84501857e-02
      3.69003695e-03 7.38007389e-03 0. 7.38007389e-03 3.69003695e-03
      7.38007389e-03 1.84501857e-02 0. 1.10701108e-02</_>
    <_>
      2.18978096e-02 3.64963501e-03 7.29927002e-03 1.45985400e-02
      1.82481743e-02 0. 7.29927002e-03 7.29927002e-03 2.91970801e-02
      7.29927002e-03 3.64963501e-03 0. 1.09489048e-02 0. 0.
      7.29927002e-03 0. 7.29927002e-03 1.09489048e-02 1.09489048e-02
      1.45985400e-02 1.82481743e-02 2.18978096e-02 2.55474448e-02
      7.29927002e-03 0. 0. 1.82481743e-02 7.29927002e-03 3.64963501e-03
      3.64963501e-03 3.64963501e-03 3.28467153e-02 3.28467153e-02
      7.29927002e-03 1.09489048e-02 7.29927002e-03 0. 3.28467153e-02
      2.18978096e-02 3.64963501e-03 0. 3.64963501e-03 0. 1.45985400e-02
      0. 2.55474448e-02 3.64963501e-03 2.91970801e-02 3.64963501e-03 0.
      1.82481743e-02 7.29927002e-03 1.09489048e-02 0. 3.64963501e-03
      1.82481743e-02 1.82481743e-02 1.82481743e-02 7.29927002e-03 0. 0.
      0. 1.82481743e-02 1.45985400e-02 7.29927002e-03 7.29927002e-03
      1.82481743e-02 3.64963487e-02 2.91970801e-02 2.55474448e-02
      7.29927002e-03 0. 3.64963501e-03 3.64963501e-03 3.64963501e-03
      1.45985400e-02 0. 3.64963501e-03 1.45985400e-02 1.82481743e-02
      2.55474448e-02 3.64963501e-03 0. 3.64963501e-03 1.45985400e-02
      3.64963501e-03 1.09489048e-02 7.29927002e-03 1.09489048e-02
      7.29927002e-03 3.64963501e-03 7.29927002e-03 0. 3.64963501e-03 0.
      0. 0. 1.82481743e-02 2.91970801e-02</_>
    <_>
      0. 5.57103055e-03 0. 0. 2.78551527e-03 3.34261842e-02
      8.35654605e-03 1.94986071e-02 0. 2.78551527e-03 8.35654605e-03
      8.35654605e-03 1.67130921e-02 8.35654605e-03 5.57103055e-03
      1.11420611e-02 1.67130921e-02 0. 2.50696372e-02 2.78551527e-03 0.
      2.78551523e-02 8.35654605e-03 1.39275761e-02 1.39275761e-02
      1.11420611e-02 8.35654605e-03 8.35654605e-03 2.78551527e-03
      5.57103055e-03 1.11420611e-02 0. 3.06406673e-02 1.94986071e-02
      5.57103055e-03 5.57103055e-03 2.78551527e-03 1.11420611e-02
      1.94986071e-02 2.78551527e-03 0. 1.39275761e-02 5.57103055e-03
      5.57103055e-03 2.78551527e-03 8.35654605e-03 1.67130921e-02
      1.11420611e-02 5.57103055e-03 2.78551523e-02 2.22841222e-02
      8.35654605e-03 1.39275761e-02 2.78551527e-03 1.39275761e-02 0.
      8.35654605e-03 5.57103055e-03 8.35654605e-03 8.35654605e-03
      1.94986071e-02 0. 8.35654605e-03 8.35654605e-03 5.57103055e-03
      2.50696372e-02 0. 3.89972143e-02 1.94986071e-02 5.57103055e-03 0.
      1.39275761e-02 2.78551527e-03 1.94986071e-02 3.06406673e-02
      5.57103055e-03 2.78551527e-03 2.78551527e-03 0. 2.78551527e-03
      5.57103055e-03 5.57103055e-03 1.67130921e-02 1.11420611e-02
      2.78551527e-03 5.57103055e-03 2.78551527e-03 1.11420611e-02
      8.35654605e-03 5.57103055e-03 1.67130921e-02 1.11420611e-02
      1.39275761e-02 8.35654605e-03 2.50696372e-02 2.78551527e-03
      1.67130921e-02 1.39275761e-02 1.11420611e-02 1.94986071e-02</_>
    <_>
      2.08333340e-02 1.25000011e-02 0. 4.16666688e-03 0. 4.16666688e-03
      2.08333340e-02 8.33333377e-03 0. 8.33333377e-03 8.33333377e-03
      8.33333377e-03 2.50000022e-02 5.41666709e-02 8.33333377e-03
      4.16666688e-03 1.25000011e-02 0. 4.16666688e-03 4.16666688e-03 0.
      0. 8.33333377e-03 0. 8.33333377e-03 3.75000015e-02 1.25000011e-02
      1.25000011e-02 0. 1.25000011e-02 0. 4.16666688e-03 4.16666688e-03
      0. 4.16666688e-03 0. 3.33333351e-02 0. 8.33333377e-03
      4.16666688e-03 4.16666688e-03 0. 2.91666687e-02 8.33333377e-03
      4.16666688e-03 8.33333377e-03 8.33333377e-03 1.66666675e-02
      2.91666687e-02 1.66666675e-02 1.66666675e-02 8.33333377e-03
      8.33333377e-03 0. 0. 0. 8.33333377e-03 4.16666688e-03
      4.16666688e-03 2.08333340e-02 3.33333351e-02 0. 1.25000011e-02
      3.75000015e-02 1.66666675e-02 4.16666688e-03 0. 2.91666687e-02
      3.33333351e-02 0. 4.16666688e-03 1.25000011e-02 0. 1.25000011e-02
      2.50000022e-02 0. 0. 0. 0. 0. 4.16666688e-03 4.16666688e-03
      1.25000011e-02 1.66666675e-02 2.50000022e-02 2.50000022e-02
      2.08333340e-02 4.16666688e-03 1.25000011e-02 8.33333377e-03
      1.66666675e-02 1.25000011e-02 1.25000011e-02 0. 0. 8.33333377e-03
      1.66666675e-02 1.25000011e-02 4.16666688e-03 8.33333377e-03</_>
    <_>
      0. 1.03806229e-02 1.38408309e-02 0. 6.92041544e-03 1.73010379e-02
      1.38408309e-02 0. 0. 0. 0. 3.11418697e-02 6.92041544e-03
      3.46020772e-03 4.15224917e-02 3.46020772e-03 2.76816618e-02
      1.38408309e-02 6.92041544e-03 3.46020772e-03 0. 6.92041544e-03
      3.46020772e-03 3.46020772e-03 3.46020772e-03 2.42214538e-02
      1.38408309e-02 0. 0. 0. 6.92041544e-03 2.42214538e-02
      1.03806229e-02 3.46020772e-03 0. 0. 0. 4.49827015e-02 0.
      6.92041544e-03 0. 0. 1.73010379e-02 0. 0. 3.46020772e-03 0.
      3.11418697e-02 1.38408309e-02 3.46020772e-03 3.46020772e-03
      3.46020772e-03 0. 3.46020772e-03 0. 6.92041544e-03 1.38408309e-02
      6.92041544e-03 6.92041544e-03 3.46020772e-03 4.84429076e-02
      2.76816618e-02 0. 0. 3.46020772e-03 4.15224917e-02 1.38408309e-02
      2.42214538e-02 0. 0. 0. 3.46020772e-03 1.03806229e-02
      1.38408309e-02 2.42214538e-02 3.46020772e-03 1.38408309e-02
      3.46020772e-03 1.03806229e-02 0. 6.92041544e-03 0. 1.03806229e-02
      6.92041516e-02 2.07612459e-02 0. 3.46020772e-03 1.38408309e-02
      3.46020772e-03 1.73010379e-02 1.38408309e-02 2.07612459e-02
      6.92041544e-03 0. 2.07612459e-02 1.03806229e-02 5.88235296e-02
      3.46020772e-03 0. 6.92041544e-03</_>
    <_>
      4.38596494e-03 8.77192989e-03 2.63157897e-02 4.38596494e-03 0.
      4.38596494e-03 4.38596494e-03 8.77192989e-03 0. 0. 4.38596494e-03
      1.75438598e-02 0. 1.31578948e-02 0. 0. 8.77192989e-03
      8.77192989e-03 1.31578948e-02 1.31578948e-02 2.19298247e-02
      1.31578948e-02 0. 1.31578948e-02 1.75438598e-02 2.63157897e-02
      1.31578948e-02 0. 8.77192989e-03 0. 4.38596494e-03 8.77192989e-03
      8.77192989e-03 0. 0. 4.38596494e-03 4.38596494e-03 3.07017546e-02
      0. 4.38596494e-03 4.38596494e-03 1.31578948e-02 1.75438598e-02
      2.63157897e-02 1.31578948e-02 1.31578948e-02 0. 4.38596494e-03
      2.19298247e-02 0. 4.38596494e-03 8.77192989e-03 1.31578948e-02
      4.38596494e-03 4.38596494e-03 2.19298247e-02 0. 0. 2.19298247e-02
      4.38596494e-03 4.82456163e-02 0. 8.77192989e-03 0. 8.77192989e-03
      1.75438598e-02 4.38596494e-03 0. 8.77192989e-03 4.38596494e-03
      8.77192989e-03 0. 4.38596494e-03 0. 3.50877196e-02 4.38596494e-03
      8.77192989e-03 0. 0. 1.75438598e-02 8.77192989e-03 0.
      1.31578948e-02 6.14035092e-02 1.31578948e-02 1.75438598e-02
      8.77192989e-03 0. 0. 3.50877196e-02 1.31578948e-02 4.38596494e-03
      0. 0. 1.75438598e-02 3.94736826e-02 5.70175424e-02 0. 0.
      1.31578948e-02</_>
    <_>
      3.03951371e-03 0. 9.11854114e-03 0. 0. 1.21580549e-02
      1.51975686e-02 6.07902743e-03 3.03951371e-03 0. 3.03951371e-03
      1.51975686e-02 0. 6.07902743e-03 1.82370823e-02 6.07902743e-03
      1.82370823e-02 3.03951371e-03 6.07902743e-03 3.03951371e-03
      2.12765969e-02 6.07902743e-03 1.21580549e-02 6.07902743e-03
      9.11854114e-03 9.11854114e-03 2.12765969e-02 6.07902743e-03 0.
      1.82370823e-02 0. 3.03951371e-03 1.51975686e-02 3.03951371e-03 0.
      3.03951371e-03 3.03951371e-03 3.64741646e-02 0. 9.11854114e-03
      3.03951371e-03 1.21580549e-02 1.21580549e-02 2.43161097e-02
      3.03951371e-03 9.11854114e-03 0. 3.03951371e-03 3.03951371e-03 0.
      0. 3.03951371e-03 3.03951371e-03 2.43161097e-02 3.03951371e-03
      9.11854114e-03 1.82370823e-02 3.03951371e-03 4.25531939e-02
      1.51975686e-02 2.43161097e-02 9.11854114e-03 6.07902743e-03 0.
      6.07902743e-03 3.95136774e-02 6.07902743e-03 1.21580549e-02
      9.11854114e-03 9.11854114e-03 0. 9.11854114e-03 1.21580549e-02 0.
      2.73556225e-02 3.34346518e-02 0. 3.03951371e-03 6.07902743e-03
      1.51975686e-02 6.07902743e-03 9.11854114e-03 0. 6.07902743e-02
      2.43161097e-02 6.07902743e-03 1.82370823e-02 3.03951371e-03
      6.07902743e-03 2.43161097e-02 3.03951371e-03 0. 9.11854114e-03
      9.11854114e-03 1.21580549e-02 2.43161097e-02 2.73556225e-02 0.
      2.12765969e-02 6.07902743e-03</_>
    <_>
      1.24378111e-02 0. 7.46268639e-03 7.46268639e-03 0. 9.95024852e-03
      7.46268639e-03 1.99004970e-02 0. 2.48756213e-03 2.48756213e-03
      4.97512426e-03 7.46268639e-03 1.99004970e-02 4.97512426e-03
      7.46268639e-03 9.95024852e-03 9.95024852e-03 1.99004970e-02
      2.48756213e-03 1.24378111e-02 4.97512426e-03 4.22885567e-02
      3.48258689e-02 9.95024852e-03 0. 0. 1.24378111e-02 0.
      9.95024852e-03 7.46268639e-03 7.46268639e-03 2.23880596e-02
      5.22388034e-02 7.46268639e-03 1.24378111e-02 1.99004970e-02
      1.24378111e-02 7.46268639e-03 4.97512426e-03 1.49253728e-02
      1.74129345e-02 4.97512426e-03 4.97512426e-03 7.46268639e-03 0.
      1.24378111e-02 4.97512426e-03 3.48258689e-02 1.24378111e-02
      4.97512426e-03 1.99004970e-02 7.46268639e-03 1.74129345e-02
      9.95024852e-03 7.46268639e-03 2.98507456e-02 3.73134315e-02
      4.97512426e-03 0. 4.97512426e-03 0. 7.46268639e-03 1.74129345e-02
      7.46268639e-03 0. 4.97512426e-03 2.48756213e-03 3.23383063e-02
      2.48756213e-03 1.49253728e-02 7.46268639e-03 2.48756213e-03
      1.99004970e-02 2.48756213e-03 0. 0. 4.97512426e-03 0.
      2.48756213e-03 0. 2.98507456e-02 1.49253728e-02 2.48756213e-03
      1.49253728e-02 1.49253728e-02 1.74129345e-02 1.24378111e-02
      1.49253728e-02 0. 7.46268639e-03 0. 0. 0. 4.97512426e-03
      2.48756213e-03 0. 7.46268639e-03 0. 2.98507456e-02</_>
    <_>
      4.34782589e-03 2.17391290e-02 4.34782589e-03 0. 2.60869563e-02 0.
      4.34782589e-03 3.04347817e-02 4.34782589e-03 4.34782589e-03
      1.30434781e-02 0. 0. 0. 0. 8.69565178e-03 8.69565178e-03
      3.04347817e-02 1.73913036e-02 2.17391290e-02 4.34782589e-03 0.
      2.17391290e-02 2.17391290e-02 0. 1.30434781e-02 1.73913036e-02 0.
      2.60869563e-02 2.17391290e-02 4.34782589e-03 8.69565178e-03
      8.69565178e-03 2.60869563e-02 8.69565178e-03 3.04347817e-02
      2.17391290e-02 1.73913036e-02 4.34782589e-03 1.73913036e-02
      1.73913036e-02 0. 2.17391290e-02 4.34782589e-03 0. 4.34782589e-03
      8.69565178e-03 0. 1.73913036e-02 1.30434781e-02 4.34782589e-03 0.
      0. 3.91304344e-02 0. 4.34782589e-03 1.73913036e-02 2.60869563e-02
      0. 0. 0. 2.60869563e-02 8.69565178e-03 1.30434781e-02
      4.34782589e-03 4.34782589e-03 0. 8.69565178e-03 4.34782580e-02
      4.34782589e-03 8.69565178e-03 4.34782589e-03 8.69565178e-03
      4.34782589e-03 1.73913036e-02 8.69565178e-03 0. 0. 8.69565178e-03
      2.17391290e-02 4.34782589e-03 8.69565178e-03 8.69565178e-03 0.
      1.30434781e-02 0. 8.69565178e-03 4.34782589e-03 2.60869563e-02
      2.60869563e-02 1.73913036e-02 0. 0. 8.69565178e-03 8.69565178e-03
      0. 8.69565178e-03 0. 0. 8.69565178e-03</_>
    <_>
      1.35135138e-02 4.50450461e-03 9.00900923e-03 9.00900923e-03
      1.80180185e-02 9.00900923e-03 2.25225240e-02 9.00900923e-03
      1.35135138e-02 0. 9.00900923e-03 0. 1.80180185e-02 1.35135138e-02
      0. 0. 2.70270277e-02 0. 1.35135138e-02 4.50450461e-03
      4.50450461e-03 0. 2.25225240e-02 4.50450461e-03 0. 4.50450461e-03
      0. 1.80180185e-02 4.50450461e-03 0. 9.00900923e-03 4.50450461e-03
      1.80180185e-02 0. 4.50450461e-03 4.50450461e-03 1.35135138e-02
      3.60360369e-02 9.00900923e-03 3.15315314e-02 9.00900923e-03
      9.00900923e-03 1.35135138e-02 1.80180185e-02 0. 4.50450461e-03
      4.50450461e-03 4.50450461e-03 4.50450480e-02 4.50450461e-03
      4.50450461e-03 4.50450461e-03 0. 4.50450461e-03 0. 0.
      1.80180185e-02 1.35135138e-02 1.35135138e-02 4.50450461e-03
      4.05405425e-02 1.80180185e-02 1.35135138e-02 0. 0. 1.35135138e-02
      0. 2.70270277e-02 3.60360369e-02 4.50450461e-03 3.15315314e-02
      1.80180185e-02 4.50450461e-03 4.50450461e-03 0. 0. 0.
      4.50450461e-03 4.50450461e-03 1.80180185e-02 1.35135138e-02
      1.35135138e-02 4.50450461e-03 1.35135138e-02 9.00900923e-03
      1.35135138e-02 4.05405425e-02 4.50450461e-03 0. 1.35135138e-02
      1.35135138e-02 2.25225240e-02 0. 4.50450461e-03 9.00900923e-03
      9.00900923e-03 1.35135138e-02 0. 0. 4.50450461e-03</_>
    <_>
      0. 1.41342757e-02 0. 1.06007066e-02 0. 2.82685515e-02
      1.41342757e-02 3.53356898e-02 0. 1.06007066e-02 1.41342757e-02
      1.06007066e-02 7.06713786e-03 7.06713786e-03 7.06713786e-03
      2.12014131e-02 0. 3.53356893e-03 3.88692580e-02 3.53356893e-03
      1.06007066e-02 3.53356893e-03 3.53356893e-03 2.82685515e-02
      2.47349832e-02 2.47349832e-02 7.06713786e-03 1.06007066e-02
      1.76678449e-02 3.53356893e-03 1.41342757e-02 3.53356893e-03
      2.82685515e-02 7.06713786e-03 1.41342757e-02 1.41342757e-02
      7.06713786e-03 1.41342757e-02 3.53356893e-03 1.06007066e-02 0.
      7.06713786e-03 1.06007066e-02 0. 7.06713786e-03 1.06007066e-02
      1.06007066e-02 1.41342757e-02 5.65371029e-02 7.06713786e-03
      1.06007066e-02 7.06713786e-03 3.53356893e-03 0. 0. 3.53356893e-03
      7.06713786e-03 3.18021215e-02 1.76678449e-02 3.53356893e-03
      1.06007066e-02 0. 3.53356893e-03 1.06007066e-02 1.76678449e-02 0.
      3.53356893e-03 1.76678449e-02 1.76678449e-02 0. 0. 0. 0.
      2.82685515e-02 7.06713786e-03 0. 0. 3.53356893e-03 0.
      3.53356893e-03 0. 0. 1.06007066e-02 1.76678449e-02 3.53356893e-03
      1.76678449e-02 0. 1.06007066e-02 3.53356893e-03 3.53356893e-03
      7.06713786e-03 2.47349832e-02 1.76678449e-02 0. 1.06007066e-02
      1.41342757e-02 1.76678449e-02 1.76678449e-02 0. 1.41342757e-02</_>
    <_>
      9.17431153e-03 0. 0. 2.75229346e-02 1.83486231e-02 0. 0. 0. 0.
      9.17431153e-03 0. 0. 0. 6.42201826e-02 9.17431153e-03 0. 0. 0.
      9.17431153e-03 9.17431153e-03 1.83486231e-02 3.66972461e-02
      9.17431153e-03 9.17431153e-03 3.66972461e-02 2.75229346e-02
      9.17431153e-03 9.17431153e-03 2.75229346e-02 2.75229346e-02 0. 0.
      0. 0. 0. 1.10091738e-01 9.17431153e-03 0. 0. 1.83486231e-02 0. 0.
      0. 0. 3.66972461e-02 3.66972461e-02 9.17431153e-03 0.
      9.17431153e-03 0. 1.83486231e-02 0. 9.17431153e-03 3.66972461e-02
      1.83486231e-02 0. 9.17431153e-03 2.75229346e-02 0. 0.
      9.17431153e-03 0. 0. 0. 3.66972461e-02 0. 0. 9.17431153e-03
      9.17431153e-03 9.17431153e-03 9.17431153e-03 0. 0. 0. 0.
      9.17431153e-03 9.17431153e-03 5.50458692e-02 0. 0. 9.17431153e-03
      2.75229346e-02 0. 9.17431153e-03 0. 1.83486231e-02 0.
      1.83486231e-02 9.17431153e-03 9.17431153e-03 0. 0. 0. 0. 0. 0. 0.
      9.17431153e-03 9.17431153e-03 9.17431153e-03</_>
    <_>
      5.94059424e-03 5.94059424e-03 2.91089118e-01 0. 1.18811885e-02
      1.98019808e-03 9.90099087e-03 0. 1.98019808e-03 1.38613861e-02
      5.94059424e-03 9.90099087e-03 7.92079233e-03 3.96039616e-03
      5.94059424e-03 1.98019808e-03 7.92079233e-03 5.94059424e-03
      9.90099087e-03 0. 0. 1.98019808e-03 1.98019808e-03 3.96039616e-03
      3.96039616e-03 1.98019808e-03 7.92079233e-03 1.38613861e-02
      1.98019808e-03 3.96039616e-03 7.92079233e-03 1.98019808e-03
      3.96039616e-03 0. 9.90099087e-03 0. 0. 7.92079233e-03
      3.96039616e-03 1.38613861e-02 1.98019808e-03 1.98019808e-03
      7.92079233e-03 3.96039616e-03 0. 5.94059424e-03 0. 1.18811885e-02
      7.92079233e-03 1.98019817e-02 1.18811885e-02 0. 1.38613861e-02 0.
      1.98019808e-03 1.98019808e-03 1.98019808e-03 5.94059424e-03
      7.92079233e-03 7.92079233e-03 1.38613861e-02 3.96039616e-03
      5.94059424e-03 1.18811885e-02 5.94059424e-03 2.17821784e-02
      1.18811885e-02 1.98019808e-03 1.98019817e-02 5.94059424e-03
      9.90099087e-03 3.36633660e-02 0. 5.94059424e-03 3.96039616e-03
      3.96039635e-02 3.96039616e-03 0. 0. 4.15841602e-02 7.92079233e-03
      1.98019808e-03 9.90099087e-03 1.18811885e-02 1.58415847e-02
      9.90099087e-03 9.90099087e-03 1.58415847e-02 0. 1.18811885e-02
      5.94059424e-03 1.18811885e-02 1.58415847e-02 1.98019808e-03
      3.96039616e-03 3.96039616e-03 5.94059424e-03 1.98019808e-03
      1.98019808e-03 1.98019808e-03</_>
    <_>
      5.83333373e-02 4.16666688e-03 0. 0. 8.33333377e-03 0.
      8.33333377e-03 2.08333340e-02 8.33333377e-03 2.50000022e-02
      8.33333377e-03 8.33333377e-03 2.91666687e-02 0. 4.16666688e-03
      1.25000011e-02 4.16666688e-03 1.66666675e-02 4.16666688e-03
      8.33333377e-03 1.66666675e-02 4.16666688e-03 4.16666688e-03
      2.50000022e-02 0. 0. 0. 8.33333377e-03 8.33333377e-03 0. 0. 0.
      4.16666688e-03 2.08333340e-02 1.66666675e-02 1.66666675e-02
      5.00000045e-02 1.25000011e-02 2.91666687e-02 2.50000022e-02
      4.16666688e-03 0. 8.33333377e-03 0. 4.16666688e-03 0. 0.
      1.66666675e-02 2.50000022e-02 0. 4.16666688e-03 2.50000022e-02
      8.33333377e-03 2.08333340e-02 4.16666688e-03 2.08333340e-02 0.
      2.50000022e-02 4.16666688e-03 8.33333377e-03 4.16666688e-03 0.
      4.16666688e-03 2.91666687e-02 4.16666688e-03 4.16666688e-03
      4.16666688e-03 8.33333377e-03 4.16666679e-02 0. 4.16666688e-03
      1.25000011e-02 4.16666688e-03 4.16666688e-03 0. 8.33333377e-03 0.
      1.66666675e-02 0. 8.33333377e-03 8.33333377e-03 1.25000011e-02
      1.66666675e-02 0. 2.91666687e-02 8.33333377e-03 0. 1.25000011e-02
      8.33333377e-03 8.33333377e-03 8.33333377e-03 8.33333377e-03
      1.25000011e-02 0. 4.16666688e-03 8.33333377e-03 8.33333377e-03
      2.08333340e-02 0. 1.66666675e-02</_>
    <_>
      1.02564106e-02 1.02564106e-02 5.12820529e-03 5.12820529e-03 0.
      2.05128212e-02 0. 5.12820529e-03 0. 0. 0. 1.53846163e-02 0. 0.
      3.07692327e-02 0. 2.05128212e-02 5.12820529e-03 0. 5.12820529e-03
      5.12820529e-03 0. 5.12820529e-03 0. 0. 2.05128212e-02
      2.05128212e-02 3.07692327e-02 5.12820529e-03 0. 0. 1.02564106e-02
      5.12820529e-03 5.12820529e-03 5.12820529e-03 2.56410260e-02 0.
      6.15384653e-02 0. 2.05128212e-02 4.10256423e-02 0. 5.12820529e-03
      3.58974375e-02 0. 1.02564106e-02 5.12820529e-03 5.12820529e-03
      5.12820529e-03 2.05128212e-02 0. 0. 5.12820529e-03 0. 0.
      5.12820529e-03 5.12820529e-03 0. 5.12820520e-02 5.12820529e-03
      2.56410260e-02 1.02564106e-02 5.12820529e-03 0. 2.05128212e-02
      4.10256423e-02 2.56410260e-02 1.53846163e-02 1.02564106e-02 0. 0.
      2.05128212e-02 5.12820529e-03 0. 1.02564106e-02 5.12820529e-03
      5.12820520e-02 0. 5.12820520e-02 5.12820529e-03 1.02564106e-02 0.
      0. 1.53846163e-02 0. 0. 1.02564106e-02 0. 1.02564106e-02
      3.07692327e-02 1.02564106e-02 5.12820529e-03 5.12820529e-03
      2.05128212e-02 0. 5.12820529e-03 5.12820529e-03 0. 0.
      1.53846163e-02</_>
    <_>
      3.70370373e-02 1.23456791e-02 1.23456791e-02 0. 1.85185187e-02 0.
      6.17283955e-03 1.85185187e-02 6.17283955e-03 2.46913582e-02 0.
      6.17283955e-03 1.85185187e-02 1.85185187e-02 3.70370373e-02
      1.23456791e-02 2.46913582e-02 0. 1.23456791e-02 0. 6.17283955e-03
      0. 1.85185187e-02 0. 1.23456791e-02 2.46913582e-02 0. 0. 0.
      2.46913582e-02 0. 0. 0. 1.85185187e-02 1.85185187e-02 0.
      1.85185187e-02 1.23456791e-02 4.32098769e-02 3.70370373e-02 0. 0.
      1.85185187e-02 0. 0. 0. 0. 0. 2.46913582e-02 6.17283955e-03
      1.85185187e-02 6.17283955e-03 6.17283955e-03 0. 0. 0.
      3.08641978e-02 1.23456791e-02 1.23456791e-02 6.17283955e-03
      1.85185187e-02 0. 1.23456791e-02 1.23456791e-02 6.17283955e-03
      6.17283955e-03 0. 6.17283955e-03 3.08641978e-02 1.85185187e-02
      1.23456791e-02 0. 0. 1.85185187e-02 3.08641978e-02 0. 0.
      1.85185187e-02 0. 6.17283955e-03 1.23456791e-02 6.17283955e-03
      2.46913582e-02 1.23456791e-02 1.23456791e-02 1.23456791e-02 0.
      6.17283955e-03 1.23456791e-02 6.17283955e-03 6.17283955e-03 0. 0.
      0. 1.23456791e-02 0. 1.23456791e-02 1.85185187e-02 6.17283955e-03
      0.</_>
    <_>
      1.02040814e-02 2.38095224e-02 3.40136047e-03 3.74149643e-02
      3.40136047e-03 3.40136066e-02 1.02040814e-02 3.40136047e-03 0.
      3.40136047e-03 6.80272095e-03 2.38095224e-02 6.80272095e-03
      2.04081628e-02 2.38095224e-02 3.40136047e-03 1.70068033e-02
      3.40136047e-03 1.36054419e-02 3.40136047e-03 0. 0. 6.80272095e-03
      3.40136047e-03 1.36054419e-02 2.72108838e-02 6.80272095e-03
      3.40136047e-03 0. 0. 1.36054419e-02 3.40136047e-03 2.38095224e-02
      2.38095224e-02 3.40136047e-03 0. 6.80272095e-03 1.02040814e-02
      1.02040814e-02 6.80272095e-03 3.40136047e-03 0. 6.80272095e-03
      6.80272095e-03 0. 3.40136047e-03 1.02040814e-02 6.80272095e-03
      6.80272095e-03 1.02040814e-02 2.72108838e-02 1.36054419e-02
      1.02040814e-02 0. 0. 0. 1.36054419e-02 3.40136047e-03
      2.04081628e-02 6.80272095e-03 2.04081628e-02 0. 1.70068033e-02
      1.70068033e-02 3.40136047e-03 1.70068033e-02 1.02040814e-02
      6.80272095e-03 1.70068033e-02 1.36054419e-02 0. 3.40136047e-03
      2.04081628e-02 6.80272095e-03 1.36054419e-02 3.40136047e-03
      1.02040814e-02 0. 1.02040814e-02 0. 6.80272095e-03 0.
      1.36054419e-02 4.42176871e-02 1.70068033e-02 6.80272095e-03
      1.70068033e-02 0. 1.70068033e-02 6.80272095e-03 6.80272095e-03 0.
      1.36054419e-02 1.36054419e-02 1.02040814e-02 3.40136047e-03
      3.06122452e-02 1.36054419e-02 0. 2.38095224e-02</_>
    <_>
      1.19047631e-02 3.96825420e-03 0. 3.96825420e-03 3.96825420e-03
      2.38095261e-02 0. 1.58730168e-02 7.93650839e-03 0. 3.96825420e-03
      1.19047631e-02 1.58730168e-02 1.58730168e-02 3.96825420e-03
      1.19047631e-02 0. 1.19047631e-02 0. 4.36507948e-02 3.96825420e-03
      3.96825420e-03 3.96825420e-03 1.19047631e-02 3.96825410e-02
      3.96825420e-03 0. 1.58730168e-02 5.15873060e-02 2.38095261e-02 0.
      0. 3.96825420e-03 1.98412705e-02 1.58730168e-02 2.38095261e-02
      1.58730168e-02 0. 0. 3.96825420e-03 0. 1.58730168e-02 0.
      1.19047631e-02 0. 1.98412705e-02 1.19047631e-02 0. 2.77777798e-02
      7.93650839e-03 7.93650839e-03 0. 3.96825420e-03 4.36507948e-02
      2.38095261e-02 0. 7.93650839e-03 2.38095261e-02 1.58730168e-02 0.
      3.96825420e-03 2.38095261e-02 0. 3.96825420e-03 7.93650839e-03 0.
      7.93650839e-03 1.58730168e-02 2.77777798e-02 1.19047631e-02
      3.96825410e-02 3.96825420e-03 7.93650839e-03 3.96825420e-03
      1.98412705e-02 0. 3.96825420e-03 1.19047631e-02 0. 0.
      3.96825420e-03 7.93650839e-03 7.93650839e-03 1.19047631e-02 0.
      3.96825420e-03 1.98412705e-02 0. 7.93650839e-03 1.19047631e-02
      1.19047631e-02 7.93650839e-03 3.96825420e-03 0. 1.19047631e-02 0.
      1.19047631e-02 0. 3.96825420e-03 2.38095261e-02</_>
    <_>
      1.30434781e-02 4.34782589e-03 3.04347817e-02 8.69565178e-03
      2.17391290e-02 4.34782589e-03 8.69565178e-03 0. 0. 8.69565178e-03
      0. 1.30434781e-02 0. 4.34782589e-03 0. 4.34782589e-03 0.
      4.34782589e-03 1.73913036e-02 3.04347817e-02 0. 1.30434781e-02
      2.17391290e-02 8.69565178e-03 8.69565178e-03 0. 0. 1.30434781e-02
      2.60869563e-02 8.69565178e-03 4.34782589e-03 0. 2.17391290e-02
      8.69565178e-03 4.34782589e-03 4.78260852e-02 4.34782589e-03
      6.08695634e-02 8.69565178e-03 0. 0. 0. 1.30434781e-02
      8.69565178e-03 4.34782589e-03 4.34782589e-03 4.34782589e-03
      4.34782589e-03 1.73913036e-02 1.30434781e-02 8.69565178e-03
      5.21739125e-02 1.30434781e-02 1.73913036e-02 0. 0. 8.69565178e-03
      2.17391290e-02 0. 4.34782589e-03 1.30434781e-02 0. 1.30434781e-02
      1.73913036e-02 1.73913036e-02 1.73913036e-02 4.34782589e-03
      4.34782589e-03 0. 0. 0. 4.34782589e-03 0. 4.34782589e-03 0.
      8.69565178e-03 1.30434781e-02 4.34782589e-03 1.30434781e-02
      1.30434781e-02 0. 8.69565178e-03 3.47826071e-02 0. 1.30434781e-02
      3.91304344e-02 0. 1.30434781e-02 0. 0. 1.30434781e-02
      4.34782589e-03 1.30434781e-02 0. 1.73913036e-02 4.34782589e-03
      4.34782589e-03 3.47826071e-02 1.73913036e-02 4.34782589e-03</_>
    <_>
      0. 0. 0. 0. 0. 3.17460336e-02 5.55555597e-02 0. 0. 0. 0.
      7.93650839e-03 1.58730168e-02 7.93650839e-03 1.58730168e-02
      7.93650839e-03 1.58730168e-02 0. 0. 2.38095261e-02 0.
      7.93650839e-03 0. 0. 0. 3.17460336e-02 2.38095261e-02
      1.58730168e-02 7.93650839e-03 1.58730168e-02 0. 2.38095261e-02
      1.58730168e-02 0. 0. 2.38095261e-02 0. 0. 0. 0. 7.93650839e-03 0.
      1.58730168e-02 7.93650821e-02 0. 0. 7.93650839e-03 2.38095261e-02
      7.93650839e-03 0. 0. 0. 0. 0. 0. 3.96825410e-02 7.93650839e-03 0.
      2.38095261e-02 0. 3.17460336e-02 7.93650839e-03 0. 1.58730168e-02
      0. 4.76190522e-02 0. 7.93650839e-03 7.93650839e-03 0.
      7.93650839e-03 0. 6.34920672e-02 7.93650839e-03 1.58730168e-02 0.
      7.93650839e-03 0. 7.93650839e-03 0. 7.93650839e-03 0. 0.
      4.76190522e-02 7.93650839e-03 0. 0. 1.58730168e-02 0.
      1.58730168e-02 0. 0. 7.93650839e-03 2.38095261e-02 7.93650839e-03
      2.38095261e-02 4.76190522e-02 0. 0. 0.</_>
    <_>
      4.69483575e-03 9.38967150e-03 4.69483575e-03 0. 0. 0.
      1.40845068e-02 0. 0. 2.81690136e-02 4.69483575e-03 0.
      4.69483575e-03 4.69483584e-02 0. 0. 1.40845068e-02 4.69483575e-03
      4.22535203e-02 4.69483575e-03 0. 3.28638516e-02 0. 4.69483575e-03
      4.69483575e-03 0. 0. 9.38967150e-03 0. 2.34741792e-02 0. 0.
      2.34741792e-02 4.69483575e-03 0. 4.69483575e-03 4.69483575e-03
      2.81690136e-02 1.40845068e-02 4.69483575e-03 4.69483575e-03 0.
      6.10328652e-02 0. 2.81690136e-02 0. 0. 5.16431928e-02
      1.87793430e-02 9.38967150e-03 0. 4.69483575e-03 9.38967150e-03 0.
      0. 0. 0. 4.69483575e-03 4.69483575e-03 4.69483575e-03
      3.75586860e-02 0. 0. 4.69483575e-03 4.69483575e-03 9.38967150e-03
      0. 1.87793430e-02 1.40845068e-02 0. 0. 0. 4.69483575e-03 0. 0. 0.
      0. 9.38967150e-03 4.69483575e-03 4.69483575e-03 1.40845068e-02
      4.69483575e-03 1.87793430e-02 1.40845068e-02 4.69483584e-02
      1.87793430e-02 2.34741792e-02 2.81690136e-02 4.69483575e-03 0.
      5.16431928e-02 1.40845068e-02 4.69483575e-03 0. 0. 9.38967150e-03
      4.69483584e-02 4.69483575e-03 1.40845068e-02 2.34741792e-02</_>
    <_>
      0. 2.56410278e-02 0. 1.70940179e-02 0. 1.70940179e-02
      4.27350439e-02 0. 0. 8.54700897e-03 0. 2.56410278e-02 0. 0. 0. 0.
      0. 0. 1.70940179e-02 8.54700897e-03 2.56410278e-02 0. 0.
      8.54700897e-03 0. 8.54700897e-03 8.54700897e-03 0. 1.70940179e-02
      1.70940179e-02 0. 0. 8.54700897e-03 0. 0. 1.02564111e-01 0. 0. 0.
      0. 0. 0. 8.54700897e-03 0. 8.54700897e-03 1.70940179e-02
      8.54700897e-03 3.41880359e-02 0. 0. 3.41880359e-02 0.
      2.56410278e-02 0. 0. 0. 0. 0. 1.70940179e-02 8.54700897e-03
      5.98290637e-02 0. 0. 3.41880359e-02 1.70940179e-02 2.56410278e-02
      0. 8.54700897e-03 1.70940179e-02 0. 0. 0. 8.54700897e-03
      4.27350439e-02 8.54700897e-03 0. 0. 8.54700897e-03 0.
      8.54700897e-03 8.54700897e-03 0. 8.54700897e-03 4.27350439e-02 0.
      8.54700897e-03 8.54700897e-03 1.70940179e-02 0. 3.41880359e-02
      3.41880359e-02 0. 8.54700897e-03 0. 0. 0. 6.83760718e-02 0. 0. 0.</_>
    <_>
      1.43884895e-02 3.23741026e-02 3.59712238e-03 3.59712238e-03 0.
      1.79856122e-02 1.07913669e-02 7.19424477e-03 3.59712238e-03
      3.59712238e-03 7.19424477e-03 7.19424477e-03 2.15827338e-02
      3.59712238e-03 2.51798574e-02 3.59712238e-03 1.43884895e-02
      3.59712238e-03 2.87769791e-02 3.59712238e-03 0. 0. 0.
      7.19424477e-03 1.79856122e-02 4.31654677e-02 1.07913669e-02 0.
      2.15827338e-02 0. 1.43884895e-02 3.59712238e-03 1.43884895e-02
      3.59712238e-03 3.59712238e-03 1.07913669e-02 7.19424477e-03
      7.19424477e-03 0. 3.59712238e-03 3.59712238e-03 3.59712238e-03 0.
      3.59712238e-03 7.19424477e-03 7.19424477e-03 0. 3.59712238e-03
      1.79856122e-02 1.43884895e-02 2.87769791e-02 3.59712238e-03
      1.07913669e-02 1.79856122e-02 0. 3.59712238e-03 0. 1.07913669e-02
      1.43884895e-02 1.43884895e-02 3.23741026e-02 1.43884895e-02 0.
      2.51798574e-02 1.43884895e-02 3.59712238e-03 3.59712238e-03
      2.15827338e-02 1.43884895e-02 0. 0. 1.07913669e-02 0.
      5.03597148e-02 3.59712243e-02 0. 7.19424477e-03 0. 0.
      3.59712238e-03 3.59712238e-03 7.19424477e-03 1.79856122e-02
      1.07913669e-02 0. 1.43884895e-02 0. 7.19424477e-03 1.43884895e-02
      3.95683460e-02 1.79856122e-02 0. 7.19424477e-03 3.23741026e-02
      1.43884895e-02 7.19424477e-03 1.07913669e-02 0. 3.59712238e-03
      3.59712238e-03</_>
    <_>
      8.09716620e-03 8.09716620e-03 8.09716620e-03 0. 0. 2.42914986e-02
      1.61943324e-02 4.04858310e-03 0. 1.61943324e-02 4.04858310e-03
      4.04858310e-03 1.61943324e-02 2.42914986e-02 1.21457493e-02 0.
      2.02429146e-02 4.04858310e-03 2.83400826e-02 0. 4.04858310e-03 0.
      4.04858291e-02 0. 1.21457493e-02 1.21457493e-02 8.09716620e-03
      2.02429146e-02 0. 8.09716620e-03 4.04858310e-03 8.09716620e-03
      8.09716620e-03 1.61943324e-02 8.09716620e-03 1.21457493e-02
      8.09716620e-03 1.61943324e-02 8.09716620e-03 1.21457493e-02
      1.21457493e-02 0. 2.83400826e-02 1.61943324e-02 0. 0. 0.
      4.45344150e-02 2.02429146e-02 1.21457493e-02 0. 1.21457493e-02
      4.04858310e-03 0. 0. 4.04858310e-03 8.09716620e-03 0.
      4.04858310e-03 8.09716620e-03 4.04858310e-03 1.21457493e-02
      4.04858310e-03 8.09716620e-03 0. 1.21457493e-02 0. 1.21457493e-02
      1.61943324e-02 0. 8.09716620e-03 1.21457493e-02 0. 4.04858310e-03
      0. 0. 0. 4.04858310e-03 8.09716620e-03 0. 8.09716620e-03
      1.21457493e-02 2.02429146e-02 2.02429146e-02 3.23886648e-02
      5.66801652e-02 2.02429146e-02 1.21457493e-02 8.09716620e-03 0.
      1.61943324e-02 1.21457493e-02 1.21457493e-02 4.04858310e-03
      4.04858310e-03 8.09716620e-03 4.04858310e-03 3.64372469e-02
      8.09716620e-03 2.02429146e-02</_>
    <_>
      0. 6.06060587e-03 6.06060587e-03 2.42424235e-02 0. 0. 0.
      2.42424235e-02 0. 6.06060587e-03 0. 6.06060587e-03 0.
      2.42424235e-02 6.06060587e-03 3.03030293e-02 1.21212117e-02
      6.06060587e-03 1.21212117e-02 0. 0. 6.06060587e-03 3.63636352e-02
      6.06060587e-03 6.06060587e-03 1.81818176e-02 2.42424235e-02
      2.42424235e-02 1.21212117e-02 1.81818176e-02 1.21212117e-02 0.
      6.06060587e-03 5.45454547e-02 6.06060587e-03 4.84848469e-02
      1.21212117e-02 4.84848469e-02 1.21212117e-02 0. 0. 0. 0. 0. 0. 0.
      6.06060587e-03 0. 3.03030293e-02 6.06060587e-03 6.06060587e-03
      6.06060587e-03 6.06060587e-03 1.21212117e-02 0. 0. 6.06060587e-03
      6.06060587e-02 3.03030293e-02 0. 0. 1.21212117e-02 0. 0.
      1.21212117e-02 1.21212117e-02 0. 6.06060587e-03 3.63636352e-02
      1.21212117e-02 0. 0. 0. 0. 1.21212117e-02 0. 0. 6.06060587e-03 0.
      6.06060587e-03 6.06060587e-03 2.42424235e-02 1.21212117e-02
      1.21212117e-02 6.06060587e-03 4.24242392e-02 6.06060587e-03 0.
      1.21212117e-02 6.06060587e-03 3.03030293e-02 0. 0. 0.
      6.06060587e-03 1.21212117e-02 6.06060587e-03 0. 6.06060587e-03
      1.21212117e-02</_>
    <_>
      3.27868853e-03 3.27868853e-03 0. 9.83606558e-03 3.27868853e-03
      6.55737706e-03 0. 1.31147541e-02 0. 3.27868853e-03 9.83606558e-03
      5.24590164e-02 6.55737706e-03 0. 2.29508206e-02 1.31147541e-02
      2.62295082e-02 0. 2.95081958e-02 9.83606558e-03 2.95081958e-02
      3.27868853e-03 9.83606558e-03 9.83606558e-03 6.55737706e-03
      1.63934417e-02 0. 6.55737706e-03 1.63934417e-02 6.55737706e-03
      9.83606558e-03 3.27868853e-03 6.55737706e-03 3.27868853e-03 0.
      6.55737706e-03 6.55737706e-03 3.60655747e-02 0. 9.83606558e-03
      3.27868853e-03 1.63934417e-02 3.27868853e-03 6.55737706e-03
      6.55737706e-03 0. 1.31147541e-02 0. 3.27868853e-03 1.96721312e-02
      1.31147541e-02 0. 3.27868853e-03 2.95081958e-02 6.55737706e-03
      3.27868853e-03 4.59016412e-02 9.83606558e-03 3.27868834e-02
      3.60655747e-02 3.60655747e-02 0. 6.55737706e-03 3.27868853e-03
      1.63934417e-02 6.55737706e-03 0. 3.27868853e-03 9.83606558e-03
      3.27868853e-03 1.63934417e-02 0. 0. 9.83606558e-03 1.96721312e-02
      0. 0. 6.55737706e-03 1.96721312e-02 2.29508206e-02 1.63934417e-02
      0. 3.27868853e-03 1.63934417e-02 3.27868853e-03 0. 1.63934417e-02
      0. 3.27868853e-03 5.57377040e-02 1.31147541e-02 3.27868853e-03
      3.27868853e-03 0. 9.83606558e-03 0. 9.83606558e-03 0. 0.
      1.31147541e-02</_>
    <_>
      1.00502511e-02 1.50753763e-02 5.02512557e-03 2.51256283e-02 0.
      1.50753763e-02 2.01005023e-02 5.02512557e-03 0. 5.02512557e-03 0.
      3.51758786e-02 1.00502511e-02 1.00502511e-02 1.00502511e-02
      2.01005023e-02 0. 5.02512557e-03 2.01005023e-02 0. 1.50753763e-02
      0. 5.02512557e-03 1.50753763e-02 1.50753763e-02 1.50753763e-02
      4.52261306e-02 2.01005023e-02 2.01005023e-02 1.00502511e-02
      2.01005023e-02 0. 2.01005023e-02 0. 5.02512557e-03 5.02512557e-03
      0. 1.50753763e-02 0. 0. 0. 2.01005023e-02 1.00502511e-02
      2.51256283e-02 1.00502511e-02 1.50753763e-02 1.00502511e-02 0.
      3.51758786e-02 0. 1.00502511e-02 0. 2.01005023e-02 2.01005023e-02
      1.00502511e-02 0. 1.00502511e-02 0. 1.00502511e-02 0.
      5.02512557e-03 0. 1.00502511e-02 2.01005023e-02 2.01005023e-02
      3.01507525e-02 5.02512557e-03 1.00502511e-02 2.51256283e-02 0. 0.
      0. 0. 1.50753763e-02 0. 5.02512557e-03 0. 1.50753763e-02 0.
      1.00502511e-02 1.50753763e-02 5.02512557e-03 0. 2.01005023e-02 0.
      1.00502511e-02 5.02512557e-03 1.50753763e-02 0. 1.00502511e-02
      5.02512557e-03 0. 2.51256283e-02 0. 1.50753763e-02 1.50753763e-02
      1.00502511e-02 0. 2.01005023e-02 1.50753763e-02</_>
    <_>
      1.12359552e-02 2.24719103e-02 0. 0. 0. 0. 1.12359552e-02 0.
      1.12359552e-02 1.12359552e-02 1.12359552e-02 0. 1.12359552e-02
      2.24719103e-02 0. 0. 0. 1.12359552e-02 1.12359552e-02 0. 0. 0.
      1.12359552e-02 0. 3.37078646e-02 1.12359552e-02 0. 0. 0. 0. 0.
      1.12359552e-02 1.12359552e-02 0. 1.12359552e-02 1.12359552e-02
      1.12359552e-02 2.24719103e-02 1.12359552e-02 2.24719103e-02 0. 0.
      1.12359552e-02 2.24719103e-02 0. 0. 0. 1.12359552e-02
      3.37078646e-02 0. 0. 0. 1.12359552e-02 2.24719103e-02 0. 0.
      1.12359552e-02 0. 6.74157292e-02 0. 0. 1.12359552e-02
      2.24719103e-02 0. 0. 1.12359552e-02 0. 1.12359552e-02
      8.98876414e-02 0. 2.24719103e-02 0. 3.37078646e-02 0. 0. 0.
      1.12359552e-02 0. 3.37078646e-02 0. 1.12359552e-02 1.12359552e-02
      0. 5.61797768e-02 1.12359552e-02 4.49438207e-02 0. 1.12359552e-02
      0. 5.61797768e-02 1.12359552e-02 0. 0. 0. 0. 0. 2.24719103e-02
      2.24719103e-02 0. 0.</_>
    <_>
      2.30946881e-03 4.61893762e-03 1.61662810e-02 2.07852200e-02
      6.92840666e-03 6.92840666e-03 1.15473438e-02 1.15473438e-02 0.
      1.15473438e-02 1.84757505e-02 9.23787523e-03 4.61893762e-03
      1.38568133e-02 2.30946881e-03 9.23787523e-03 9.23787523e-03
      1.38568133e-02 2.07852200e-02 3.00230943e-02 0. 2.30946881e-03
      3.92609686e-02 1.15473438e-02 2.07852200e-02 1.15473438e-02
      2.30946881e-03 1.15473438e-02 9.23787523e-03 9.23787523e-03
      9.23787523e-03 0. 3.00230943e-02 2.07852200e-02 9.23787523e-03
      1.84757505e-02 9.23787523e-03 1.15473438e-02 6.92840666e-03
      1.38568133e-02 0. 9.23787523e-03 9.23787523e-03 9.23787523e-03
      4.61893762e-03 4.61893762e-03 4.61893762e-03 1.61662810e-02
      1.38568133e-02 6.92840666e-03 1.38568133e-02 1.15473438e-02
      6.92840666e-03 3.92609686e-02 6.92840666e-03 0. 2.30946881e-03
      1.61662810e-02 1.38568133e-02 9.23787523e-03 0. 0. 2.30946881e-03
      9.23787523e-03 4.61893762e-03 1.15473438e-02 0. 2.54041571e-02
      1.61662810e-02 2.30946881e-03 4.61893762e-03 2.30946881e-03 0.
      4.61893762e-03 9.23787523e-03 0. 0. 2.30946881e-03 0.
      1.15473438e-02 6.92840666e-03 1.15473438e-02 2.30946876e-02
      6.92840666e-03 9.23787523e-03 1.38568133e-02 9.23787523e-03
      1.15473438e-02 1.61662810e-02 2.30946881e-03 3.46420333e-02
      9.23787523e-03 2.30946881e-03 2.30946881e-03 6.92840666e-03
      2.30946881e-03 6.92840666e-03 2.30946881e-03 1.15473438e-02
      3.46420333e-02</_>
    <_>
      1.56250000e-02 0. 0. 1.04166670e-02 0. 0. 0. 1.04166670e-02 0.
      5.20833349e-03 0. 0. 0. 2.60416679e-02 0. 2.08333340e-02
      1.04166670e-02 1.04166670e-02 1.04166670e-02 0. 0. 1.04166670e-02
      1.04166670e-02 4.68750000e-02 1.56250000e-02 2.08333340e-02
      5.20833349e-03 0. 0. 1.04166670e-02 0. 4.16666679e-02
      5.20833349e-03 5.20833349e-03 1.04166670e-02 2.08333340e-02
      5.20833349e-03 0. 5.20833349e-03 5.20833349e-03 3.12500000e-02 0.
      5.20833349e-03 1.56250000e-02 0. 5.20833349e-03 0. 0.
      4.68750000e-02 2.60416679e-02 5.20833349e-03 1.04166670e-02 0.
      4.68750000e-02 0. 0. 5.20833349e-03 3.64583358e-02 2.08333340e-02
      0. 5.20833349e-03 1.04166670e-02 0. 5.20833349e-03 0.
      2.60416679e-02 0. 5.20833349e-03 5.72916679e-02 0. 1.04166670e-02
      0. 1.04166670e-02 0. 5.20833349e-03 0. 0. 1.04166670e-02
      5.20833349e-03 0. 5.20833349e-03 1.56250000e-02 1.56250000e-02
      5.20833349e-03 2.08333340e-02 2.60416679e-02 4.16666679e-02
      1.04166670e-02 5.20833349e-03 4.68750000e-02 0. 0. 0.
      5.20833349e-03 5.20833349e-03 5.20833349e-03 1.56250000e-02
      5.20833349e-03 0. 2.60416679e-02</_>
    <_>
      4.85436898e-03 4.85436898e-03 9.70873795e-03 0. 4.85436898e-03
      9.70873795e-03 1.45631069e-02 0. 0. 0. 0. 0. 4.85436898e-03
      1.45631069e-02 0. 4.85436898e-03 2.42718458e-02 0. 2.42718458e-02
      9.70873795e-03 2.91262139e-02 9.70873795e-03 4.85436898e-03 0.
      4.85436898e-03 4.85436898e-03 4.85436898e-03 4.85436898e-03 0. 0.
      0. 4.85436898e-03 0. 1.45631069e-02 4.85436898e-03 0.
      1.94174759e-02 3.88349518e-02 1.45631069e-02 4.85436898e-03
      1.45631069e-02 4.85436898e-03 9.70873795e-03 1.94174759e-02
      4.36893217e-02 4.85436898e-03 0. 9.70873795e-03 9.70873795e-03
      1.45631069e-02 4.85436898e-03 4.85436898e-03 0. 0. 4.85436898e-03
      9.70873795e-03 3.39805819e-02 4.85436898e-03 3.88349518e-02 0.
      2.91262139e-02 0. 0. 0. 1.94174759e-02 3.88349518e-02
      4.85436898e-03 0. 9.70873795e-03 0. 0. 0. 1.45631069e-02
      9.70873795e-03 1.45631069e-02 4.85436898e-03 4.85436898e-03 0.
      9.70873795e-03 2.42718458e-02 0. 0. 4.85436898e-03 6.31067976e-02
      3.39805819e-02 0. 0. 9.70873795e-03 4.85436898e-03 1.45631069e-02
      1.45631069e-02 4.85436898e-03 0. 0. 2.42718458e-02 9.70873795e-03
      8.73786435e-02 4.85436898e-03 0. 9.70873795e-03</_>
    <_>
      0. 0. 0. 2.71739140e-02 0. 5.43478271e-03 0. 1.63043477e-02 0.
      5.43478271e-03 0. 0. 1.08695654e-02 0. 0. 4.34782617e-02
      5.43478271e-03 0. 0. 2.17391308e-02 5.43478271e-03 5.43478271e-03
      3.80434804e-02 2.17391308e-02 1.08695654e-02 1.08695654e-02
      5.43478271e-03 5.43478271e-03 2.71739140e-02 0. 0. 5.43478271e-03
      0. 3.26086953e-02 0. 1.63043477e-02 0. 0. 0. 0. 0. 5.43478271e-03
      0. 0. 0. 3.26086953e-02 0. 5.97826093e-02 1.63043477e-02
      5.43478271e-03 0. 0. 5.43478271e-03 7.60869607e-02 0. 0.
      9.23913047e-02 2.17391308e-02 1.63043477e-02 0. 0. 0. 0.
      5.43478271e-03 5.43478271e-03 0. 0. 1.63043477e-02 4.34782617e-02
      0. 0. 0. 2.71739140e-02 0. 2.17391308e-02 0. 0. 0. 0. 0. 0.
      2.17391308e-02 3.26086953e-02 0. 0. 2.71739140e-02 5.43478271e-03
      5.43478271e-03 1.08695654e-02 2.71739140e-02 5.43478271e-03
      1.63043477e-02 0. 0. 3.26086953e-02 5.43478271e-03 0.
      3.26086953e-02 0. 5.43478271e-03</_>
    <_>
      2.57731955e-02 0. 7.98969045e-02 0. 1.54639166e-02 2.57731951e-03
      1.03092780e-02 2.57731951e-03 1.28865978e-02 2.57731951e-03
      2.57731951e-03 1.80412363e-02 1.28865978e-02 1.28865978e-02
      7.73195829e-03 2.57731951e-03 5.15463902e-03 5.15463902e-03
      1.03092780e-02 5.15463902e-03 5.15463902e-03 2.57731951e-03 0.
      5.15463902e-03 5.15463902e-03 1.54639166e-02 1.28865978e-02
      1.03092780e-02 0. 1.28865978e-02 2.57731951e-03 2.31958758e-02
      1.54639166e-02 2.57731951e-03 5.15463902e-03 0. 1.54639166e-02
      2.83505153e-02 1.54639166e-02 7.73195829e-03 0. 0. 1.80412363e-02
      0. 7.73195829e-03 0. 2.57731951e-03 0. 2.06185561e-02
      1.80412363e-02 7.73195829e-03 1.80412363e-02 7.73195829e-03
      7.73195829e-03 1.54639166e-02 2.57731951e-03 0. 7.73195829e-03
      5.15463902e-03 5.15463902e-03 7.73195829e-03 3.60824727e-02
      2.06185561e-02 1.03092780e-02 5.15463902e-03 7.73195829e-03 0.
      1.03092780e-02 1.03092780e-02 7.73195829e-03 2.57731951e-03
      5.15463902e-03 1.28865978e-02 1.54639166e-02 7.73195829e-03
      4.63917516e-02 1.28865978e-02 2.57731951e-03 7.73195829e-03
      2.06185561e-02 1.03092780e-02 5.15463902e-03 2.06185561e-02
      1.28865978e-02 1.80412363e-02 1.03092780e-02 1.03092780e-02
      2.57731951e-03 2.57731951e-03 5.15463902e-03 1.03092780e-02
      2.57731951e-03 2.57731951e-03 2.57731955e-02 0. 7.73195829e-03
      7.73195829e-03 5.15463902e-03 1.28865978e-02 1.28865978e-02</_>
    <_>
      1.09489048e-02 1.45985400e-02 3.64963501e-03 3.64963501e-03 0. 0.
      3.64963501e-03 2.91970801e-02 0. 7.29927002e-03 1.09489048e-02
      1.82481743e-02 1.82481743e-02 7.29927002e-03 2.91970801e-02
      2.18978096e-02 1.45985400e-02 3.64963501e-03 1.45985400e-02
      3.64963501e-03 7.29927002e-03 0. 0. 0. 3.64963501e-03
      1.09489048e-02 0. 3.64963501e-03 1.45985400e-02 1.82481743e-02 0.
      1.09489048e-02 1.09489048e-02 3.64963501e-03 1.09489048e-02
      2.18978096e-02 2.55474448e-02 0. 7.29927002e-03 1.45985400e-02 0.
      1.09489048e-02 0. 7.29927002e-03 7.29927002e-03 7.29927002e-03
      1.82481743e-02 1.09489048e-02 2.18978096e-02 1.09489048e-02
      2.18978096e-02 1.09489048e-02 1.09489048e-02 7.29927002e-03
      7.29927002e-03 0. 3.64963501e-03 1.45985400e-02 3.64963487e-02
      2.18978096e-02 2.18978096e-02 7.29927002e-03 3.64963501e-03
      1.45985400e-02 2.91970801e-02 0. 3.64963501e-03 1.82481743e-02
      3.64963487e-02 1.09489048e-02 7.29927002e-03 3.64963501e-03
      3.64963501e-03 0. 7.29927002e-03 0. 0. 3.64963501e-03 0.
      7.29927002e-03 1.45985400e-02 0. 1.09489048e-02 1.82481743e-02
      1.45985400e-02 7.29927002e-03 3.64963501e-03 3.64963501e-03
      2.18978096e-02 4.01459858e-02 7.29927002e-03 3.64963501e-03 0.
      7.29927002e-03 7.29927002e-03 0. 1.09489048e-02 2.18978096e-02
      1.45985400e-02 3.64963501e-03</_>
    <_>
      8.31024908e-03 2.21606642e-02 2.77008303e-03 8.31024908e-03
      2.77008303e-03 2.21606642e-02 1.38504151e-02 1.66204982e-02 0.
      1.10803321e-02 8.31024908e-03 1.93905812e-02 8.31024908e-03
      1.93905812e-02 1.66204982e-02 5.54016605e-03 1.38504151e-02 0.
      1.66204982e-02 8.31024908e-03 2.77008303e-03 0. 0. 2.77008303e-03
      8.31024908e-03 1.10803321e-02 5.54016605e-03 2.21606642e-02
      1.10803321e-02 0. 8.31024908e-03 8.31024908e-03 1.93905812e-02 0.
      2.77008303e-03 2.49307472e-02 2.49307472e-02 2.77008303e-03
      1.38504151e-02 8.31024908e-03 0. 2.77008303e-03 2.77008303e-02
      1.38504151e-02 5.54016605e-03 2.77008303e-03 0. 1.66204982e-02
      1.93905812e-02 1.10803321e-02 1.38504151e-02 2.77008303e-03
      1.66204982e-02 1.10803321e-02 8.31024908e-03 8.31024908e-03
      2.77008303e-03 1.10803321e-02 8.31024908e-03 1.10803321e-02
      1.93905812e-02 5.54016605e-03 5.54016605e-03 8.31024908e-03
      1.10803321e-02 5.54016605e-03 2.77008303e-03 1.38504151e-02
      1.38504151e-02 0. 5.54016605e-03 2.77008303e-03 0. 3.87811624e-02
      1.38504151e-02 5.54016605e-03 2.77008303e-03 8.31024908e-03 0.
      8.31024908e-03 5.54016605e-03 0. 8.31024908e-03 2.49307472e-02
      1.93905812e-02 1.38504151e-02 8.31024908e-03 1.10803321e-02
      8.31024908e-03 1.93905812e-02 1.10803321e-02 1.66204982e-02
      8.31024908e-03 0. 1.66204982e-02 1.38504151e-02 1.66204982e-02
      5.54016605e-03 8.31024908e-03 1.66204982e-02</_>
    <_>
      0. 6.84931502e-03 0. 4.56620986e-03 0. 6.84931502e-03
      4.56620986e-03 6.84931502e-03 0. 4.10958901e-02 4.56620986e-03 0.
      0. 3.65296789e-02 2.28310493e-03 4.56620986e-03 9.13241971e-03
      6.84931502e-03 0. 9.13241971e-03 2.28310493e-03 0. 4.10958901e-02
      2.28310488e-02 1.59817338e-02 0. 0. 2.28310493e-03 1.36986300e-02
      0. 4.56620986e-03 4.56620986e-03 0. 4.79452051e-02 1.14155244e-02
      3.88127826e-02 6.84931502e-03 0. 4.56620986e-03 2.28310493e-03
      2.28310488e-02 0. 6.84931502e-03 6.84931502e-03 2.28310493e-03
      9.13241971e-03 2.28310488e-02 7.76255652e-02 1.82648394e-02
      2.05479451e-02 9.13241971e-03 2.28310493e-03 2.28310493e-03
      2.96803638e-02 6.84931502e-03 2.73972601e-02 4.33789939e-02
      2.28310488e-02 2.28310493e-03 4.56620986e-03 4.56620986e-03
      4.79452051e-02 4.56620986e-03 1.14155244e-02 0. 0. 3.42465751e-02
      6.84931502e-03 1.14155244e-02 2.28310493e-03 4.56620986e-03 0.
      1.36986300e-02 2.28310493e-03 2.28310493e-03 0. 4.56620986e-03 0.
      1.59817338e-02 0. 9.13241971e-03 2.05479451e-02 0. 0. 0.
      6.84931502e-03 2.73972601e-02 1.59817338e-02 9.13241971e-03
      9.13241971e-03 1.14155244e-02 9.13241971e-03 0. 0. 4.56620986e-03
      0. 0. 0. 4.56620986e-03 4.56620986e-03</_>
    <_>
      6.49350649e-03 6.49350649e-03 0. 1.29870130e-02 0. 0. 0.
      1.94805190e-02 0. 9.74025950e-03 9.74025950e-03 0. 1.29870130e-02
      2.59740259e-02 6.49350649e-03 0. 3.24675324e-03 1.29870130e-02
      4.87012975e-02 3.24675324e-03 6.49350649e-03 0. 5.51948063e-02
      3.24675324e-03 3.24675329e-02 1.62337665e-02 0. 0. 0. 0.
      3.24675324e-03 3.24675324e-03 2.27272734e-02 1.62337665e-02
      3.24675324e-03 1.62337665e-02 1.29870130e-02 6.49350649e-03
      3.24675324e-03 0. 1.29870130e-02 3.24675324e-03 3.24675324e-03
      3.24675324e-03 3.24675324e-03 3.24675324e-03 0. 3.24675324e-03
      5.19480519e-02 1.29870130e-02 9.74025950e-03 1.94805190e-02
      9.74025950e-03 3.24675324e-03 6.49350649e-03 6.49350649e-03
      3.24675324e-03 1.62337665e-02 6.49350649e-03 1.62337665e-02
      6.49350649e-03 3.24675324e-03 0. 9.74025950e-03 9.74025950e-03
      3.24675324e-03 6.49350649e-03 9.74025950e-03 4.22077924e-02 0. 0.
      6.49350649e-03 3.24675324e-03 9.74025950e-03 6.49350649e-03 0. 0.
      2.27272734e-02 3.24675324e-03 6.49350649e-03 9.74025950e-03
      1.29870130e-02 2.27272734e-02 3.24675324e-03 9.74025950e-03
      1.94805190e-02 1.94805190e-02 2.92207785e-02 1.62337665e-02
      9.74025950e-03 3.24675329e-02 9.74025950e-03 0. 0. 6.49350649e-03
      0. 1.62337665e-02 2.59740259e-02 3.24675324e-03 2.92207785e-02</_>
    <_>
      2.87356321e-03 1.43678160e-02 0. 2.87356321e-03 5.74712642e-03
      2.29885057e-02 2.01149434e-02 2.87356321e-03 2.87356321e-03
      2.87356321e-03 0. 3.44827585e-02 1.43678160e-02 5.74712642e-03
      2.87356321e-02 2.87356321e-03 1.43678160e-02 1.14942528e-02
      8.62068962e-03 1.72413792e-02 1.72413792e-02 2.87356321e-03
      8.62068962e-03 0. 3.73563208e-02 2.29885057e-02 8.62068962e-03
      2.01149434e-02 0. 0. 5.74712642e-03 5.74712642e-03 2.01149434e-02
      0. 5.74712642e-03 2.01149434e-02 0. 7.18390793e-02 2.87356321e-03
      1.43678160e-02 5.74712642e-03 0. 2.87356321e-03 2.29885057e-02 0.
      2.87356321e-03 2.87356321e-03 2.87356321e-03 8.62068962e-03
      8.62068962e-03 2.87356321e-03 2.87356321e-03 5.74712642e-03
      8.62068962e-03 0. 1.72413792e-02 8.62068962e-03 2.87356321e-03
      1.43678160e-02 1.43678160e-02 5.74712642e-03 0. 1.14942528e-02
      8.62068962e-03 2.58620679e-02 8.04597735e-02 2.87356321e-03
      1.72413792e-02 2.87356321e-03 8.62068962e-03 0. 5.74712642e-03
      8.62068962e-03 2.87356321e-03 2.01149434e-02 0. 2.87356321e-03 0.
      8.62068962e-03 1.43678160e-02 1.14942528e-02 5.74712642e-03 0.
      5.74712642e-03 8.62068962e-03 0. 5.74712642e-03 2.87356321e-03 0.
      2.29885057e-02 2.58620679e-02 0. 2.87356321e-03 2.87356321e-03
      1.14942528e-02 3.44827585e-02 8.62068962e-03 0. 0. 8.62068962e-03</_>
    <_>
      8.83002207e-03 1.54525386e-02 1.32450331e-02 6.62251655e-03 0. 0.
      6.62251655e-03 6.62251655e-03 2.20750552e-03 8.83002207e-03
      1.54525386e-02 1.10375276e-02 2.20750552e-03 1.10375276e-02
      1.32450331e-02 6.62251655e-03 2.20750552e-03 8.83002207e-03
      1.54525386e-02 1.54525386e-02 2.20750552e-03 6.62251655e-03
      1.32450331e-02 2.20750552e-02 0. 8.83002207e-03 6.62251655e-03
      1.54525386e-02 1.32450331e-02 2.20750552e-03 4.41501103e-03
      2.20750552e-03 2.20750552e-03 3.31125818e-02 1.10375276e-02
      8.83002207e-03 1.10375276e-02 2.20750552e-03 1.54525386e-02
      6.62251655e-03 2.20750552e-03 0. 4.41501103e-03 4.63576168e-02 0.
      1.10375276e-02 1.32450331e-02 1.10375276e-02 1.76600441e-02
      1.98675506e-02 8.83002207e-03 1.10375276e-02 4.41501103e-03
      2.20750552e-03 2.20750552e-03 3.09050772e-02 1.10375276e-02
      1.98675506e-02 6.62251655e-03 1.32450331e-02 6.62251655e-03
      1.10375276e-02 4.41501103e-03 1.10375276e-02 1.32450331e-02
      6.62251655e-03 2.20750552e-03 1.10375276e-02 1.76600441e-02
      1.10375276e-02 1.98675506e-02 3.97351012e-02 1.10375276e-02 0.
      8.83002207e-03 2.20750552e-03 1.10375276e-02 0. 1.32450331e-02
      2.86975726e-02 0. 6.62251655e-03 2.42825598e-02 0. 1.32450331e-02
      1.98675506e-02 1.54525386e-02 8.83002207e-03 4.41501103e-03
      2.20750552e-03 4.41501103e-03 8.83002207e-03 8.83002207e-03 0.
      2.20750552e-02 4.41501103e-03 4.41501103e-03 1.32450331e-02
      2.20750552e-03 1.32450331e-02</_>
    <_>
      3.64963487e-02 7.29927002e-03 0. 0. 7.29927002e-03 0.
      2.18978096e-02 2.91970801e-02 0. 0. 0. 0. 2.18978096e-02
      1.45985400e-02 0. 2.18978096e-02 2.91970801e-02 2.18978096e-02 0.
      7.29926974e-02 7.29927002e-03 0. 1.45985400e-02 7.29927002e-03
      1.45985400e-02 2.18978096e-02 0. 0. 0. 0. 1.45985400e-02 0.
      7.29927002e-03 0. 0. 7.29927002e-03 0. 2.18978096e-02 0.
      1.45985400e-02 1.45985400e-02 0. 7.29927002e-03 1.45985400e-02
      7.29927002e-03 7.29927002e-03 7.29927002e-03 0. 3.64963487e-02 0.
      0. 1.45985400e-02 7.29927002e-03 7.29927002e-03 0. 7.29927002e-03
      2.18978096e-02 0. 5.10948896e-02 0. 7.29927002e-03 0.
      1.45985400e-02 2.18978096e-02 0. 0. 0. 0. 1.45985400e-02 0. 0. 0.
      1.45985400e-02 7.29927002e-03 2.18978096e-02 1.45985400e-02
      1.45985400e-02 2.91970801e-02 0. 7.29927002e-03 7.29927002e-03
      2.91970801e-02 7.29927002e-03 2.91970801e-02 7.29927002e-03
      7.29927002e-03 3.64963487e-02 7.29927002e-03 0. 2.18978096e-02
      2.18978096e-02 0. 0. 7.29927002e-03 1.45985400e-02 0.
      7.29927002e-03 0. 0. 7.29927002e-03</_>
    <_>
      3.75000015e-02 3.75000015e-02 0. 0. 1.25000002e-02 0. 0. 0. 0. 0.
      0. 0. 0. 0. 0. 0. 0. 3.75000015e-02 0. 0. 0. 0. 0. 1.25000002e-02
      0. 0. 1.25000002e-02 1.25000002e-02 0. 0. 0. 0. 0. 0. 0. 0.
      3.75000015e-02 0. 3.75000015e-02 0. 0. 0. 0. 0. 1.25000002e-02 0.
      1.25000002e-02 2.50000004e-02 3.75000015e-02 1.25000002e-02
      1.25000002e-02 5.00000007e-02 1.25000002e-02 0. 0. 0. 0.
      6.25000000e-02 0. 1.25000002e-02 1.25000002e-02 2.50000004e-02 0.
      0. 0. 0. 1.25000002e-02 0. 0. 3.75000015e-02 0. 0. 2.50000004e-02
      2.50000004e-02 1.25000002e-02 0. 0. 0. 1.25000002e-02
      1.25000002e-02 1.25000002e-02 0. 5.00000007e-02 0. 0.
      6.25000000e-02 0. 1.25000002e-02 1.25000002e-02 0. 0.
      3.75000015e-02 1.25000002e-02 0. 0. 1.25000002e-02 0.
      1.00000001e-01 1.25000002e-02 1.25000002e-02</_>
    <_>
      2.02702712e-02 1.35135138e-02 6.75675692e-03 2.02702712e-02 0.
      1.35135138e-02 0. 4.05405425e-02 0. 0. 6.75675692e-03
      1.35135138e-02 0. 2.02702712e-02 0. 0. 6.75675692e-03 0.
      2.02702712e-02 1.35135138e-02 4.05405425e-02 2.70270277e-02
      4.72972989e-02 1.35135138e-02 6.75675692e-03 6.75675692e-03 0. 0.
      0. 2.70270277e-02 6.75675692e-03 0. 6.75675692e-03 2.02702712e-02
      6.75675692e-03 0. 1.35135138e-02 0. 3.37837860e-02 6.75675692e-03
      1.35135138e-02 0. 6.75675692e-03 0. 4.05405425e-02 6.75675692e-03
      0. 0. 4.05405425e-02 1.35135138e-02 0. 1.35135138e-02 0.
      2.02702712e-02 6.75675692e-03 0. 4.05405425e-02 2.70270277e-02 0.
      0. 1.35135138e-02 0. 0. 2.02702712e-02 1.35135138e-02 0. 0.
      6.75675692e-03 5.40540554e-02 0. 1.35135138e-02 0. 0.
      6.75675692e-03 2.02702712e-02 6.75675692e-03 0. 0. 0. 0.
      6.75675692e-03 4.72972989e-02 0. 0. 1.35135138e-02 2.70270277e-02
      0. 0. 2.02702712e-02 6.75675692e-03 0. 6.75675692e-03 0. 0.
      6.75675692e-03 6.75675692e-03 6.75675692e-03 0. 0. 6.75675692e-03</_>
    <_>
      0. 1.09890113e-02 0. 5.49450563e-03 4.94505502e-02 0. 0.
      2.19780225e-02 5.49450563e-03 0. 5.49450563e-03 0. 0.
      2.74725277e-02 0. 5.49450563e-03 0. 1.64835174e-02 1.09890113e-02
      0. 1.09890113e-02 0. 2.19780225e-02 5.49450563e-03 5.49450563e-03
      5.49450563e-03 5.49450563e-03 1.64835174e-02 2.74725277e-02
      3.29670347e-02 0. 5.49450563e-03 0. 1.09890113e-02 5.49450563e-03
      1.64835174e-02 0. 2.19780225e-02 5.49450563e-03 3.84615399e-02 0.
      2.19780225e-02 5.49450563e-03 0. 2.19780225e-02 1.64835174e-02
      5.49450563e-03 0. 3.29670347e-02 2.19780225e-02 1.09890113e-02 0.
      1.09890113e-02 1.64835174e-02 2.19780225e-02 1.64835174e-02 0.
      5.49450563e-03 1.64835174e-02 5.49450563e-03 2.19780225e-02
      1.09890113e-02 5.49450563e-03 0. 0. 4.39560451e-02 0. 0.
      2.19780225e-02 1.09890113e-02 2.74725277e-02 1.09890113e-02
      5.49450563e-03 0. 0. 0. 0. 1.64835174e-02 0. 0. 5.49450563e-03
      1.09890113e-02 0. 1.64835174e-02 5.49450563e-03 1.64835174e-02 0.
      0. 1.09890113e-02 5.49450563e-03 1.09890113e-02 0. 1.09890113e-02
      0. 0. 1.09890113e-02 4.39560451e-02 0. 1.64835174e-02
      3.29670347e-02</_>
    <_>
      4.69483575e-03 1.64319258e-02 2.34741787e-03 1.17370896e-02 0.
      2.34741792e-02 2.34741787e-03 4.69483575e-03 0. 2.34741787e-03
      2.34741787e-03 3.05164326e-02 4.69483575e-03 2.11267602e-02
      7.04225339e-03 1.87793430e-02 2.11267602e-02 2.34741787e-03
      3.28638516e-02 2.34741792e-02 4.69483575e-03 4.69483575e-03
      1.40845068e-02 1.87793430e-02 1.40845068e-02 3.05164326e-02
      1.87793430e-02 1.40845068e-02 0. 2.34741787e-03 3.28638516e-02
      7.04225339e-03 1.64319258e-02 1.17370896e-02 0. 2.34741787e-03
      2.34741787e-03 2.34741787e-03 2.34741787e-03 0. 0. 0.
      1.40845068e-02 4.69483575e-03 0. 7.04225339e-03 1.17370896e-02
      4.22535203e-02 1.64319258e-02 1.17370896e-02 2.58215964e-02
      2.34741787e-03 7.04225339e-03 0. 2.34741787e-03 0. 4.69483575e-03
      3.28638516e-02 2.58215964e-02 1.64319258e-02 2.34741792e-02 0.
      7.04225339e-03 1.87793430e-02 7.04225339e-03 2.34741787e-03 0.
      2.11267602e-02 1.87793430e-02 4.69483575e-03 2.34741787e-03
      7.04225339e-03 0. 9.38967150e-03 2.81690136e-02 0. 4.69483575e-03
      0. 2.34741787e-03 0. 1.40845068e-02 0. 2.34741787e-03
      9.38967150e-03 1.17370896e-02 9.38967150e-03 4.69483575e-03
      9.38967150e-03 1.40845068e-02 3.28638516e-02 0. 2.34741787e-03
      2.34741792e-02 4.69483575e-03 1.64319258e-02 7.04225339e-03
      4.69483575e-03 4.69483575e-03 4.69483575e-03 9.38967150e-03</_>
    <_>
      7.38007389e-03 3.69003695e-03 1.84501857e-02 7.38007389e-03
      1.84501857e-02 1.84501857e-02 1.10701108e-02 0. 0. 1.84501857e-02
      3.69003695e-03 3.69003695e-03 3.69003695e-03 2.21402217e-02 0. 0.
      1.10701108e-02 7.38007389e-03 2.21402217e-02 0. 0. 0.
      2.21402217e-02 7.38007389e-03 2.95202956e-02 0. 1.47601478e-02 0.
      3.69003695e-03 0. 0. 3.69003713e-02 2.58302577e-02 0.
      7.38007389e-03 0. 2.21402217e-02 7.38007389e-03 3.69003695e-03
      7.38007389e-03 3.69003695e-03 0. 1.47601478e-02 0. 0.
      1.84501857e-02 1.47601478e-02 1.84501857e-02 1.47601478e-02
      3.69003695e-03 0. 1.10701108e-02 0. 0. 0. 2.21402217e-02
      3.32103334e-02 0. 3.69003695e-03 1.84501857e-02 1.84501857e-02
      3.32103334e-02 0. 3.69003695e-03 0. 0. 2.21402217e-02
      1.84501857e-02 3.69003695e-03 0. 0. 3.69003695e-03 2.58302577e-02
      3.69003695e-03 7.38007389e-03 2.58302577e-02 1.84501857e-02 0.
      2.95202956e-02 1.84501857e-02 3.69003695e-03 3.69003695e-03
      1.10701108e-02 1.47601478e-02 7.38007389e-03 2.21402217e-02
      1.10701108e-02 1.84501857e-02 0. 1.10701108e-02 2.21402217e-02
      2.95202956e-02 0. 1.47601478e-02 1.47601478e-02 1.47601478e-02
      3.69003695e-03 7.38007389e-03 0. 1.47601478e-02</_>
    <_>
      2.88184430e-03 0. 3.74639742e-02 5.76368859e-03 0. 3.74639742e-02
      4.32276651e-02 0. 0. 1.72910653e-02 8.64553265e-03 8.64553265e-03
      2.59365980e-02 0. 1.15273772e-02 0. 3.17002870e-02 0.
      5.76368859e-03 0. 5.76368859e-03 5.76368859e-03 0. 0.
      1.44092217e-02 1.15273772e-02 5.76368859e-03 2.88184430e-03 0. 0.
      2.88184430e-03 0. 1.72910653e-02 0. 5.76368859e-03 2.88184430e-03
      2.88184430e-03 1.44092217e-02 0. 2.88184430e-03 0. 0.
      3.45821306e-02 1.15273772e-02 2.88184430e-03 2.88184430e-03 0.
      2.88184434e-02 0. 2.88184430e-03 2.88184430e-03 0. 8.64553265e-03
      8.64553265e-03 1.15273772e-02 0. 2.59365980e-02 0. 0.
      1.44092217e-02 4.89913523e-02 0. 8.64553265e-03 2.88184430e-03 0.
      8.64553265e-03 0. 8.06916431e-02 8.64553265e-03 0. 0.
      8.64553265e-03 0. 2.01729108e-02 3.17002870e-02 0. 0. 0. 0.
      1.44092217e-02 1.15273772e-02 0. 5.76368859e-03 3.17002870e-02
      2.88184434e-02 2.88184430e-03 1.15273772e-02 8.64553265e-03
      2.88184430e-03 8.64553265e-03 1.44092217e-02 1.15273772e-02
      8.64553265e-03 0. 5.76368868e-02 1.15273772e-02 4.61095087e-02
      5.76368859e-03 0. 1.15273772e-02</_>
    <_>
      1.07142860e-02 0. 0. 0. 0. 3.57142859e-03 3.57142859e-03
      3.57142859e-03 1.42857144e-02 2.50000004e-02 3.57142859e-03
      4.64285724e-02 1.07142860e-02 2.50000004e-02 2.50000004e-02 0.
      1.78571437e-02 0. 7.14285718e-03 3.57142859e-03 0. 0.
      7.14285718e-03 1.42857144e-02 1.07142860e-02 1.78571437e-02
      1.07142860e-02 1.07142860e-02 0. 7.14285718e-03 0. 0.
      3.57142859e-03 0. 1.07142860e-02 0. 3.57142859e-03 3.57142859e-03
      3.57142859e-03 2.50000004e-02 0. 3.57142859e-03 1.42857144e-02
      3.57142859e-03 3.57142859e-03 7.14285718e-03 0. 2.14285720e-02
      1.42857144e-02 3.57142859e-03 3.57142859e-03 1.07142860e-02
      1.42857144e-02 3.57142859e-03 0. 0. 7.14285718e-03 2.14285720e-02
      2.14285720e-02 3.92857157e-02 2.50000004e-02 0. 3.57142873e-02
      1.42857144e-02 1.07142860e-02 0. 0. 2.14285720e-02 1.78571437e-02
      1.07142860e-02 3.57142859e-03 1.42857144e-02 0. 2.14285720e-02
      2.14285720e-02 3.57142859e-03 0. 1.07142860e-02 0. 3.57142859e-03
      1.07142860e-02 1.42857144e-02 2.14285720e-02 3.92857157e-02
      1.78571437e-02 1.78571437e-02 2.14285720e-02 1.07142860e-02
      3.57142859e-03 1.78571437e-02 1.07142860e-02 3.57142859e-03
      2.50000004e-02 0. 0. 7.14285718e-03 2.85714287e-02 1.42857144e-02
      0. 0.</_>
    <_>
      0. 2.42424235e-02 0. 6.06060587e-03 0. 2.42424235e-02 0.
      1.81818176e-02 0. 1.21212117e-02 0. 1.81818176e-02 6.06060587e-03
      0. 3.03030293e-02 3.03030293e-02 3.03030293e-02 0. 1.21212117e-02
      1.81818176e-02 0. 0. 2.42424235e-02 3.03030293e-02 1.21212117e-02
      1.21212117e-02 6.06060587e-03 0. 6.06060587e-03 6.06060587e-03 0.
      0. 0. 0. 0. 4.84848469e-02 1.21212117e-02 1.81818176e-02
      6.06060587e-03 6.06060587e-03 0. 0. 0. 6.06060587e-03
      1.81818176e-02 0. 6.06060587e-03 1.81818176e-02 4.24242392e-02
      6.06060587e-03 6.06060587e-03 6.06060587e-03 1.21212117e-02 0. 0.
      0. 1.81818176e-02 6.06060587e-03 6.66666627e-02 2.42424235e-02
      5.45454547e-02 6.06060587e-03 0. 6.06060587e-03 2.42424235e-02
      6.06060587e-03 6.06060587e-03 6.06060587e-03 0. 0. 0. 0.
      6.06060587e-03 0. 3.03030293e-02 0. 0. 2.42424235e-02 0. 0. 0. 0.
      0. 3.63636352e-02 0. 0. 6.06060587e-03 6.06060587e-03 0.
      7.87878782e-02 6.06060587e-03 0. 6.06060587e-03 2.42424235e-02 0.
      0. 6.06060587e-03 0. 0. 6.06060587e-03</_>
    <_>
      1.27388537e-02 1.91082805e-02 0. 0. 4.45859879e-02 1.27388537e-02
