<?xml version="1.0"?>
<opencv_storage>
<opencv_ml_svm>
  <format>3</format>
  <svmType>C_SVC</svmType>
  <kernel>
    <type>LINEAR</type></kernel>
  <C>1.0000000000000001e-01</C>
  <term_criteria><epsilon>9.9999999999999995e-07</epsilon>
    <iterations>100</iterations></term_criteria>
  <var_count>100</var_count>
  <class_count>15</class_count>
  <class_labels type_id="opencv-matrix">
    <rows>15</rows>
    <cols>1</cols>
    <dt>i</dt>
    <data>
      0 1 2 3 4 5 6 7 8 9 10 11 12 13 14</data></class_labels>
  <sv_total>105</sv_total>
  <support_vectors>
    <_>
      1.03502892e-01 -2.56999452e-02 6.81967512e-02 -6.12364598e-02
      -3.26427110e-02 -8.92478526e-02 -5.64735495e-02 5.58019690e-02
      -1.72547083e-02 -5.14960662e-02 2.96699181e-02 2.49347687e-02
      -1.42916366e-02 5.92095591e-02 5.44914529e-02 -1.63738858e-02
      -5.73304605e-05 6.81924820e-03 1.17708026e-02 -2.72183977e-02
      6.66114613e-02 2.43955161e-02 -1.90846678e-02 -3.46271843e-02
      2.92671900e-02 6.10731877e-02 4.00011539e-02 4.07640114e-02
      3.69050633e-03 -1.08932806e-02 3.59341800e-02 -4.66276333e-02
      4.98791113e-02 5.31604812e-02 6.41043037e-02 -3.40735391e-02
      -1.08575255e-01 5.61746676e-03 -2.26451829e-02 3.64923589e-02
      7.07725063e-02 -3.13602760e-03 -1.56474207e-02 1.13826655e-01
      -3.36766010e-03 -2.01409534e-02 -1.96989137e-03 -6.84345141e-02
      1.81783810e-02 -4.33368869e-02 -1.52301583e-02 2.14081956e-03
      -1.67443454e-02 5.62064312e-02 4.84556984e-03 -1.26259640e-01
      -4.22196696e-03 -4.48536873e-02 2.14678720e-02 2.52872538e-02
      2.18574386e-02 -1.01825492e-02 3.00717223e-02 -4.54458222e-02
      3.57232383e-03 -7.84282088e-02 6.06074780e-02 -7.40108341e-02
      -3.85352299e-02 -2.62973476e-02 -6.92775175e-02 1.71340629e-02
      -1.68709345e-02 9.66288149e-04 -3.95762622e-02 8.18679109e-03
      -8.73783305e-02 6.66446146e-03 -2.61725020e-03 1.09846115e-01
      -5.29594300e-03 1.24510508e-02 -7.54246637e-02 -3.48604545e-02
      -9.14001092e-03 2.64494102e-02 9.23712030e-02 7.16453791e-03
      6.30694181e-02 -4.26504612e-02 -3.46914791e-02 6.52866960e-02
      -5.07612899e-02 3.48131657e-02 -2.22158115e-02 4.09496091e-02
      -2.45637842e-03 -3.23643535e-02 2.96956170e-02 -3.89276445e-02</_>
    <_>
      1.37559444e-01 -1.23419888e-01 -1.50799134e-03 9.03838351e-02
      -3.36163566e-02 -1.21875508e-02 -4.04652581e-02 -2.92375148e-03
      -5.12715080e-04 5.45595400e-02 7.21523957e-03 -3.21714133e-02
      -4.57494408e-02 2.48640194e-04 5.44851534e-02 -2.55756695e-02
      -1.37969749e-02 -2.71866322e-02 4.60309051e-02 -7.63197243e-03
      -3.65801267e-02 -1.76275354e-02 -6.73668925e-03 -2.20695101e-02
      1.21686598e-02 3.48228700e-02 -4.04607505e-02 3.43198404e-02
      -3.35968509e-02 -1.99741255e-02 9.49664228e-03 -2.26840023e-02
      4.01490182e-02 1.14457170e-02 7.19122216e-03 -2.89393682e-02
      2.45232675e-02 6.42660260e-02 8.02788977e-03 1.69679876e-02
      -2.36155391e-02 2.97458880e-02 1.12556797e-02 1.32208914e-01
      5.43946847e-02 6.07232470e-03 -4.26731408e-02 1.00008868e-01
      -1.59514751e-02 -1.61711320e-01 5.22066839e-02 -1.83979124e-02
      -1.00331120e-01 -1.53261973e-02 -1.21753952e-02 -9.11291242e-02
      -4.05300520e-02 -5.02347685e-02 -3.38781103e-02 -4.48276475e-03
      3.17573100e-02 1.03937164e-01 -5.00732213e-02 2.19982564e-02
      -2.14363366e-01 2.30824179e-03 2.64817979e-02 5.27094007e-02
      -1.86722167e-02 9.01714042e-02 5.49725704e-02 1.20702095e-03
      3.81274819e-02 -5.41917644e-02 3.99074331e-02 3.10450867e-02
      -4.21060529e-03 -3.30720320e-02 -2.71485164e-03 1.47035867e-01
      -1.36400554e-02 -4.55610491e-02 -2.63139959e-02 -3.15589085e-02
      -5.59755489e-02 -4.07929383e-02 1.28042355e-01 1.98809803e-02
      1.77084506e-02 7.53060682e-04 -2.58538034e-02 1.13674914e-02
      -3.10363490e-02 -1.83969177e-02 -5.94195761e-02 1.91213079e-02
      8.14747345e-03 -9.95001476e-03 -1.28112575e-02 6.80249184e-02</_>
    <_>
      1.40432850e-01 3.08620930e-02 8.67527202e-02 -8.31378326e-02
      1.42360423e-02 -7.30744302e-02 2.71513239e-02 3.99145149e-02
      -2.41393764e-02 -1.47959784e-01 1.05749723e-02 2.53407899e-02
      -6.35117805e-03 6.28182217e-02 7.74823725e-02 4.62902430e-03
      -1.65885203e-02 1.54148135e-02 -1.41616901e-02 -1.61514282e-02
      6.71111569e-02 2.25108750e-02 -2.76805088e-03 -6.02313913e-02
      3.16537246e-02 5.87771162e-02 2.24126969e-02 3.90885174e-02
      -9.21246782e-03 -7.68334046e-02 4.41954955e-02 -4.20016460e-02
      1.88910272e-02 -1.31514901e-03 3.88690569e-02 1.04328878e-02
      -9.35802534e-02 -3.66968960e-02 -1.84152015e-02 1.86875574e-02
      6.15200959e-02 -9.73130092e-02 8.69514700e-03 1.22341014e-01
      -3.31789404e-02 -4.35113311e-02 2.41216123e-02 -1.61806583e-01
      3.52267781e-03 -1.04005970e-02 -1.52011653e-02 2.02120878e-02
      5.09136450e-03 6.12256527e-02 -4.42270152e-02 -5.12982979e-02
      4.61484529e-02 -6.69233352e-02 -6.95945462e-03 4.88418974e-02
      2.73974519e-02 7.37071708e-02 3.22985463e-02 -1.69607565e-01
      6.35568127e-02 -7.17124790e-02 7.47968107e-02 1.82162412e-02
      -9.03707743e-03 7.53070414e-02 -1.40648246e-01 1.85161326e-02
      -5.67542426e-02 -2.09793411e-02 -9.41944942e-02 -7.54637970e-03
      -1.29521489e-01 6.49022963e-03 1.43880956e-02 1.32382274e-01
      -1.48125621e-03 -6.76852986e-02 -1.12727825e-02 3.46274511e-03
      3.93671542e-03 1.44051267e-02 1.13504834e-01 -3.60925868e-03
      4.98706922e-02 3.56707238e-02 -7.81351030e-02 4.37729731e-02
      7.80148059e-02 2.58445572e-02 -9.50677786e-05 4.62616198e-02
      -6.12012073e-02 2.88960128e-03 2.10963767e-02 -1.08827673e-01</_>
    <_>
      5.09762205e-02 -1.78027470e-02 9.31491144e-03 -1.69470105e-02
      -2.65017245e-03 -1.13269705e-02 -1.63298342e-02 2.27067284e-02
      -3.68452035e-02 -3.98524441e-02 1.39985904e-02 -4.09920933e-03
      -1.04063116e-02 1.78215979e-03 1.26724029e-02 -7.91995600e-03
      8.50174297e-03 -4.92841238e-03 -2.89253029e-03 -3.39825568e-03
      2.32699737e-02 -3.90442857e-03 -1.40450092e-03 -3.25620845e-02
      1.33841885e-02 -5.17519517e-03 -8.95341579e-03 3.13336551e-02
      -4.23793681e-03 5.80120040e-03 1.85021125e-02 -4.25169617e-03
      -7.93424901e-03 9.02598444e-03 1.76865514e-02 1.19003905e-02
      -2.19865106e-02 1.55300144e-02 -1.12638539e-02 -1.25908703e-02
      -1.28974416e-03 -2.05173492e-02 -8.77566077e-03 6.30098432e-02
      1.50543656e-02 -1.16563914e-03 -2.05016416e-02 -3.02934018e-03
      1.34722460e-02 -2.68581435e-02 1.44700976e-02 -9.38877743e-03
      -1.64258927e-02 1.59651022e-02 -8.37335084e-03 -1.33350994e-02
      1.41802747e-02 -3.15955169e-02 -9.36328061e-03 1.83292404e-02
      3.32054645e-02 4.69762795e-02 -7.57636910e-04 -2.23144256e-02
      9.37032979e-03 -3.13719478e-03 2.14875676e-02 1.60759073e-02
      -2.46769916e-02 4.88784313e-02 5.98362973e-03 8.81877169e-03
      -5.12599945e-03 -9.95258801e-03 -3.77144739e-02 -1.62017271e-02
      -3.76569815e-02 -1.57676097e-02 1.28622483e-02 6.14939034e-02
      8.46222602e-03 -2.01990586e-02 -1.12238189e-03 -2.35652793e-02
      -7.87613727e-03 1.40294887e-03 2.39574499e-02 1.74735133e-02
      -4.80386009e-03 -1.38200670e-02 6.26505958e-03 4.70548077e-03
      7.70221185e-03 2.21397281e-02 -2.26303376e-02 -1.03401151e-02
      -3.16687822e-02 6.93226513e-03 -7.10592279e-03 -8.34061950e-03</_>
    <_>
      6.92275763e-02 -2.13822760e-02 2.64011547e-02 1.93371810e-02
      -2.66986396e-02 -1.63129419e-02 -1.89726874e-02 9.15707368e-03
      2.58738194e-02 -2.31565721e-03 6.71576289e-03 2.74823122e-02
      -7.88935553e-03 1.08036306e-02 1.34413531e-02 -1.55260647e-03
      -4.35322616e-03 -1.59444828e-02 2.72313040e-02 1.15103312e-02
      4.03808728e-02 -5.45196608e-02 3.06473207e-03 -3.21047157e-02
      -1.63880386e-03 5.63977435e-02 -2.46257000e-02 2.05902457e-02
      -1.68700181e-02 -1.01616774e-02 8.29186570e-03 -1.67015512e-02
      2.71039847e-02 1.38118463e-02 4.80236933e-02 -1.46761648e-02
      -1.10773817e-02 -1.40136248e-03 -2.58614663e-02 -2.41285991e-02
      2.78270408e-03 -7.52280187e-03 -3.71325910e-02 -5.81296161e-03
      1.14636375e-02 1.19436085e-02 -2.74571794e-04 6.96162833e-03
      1.02540129e-03 -3.80997322e-02 3.12820822e-02 -1.47079369e-02
      -1.17961802e-02 8.29466560e-04 -1.64764039e-02 -1.05759408e-02
      4.39455453e-03 -9.49824154e-02 -1.19534624e-03 2.37659784e-04
      5.52800763e-03 2.04901844e-02 -1.62551347e-02 -2.75534932e-02
      -4.25206460e-02 3.52169108e-03 1.81824658e-02 -1.21860951e-02
      -3.46240066e-02 2.35794690e-02 3.41679305e-02 2.80341716e-03
      6.44599181e-03 3.46952671e-04 1.36728305e-02 8.96627549e-03
      -4.86071073e-02 2.04438511e-02 1.94123220e-02 2.87428088e-02
      -2.82966681e-02 -2.17493959e-02 -6.65717293e-04 -2.36433335e-02
      7.45231146e-03 -1.81544907e-02 6.16360903e-02 2.29511335e-02
      3.04619204e-02 1.66929385e-03 6.86327508e-03 -4.37039398e-02
      2.37922352e-02 7.06775999e-03 -1.14570810e-02 1.85385589e-02
      3.10313031e-02 -2.38082162e-03 -2.98888367e-02 -4.08268208e-03</_>
    <_>
      1.80700161e-02 -7.73088541e-03 1.22298589e-02 2.18720119e-02
      -9.00766347e-03 -4.02692631e-02 -4.56755236e-03 1.43275680e-02
      1.44436508e-02 1.34561406e-02 6.17853925e-03 -6.60702959e-03
      -8.37613083e-03 4.61243326e-03 -9.54564661e-03 -1.93964504e-02
      9.79434326e-03 1.59185678e-02 1.88549254e-02 1.87816136e-02
      2.59023551e-02 -3.66319455e-02 1.25480713e-02 -1.49743306e-02
      -5.39065106e-03 2.59395875e-02 -2.44911071e-02 1.74537804e-02
      1.72598672e-03 7.51503045e-03 1.36939052e-03 -4.00740048e-03
      4.88178711e-03 -1.48085470e-03 2.13224106e-02 1.44736180e-02
      -1.35752764e-02 1.31405015e-02 -2.88155917e-02 -2.05318928e-02
      6.92591909e-03 1.33188507e-02 -3.51563357e-02 -9.71874129e-03
      1.52418548e-02 1.88462622e-03 8.33413843e-03 2.09092982e-02
      -1.46368786e-03 -2.29956713e-02 1.19088646e-02 -1.80921480e-02
      -7.45669752e-03 9.13501717e-03 -1.94959752e-02 -1.35116596e-02
      1.03022456e-02 -1.48840416e-02 2.93028832e-04 1.10079367e-02
      1.27023738e-02 2.11755019e-02 -2.89140549e-02 -2.37431619e-02
      2.10538637e-02 1.38095533e-02 2.03052606e-03 -2.12052488e-03
      5.30107226e-03 2.90525425e-02 3.19439098e-02 1.26484996e-02
      -1.95862781e-02 -3.12422961e-03 -2.18313802e-02 5.74864121e-03
      -6.81023598e-02 1.51715977e-02 -1.42405126e-02 3.72328497e-02
      1.28567414e-02 -4.45487536e-02 7.80963525e-03 -1.13430144e-02
      1.55262761e-02 -1.33070229e-02 9.91896912e-03 2.09232024e-03
      1.51553722e-02 -5.29066660e-04 -9.85790137e-03 -3.58714610e-02
      1.64678358e-02 3.02115735e-02 -1.29060764e-02 -1.22284964e-02
      1.23832654e-02 7.43872439e-03 -1.48502495e-02 -2.65263282e-02</_>
    <_>
      1.18460320e-02 -1.19953463e-02 1.19023779e-02 2.34316736e-02
      1.64155883e-03 -1.52336592e-02 -6.71586022e-04 1.77888498e-02
      3.41126649e-03 2.31024362e-02 7.72486534e-03 4.81522735e-03
      -1.30245090e-02 1.07632997e-02 -1.21697476e-02 -9.59545467e-03
      2.88663595e-03 -1.33314067e-02 -1.12976953e-02 6.76262332e-03
      2.22894270e-02 -1.65863782e-02 1.47211031e-04 -1.68305486e-02
      -1.54230779e-03 -4.88727028e-03 -1.87658668e-02 7.88282044e-03
      6.21023402e-03 -1.24465739e-02 7.97070377e-03 -1.16793830e-02
      -9.58138611e-03 -6.41153147e-03 2.11618338e-02 1.14486609e-02
      1.84514355e-02 3.47967143e-03 3.70405405e-03 -3.11762113e-02
      5.50004654e-03 7.03975884e-03 -1.41616268e-02 6.19740924e-03
      7.75057706e-04 -1.87480578e-03 -6.78315619e-03 2.31836867e-02
      -7.71086663e-03 -1.24465767e-02 1.77016538e-02 -1.82624236e-02
      -4.71764384e-03 4.12707363e-04 -1.31551474e-02 -1.40104741e-02
      -2.61064619e-03 1.95667939e-03 -1.81715880e-02 -1.25911487e-02
      1.08662304e-02 1.59948934e-02 -1.70807485e-02 2.31038732e-03
      2.06991285e-02 9.19533335e-03 1.56828742e-02 2.83825025e-02
      9.16167721e-03 1.82497092e-02 2.20918152e-02 -3.64398328e-03
      3.10564111e-03 5.95615385e-03 -1.46483444e-02 -1.24376025e-02
      -1.22487154e-02 3.89937568e-03 2.78792554e-03 9.16760135e-03
      -2.71353312e-03 -1.11456867e-02 9.38848825e-06 3.33514879e-03
      -7.90979341e-03 -6.13299897e-03 7.27760419e-03 4.13056370e-03
      -7.20151607e-03 5.08025941e-03 8.48238473e-04 -1.60458181e-02
      -4.81530977e-03 7.46003352e-04 -1.08801452e-02 -1.40316011e-02
      -1.83904462e-03 7.65365968e-03 -1.91596467e-02 7.43545918e-03</_>
    <_>
      9.73569006e-02 -2.87528820e-02 3.39510441e-02 2.50721928e-02
      -4.20499966e-02 -3.34953815e-02 -2.36995742e-02 2.03012656e-02
      -3.30043249e-02 -5.53479195e-02 6.28633704e-03 -6.93883223e-04
      -9.44031309e-03 2.66074724e-02 2.77560987e-02 -3.43686342e-02
      7.91884959e-04 2.88252663e-02 -7.87316915e-03 -4.78867218e-02
      -1.65573750e-02 -5.90912439e-03 -7.19773452e-05 -6.63057249e-03
      4.78746416e-03 2.51807198e-02 5.80780162e-03 3.92422378e-02
      2.83319945e-03 7.32887350e-03 6.13194518e-03 -2.32476406e-02
      3.21356319e-02 -2.39245757e-03 1.47482483e-02 2.20962893e-02
      1.18227145e-02 2.28090119e-02 -1.63296945e-02 2.35812105e-02
      2.21230835e-02 -4.43343371e-02 5.16020972e-03 1.10050641e-01
      1.94882439e-03 -7.12641375e-03 4.55604307e-03 2.64856964e-02
      1.82841010e-02 -7.11124241e-02 -5.88927604e-03 -1.94455497e-02
      -6.16284460e-02 -1.15906051e-03 5.59953786e-03 -2.96644773e-02
      -2.04273425e-02 -3.70052643e-02 -9.67126526e-03 2.55596228e-02
      1.80164501e-02 5.00492230e-02 -2.65668221e-02 -2.85496265e-02
      -2.93541290e-02 -1.59985442e-02 4.20733690e-02 -2.02564057e-02
      -8.64267349e-03 4.35771942e-02 -5.58215417e-02 8.14143568e-03
      -1.59426238e-02 -2.19794773e-02 -1.12248994e-02 -5.49542438e-03
      -3.35915089e-02 -2.42053019e-03 -7.32916349e-04 1.18170947e-01
      1.56714972e-02 -2.55187601e-02 -2.99956594e-02 -2.82866005e-02
      -3.74657363e-02 2.90923356e-03 9.85057801e-02 2.62360815e-02
      1.99768636e-02 -3.55069228e-02 6.73840987e-03 1.07266381e-02
      9.70246911e-04 1.27717135e-02 -2.58302186e-02 1.75607018e-02
      -4.29216623e-02 -4.42703515e-02 9.19324439e-03 3.50779481e-02</_>
    <_>
      4.09671590e-02 6.68410864e-03 1.56622473e-02 5.62298559e-02
      -1.65639259e-02 -6.32834435e-02 -7.03025726e-04 1.24798703e-03
      -1.13420757e-02 2.82694381e-02 -6.55722199e-03 3.35342176e-02
      -3.54105630e-03 2.54398845e-02 1.31875798e-02 1.17025282e-02
      -2.35924195e-03 3.95519054e-03 1.21698715e-02 1.54786427e-02
      3.94880176e-02 -3.06493863e-02 -2.19099652e-02 -1.70701630e-02
      -1.60545576e-02 1.24833137e-02 -2.07977742e-02 -1.72148868e-02
      4.17148927e-03 8.05904390e-04 1.60008036e-02 -4.69773822e-02
      -1.74252864e-03 4.52508079e-03 3.77239287e-02 1.33900652e-02
      2.97004968e-04 3.53422426e-02 -2.09161211e-02 -2.06010304e-02
      -6.30301377e-03 -3.39917615e-02 -3.72201540e-02 4.21171356e-03
      5.35306800e-03 -3.31528597e-02 3.70153761e-03 3.13924402e-02
      -3.57403979e-02 -1.70552321e-02 2.55827811e-02 -2.69560963e-02
      -2.78111058e-03 1.28583768e-02 -2.43431535e-02 -3.44024855e-03
      2.55844835e-02 -4.23761969e-03 2.03655399e-02 6.53830823e-03
      -1.52809694e-02 2.32151356e-02 -1.58514827e-02 -2.35040151e-02
      4.10289243e-02 5.88549720e-03 2.08723173e-02 8.83111916e-03
      -2.17587221e-02 3.29792127e-02 4.19360436e-02 8.55728239e-03
      1.08905490e-02 1.33769754e-02 7.93172326e-03 -1.22341104e-02
      -6.48244321e-02 1.61397886e-02 -1.69913489e-02 3.11575718e-02
      4.80190013e-03 -5.06502762e-02 -1.26343174e-02 -7.68130785e-03
      1.00625576e-02 -8.31944216e-03 2.67297458e-02 -2.58824825e-02
      -1.09910080e-02 -1.59424003e-02 2.12405231e-02 -2.90994737e-02
      1.28516173e-02 -2.36321259e-02 -9.50706564e-03 5.09290304e-03
      1.61668416e-02 2.28924863e-02 -2.57556606e-02 -1.29394596e-02</_>
    <_>
      1.16137117e-01 -7.52719166e-03 4.64091748e-02 -1.45603772e-02
      -3.35987285e-02 -8.65407661e-02 -2.12182831e-02 3.04900724e-02
      -2.55805738e-02 -6.34108931e-02 1.08169215e-02 2.87832436e-03
      -2.32612644e-03 5.62852621e-02 5.74385971e-02 -1.45416139e-02
      1.12692345e-04 2.63181590e-02 -2.40151174e-02 -1.73921492e-02
      1.34064555e-02 1.70348249e-02 -1.81405731e-02 -3.09827887e-02
      2.90101510e-03 4.20789607e-02 1.24580355e-03 2.03738697e-02
      -1.06181335e-02 1.19355239e-03 9.31877363e-03 1.32555165e-03
      2.19939426e-02 2.59053558e-02 2.33787321e-03 -1.39149288e-02
      -3.36399451e-02 -1.80341005e-02 -2.00876221e-02 1.36251654e-02
      3.32304016e-02 1.20658940e-03 -1.61069799e-02 1.01928942e-01
      1.56262238e-02 7.39165163e-03 -1.85884982e-02 -4.59958147e-03
      -3.14311795e-02 -5.74042015e-02 1.72384661e-02 -1.12322578e-02
      -4.39740494e-02 1.27277337e-02 -1.22438110e-02 -3.89758125e-02
      3.09604649e-02 -6.20513745e-02 -6.35576481e-03 4.82262038e-02
      3.64629813e-02 7.09264502e-02 -1.98118016e-02 -3.90147567e-02
      -7.17388466e-02 -1.48189468e-02 4.66884561e-02 -2.20156778e-02
      -8.28173105e-03 4.72130291e-02 -8.53587389e-02 8.32707714e-03
      -1.35115543e-02 -1.58283766e-02 -1.55927725e-02 -6.17513759e-03
      -5.88692389e-02 -1.35960868e-02 9.40428674e-03 1.14009246e-01
      -1.46369776e-02 -2.70314515e-02 -1.10895094e-02 -1.88570842e-02
      -4.72467318e-02 1.05172759e-02 1.05502672e-01 1.76171288e-02
      3.12241632e-02 -2.30807848e-02 -3.40308659e-02 3.40245701e-02
      1.45452153e-02 2.33666021e-02 -2.06483770e-02 2.43543088e-02
      -3.42528746e-02 -3.42959515e-03 1.32542150e-02 -1.75904632e-02</_>
    <_>
      9.06285793e-02 -1.18290976e-01 -9.51654930e-03 6.28549531e-02
      -5.28351925e-02 -4.65595387e-02 -4.18666415e-02 2.98979245e-02
      2.08182763e-02 8.55136290e-02 1.77538171e-02 -2.88371416e-03
      -1.53131485e-02 3.13055888e-03 3.34400535e-02 -1.39471481e-03
      1.82642248e-02 -3.45253646e-02 4.47745994e-02 2.01043244e-02
      1.66351795e-02 -3.99156325e-02 4.57736477e-03 -3.79830338e-02
      -9.61503852e-03 4.69117835e-02 -3.98340449e-02 3.79556641e-02
      -4.87122172e-03 6.88541681e-03 -1.24592837e-02 -3.56359780e-03
      3.20811570e-02 -4.65828832e-03 1.05889384e-02 -3.10767977e-03
      -6.12742677e-02 8.14650133e-02 -3.28965746e-02 -1.05712013e-02
      -4.15855758e-02 2.16682963e-02 -4.18558605e-02 8.96545425e-02
      4.21973057e-02 2.32093725e-02 1.64763580e-04 5.73761277e-02
      8.05425551e-03 -1.11133158e-01 2.99696717e-02 -5.06139770e-02
      -6.64319545e-02 -2.80935671e-02 -2.56063584e-02 -1.91806573e-02
      -2.35994012e-04 -9.29339230e-02 3.67944106e-03 -3.16714495e-02
      1.35230497e-02 9.15461481e-02 -5.95845655e-02 1.12928813e-02
      -1.35251299e-01 3.15983742e-02 -4.37386055e-03 6.60687964e-03
      -5.85374944e-02 9.27316397e-02 7.61311129e-02 6.80104736e-03
      1.31782526e-02 5.46416501e-03 9.42787342e-03 3.24558541e-02
      -3.91233265e-02 -1.45073910e-03 7.19131716e-03 1.27614617e-01
      7.17541855e-03 -4.40901853e-02 -6.27488364e-03 -4.73418012e-02
      -2.04390008e-03 -3.58910002e-02 8.26308355e-02 2.48303283e-02
      1.54059632e-02 -1.23375328e-02 2.49275565e-02 -4.69487086e-02
      -3.56024019e-02 5.30277798e-03 -3.73178124e-02 3.72023485e-03
      3.85397486e-02 5.91149693e-03 -4.76192459e-02 3.28041650e-02</_>
    <_>
      9.98901054e-02 -2.76791286e-02 1.57274734e-02 5.28379343e-02
      -2.99284365e-02 2.14837637e-04 -5.97783830e-03 1.51052419e-02
      -2.52610520e-02 -2.35408545e-02 -5.76511817e-03 -3.81759892e-04
      -1.62300840e-02 1.12832161e-02 3.55979651e-02 -1.27734030e-02
      -2.09370721e-02 -1.07533380e-03 1.07910251e-03 -7.89702591e-03
      1.83187574e-02 -9.07589216e-03 7.54383765e-03 -8.20286646e-02
      3.67634557e-03 2.91093774e-02 -4.09070998e-02 3.53278704e-02
      -1.15509285e-02 -2.52444148e-02 2.68050805e-02 -7.40301888e-03
      -1.20903440e-02 -1.72982085e-02 6.57021534e-03 1.09219076e-02
      -1.07187340e-02 2.87887715e-02 -2.10178867e-02 -2.00274936e-03
      -1.79352483e-03 -4.93208766e-02 6.72665611e-03 9.91760939e-02
      1.12473769e-02 5.53444959e-03 -2.44872235e-02 3.34779173e-02
      -4.49030194e-03 -7.13377744e-02 2.78523993e-02 -1.57602981e-03
      -2.96719335e-02 5.12541970e-03 -2.82252710e-02 -1.59012992e-02
      8.15447478e-04 -6.94687515e-02 -3.90840843e-02 3.39452922e-02
      3.67524661e-02 6.00678809e-02 -1.78406406e-02 -5.26852682e-02
      -4.15694900e-02 -8.47952068e-03 2.60644294e-02 5.02011552e-02
      -1.98958162e-02 5.80422916e-02 -3.10785579e-03 2.19201483e-03
      8.65486637e-03 -4.04386688e-03 2.69244406e-02 3.77833401e-03
      -5.60879102e-03 9.25326906e-03 -1.34879039e-04 9.84605253e-02
      -1.09333945e-02 -2.66474131e-02 -1.45523818e-02 -1.94038711e-02
      -2.93401852e-02 -6.11480791e-03 6.96387738e-02 3.59265180e-03
      3.87766352e-03 1.35441879e-02 -8.29475990e-04 7.86978193e-03
      3.70441191e-03 -2.43609771e-03 -3.21246646e-02 -3.88495740e-03
      -5.73272333e-02 1.82132851e-02 -2.20119022e-02 7.58310920e-03</_>
    <_>
      8.73116925e-02 -1.02619193e-02 3.13785076e-02 6.16659522e-02
      8.14646762e-03 -5.32862283e-02 -2.33882442e-02 2.23161466e-02
      -2.02863552e-02 -2.55686417e-02 1.67257059e-02 -7.52291270e-03
      -1.81756616e-02 2.17979383e-02 3.22574042e-02 -9.26947221e-03
      -2.74708215e-02 -5.73309651e-03 -2.16359627e-02 1.62325762e-02
      3.96464691e-02 -3.42025794e-02 1.21191684e-02 -5.59831969e-02
      2.13685464e-02 2.77566928e-02 -4.11347337e-02 5.12360297e-02
      -1.25671644e-02 -3.80801177e-03 2.93325707e-02 -1.86488405e-02
      -7.84326531e-03 2.88152322e-02 2.99772490e-02 8.03554431e-03
      -2.99609592e-03 -2.02167965e-02 -4.44099447e-03 -2.91968081e-02
      1.26656257e-02 -4.17227931e-02 -6.03457838e-02 6.53141439e-02
      -1.23259863e-02 4.41886624e-03 -2.63806116e-02 6.47366717e-02
      6.32587401e-03 -3.50876562e-02 2.98283789e-02 -1.04391268e-02
      -4.33690362e-02 3.26194316e-02 -3.27924304e-02 -2.11203415e-02
      -2.08428372e-02 3.66706215e-03 -3.21564786e-02 1.12148682e-02
      3.93869467e-02 9.56766382e-02 -5.98619506e-03 -5.26655465e-02
      5.07868789e-02 1.07408466e-03 3.11788637e-02 2.89547462e-02
      -5.88181010e-03 8.38298500e-02 -7.51389423e-03 1.16510764e-02
      -3.15994844e-02 2.29722849e-04 -1.60812754e-02 -2.64090542e-02
      -9.09186676e-02 -1.08031146e-02 1.69625692e-02 8.54831412e-02
      1.34477923e-02 -1.78949442e-02 -3.07443533e-02 -2.91583948e-02
      -4.56798729e-03 -1.57993031e-03 4.88979593e-02 2.72381231e-02
      -9.09199473e-03 -2.41078120e-02 1.02725672e-02 -2.68570110e-02
      3.61574963e-02 7.30177946e-03 -3.34773287e-02 -1.36743402e-02
      -3.17157693e-02 -1.60587579e-02 -4.93715666e-02 -3.90609428e-02</_>
    <_>
      3.36790085e-02 -4.63458756e-03 2.26947684e-02 1.68400407e-02
      -3.32458527e-03 -4.65987101e-02 -1.47647727e-02 1.08350059e-02
      -2.67656967e-02 -4.48123664e-02 1.28976507e-02 5.98470494e-03
      -8.96663405e-03 1.20574767e-02 2.78476509e-03 -4.03117249e-03
      1.06001962e-02 -1.63650867e-02 -3.17215994e-02 -1.22894521e-03
      2.84264311e-02 -2.09426880e-02 -2.11410578e-02 -5.90827921e-03
      -2.79605621e-03 1.30242761e-02 -8.02184339e-04 3.21148112e-02
      5.12365205e-03 -4.12044628e-03 1.86156258e-02 -2.82062348e-02
      1.60232764e-02 3.14377248e-02 3.57495360e-02 9.95204784e-03
      -4.01983522e-02 1.51448734e-02 -4.77194460e-03 -6.30569411e-03
      1.29828732e-02 2.89759506e-03 -1.37886861e-02 3.78679186e-02
      -1.67780183e-02 -1.51243471e-02 4.91470564e-03 1.24763595e-02
      1.19881295e-02 -2.62022186e-02 3.84522900e-02 -1.72988940e-02
      -1.58866327e-02 1.67022292e-02 1.30955344e-02 -9.27015394e-03
      -1.79737050e-03 -5.33115640e-02 1.48640331e-02 -1.94869302e-02
      9.89625696e-03 2.80234478e-02 -6.34994172e-03 1.24773113e-02
      -2.52770316e-02 7.60531146e-03 3.10917813e-02 -3.17676738e-02
      -6.69687800e-03 4.42268215e-02 -1.27291409e-02 -1.77846029e-02
      -4.80516674e-03 1.64395606e-03 -7.13107176e-03 -2.35527754e-02
      -5.31186983e-02 -1.10869277e-02 9.27895028e-03 3.50787006e-02
      1.27747590e-02 -1.28834099e-02 3.71991517e-03 -2.24702153e-03
      -1.46005936e-02 1.08794412e-02 2.32565086e-02 1.98181309e-02
      -4.85520018e-03 -1.42525490e-02 7.20810238e-03 -9.70757566e-03
      3.63355177e-03 1.62809510e-02 -1.59695968e-02 1.13160256e-02
      -1.25801917e-02 1.28742605e-02 -1.18057579e-02 2.52419896e-02</_>
    <_>
      1.23530980e-02 -9.89338234e-02 -6.41788393e-02 1.09583430e-01
      2.10496932e-02 1.33379892e-01 7.81663787e-03 -5.14353439e-02
      8.95603281e-03 9.35635716e-02 -6.60180906e-03 -5.43682016e-02
      -4.36937623e-02 -4.95726503e-02 1.20246531e-02 -4.65707993e-03
      -2.51068752e-02 -5.41556664e-02 3.29022072e-02 3.15252133e-02
      -7.79917315e-02 -2.98150238e-02 1.34066306e-02 1.76007077e-02
      -7.89897516e-03 -2.81136353e-02 -7.08457157e-02 -1.43535687e-02
      -2.46659033e-02 6.56647654e-03 -1.62878521e-02 1.01856440e-02
      -5.37987333e-03 -3.27353925e-02 -3.48840728e-02 1.93047486e-02
      1.27498671e-01 4.51880097e-02 2.28513461e-02 -2.97626108e-03
      -7.83809721e-02 3.56463268e-02 2.69048810e-02 1.77456010e-02
      3.84992212e-02 4.01034206e-02 -4.34577540e-02 1.29452407e-01
      -2.87013873e-02 -1.18153140e-01 7.79116452e-02 -9.93848778e-03
      -6.62079975e-02 -5.72968386e-02 -2.56372448e-02 5.73245063e-02
      -2.11415961e-02 1.10939564e-02 -5.35741448e-02 -3.91370580e-02
      5.73800271e-03 8.24551433e-02 -6.46830201e-02 6.44864514e-02
      -2.20622331e-01 4.36403416e-02 -3.91137451e-02 1.21022746e-01
      4.76916432e-02 4.75152917e-02 8.40485692e-02 -2.14684252e-02
      2.46374048e-02 -6.54003248e-02 3.44469212e-02 1.70144271e-02
      1.08149007e-01 -2.89046392e-02 -1.11577557e-02 2.47557685e-02
      -3.31232528e-04 -6.07970282e-02 3.02886870e-02 -6.50092610e-04
      -3.50419134e-02 -3.99411656e-02 1.32723236e-02 9.53671895e-03
      -5.26684746e-02 5.15347049e-02 4.04674420e-03 -4.79925461e-02
      5.46611100e-02 -4.57572527e-02 -3.12306192e-02 -9.41478647e-03
      1.00397840e-02 1.84341576e-02 -3.79315875e-02 9.55310985e-02</_>
    <_>
      4.79579763e-03 1.85655672e-02 -8.09770194e-04 3.00038178e-02
      2.77404524e-02 5.66406548e-02 4.36135717e-02 -5.50045050e-04
      -7.27835856e-03 6.50603045e-03 7.41713122e-03 -5.49311051e-03
      4.61484957e-03 -1.70133412e-02 3.79431178e-03 -5.17010165e-04
      -1.51895918e-02 -5.37114264e-03 -1.81366354e-02 -6.64889300e-03
      -5.15700085e-04 -1.14981888e-03 2.60995626e-02 -2.35254094e-02
      -2.30601639e-03 -6.33840589e-03 -1.78357083e-02 -8.59619584e-03
      -2.10380964e-02 -3.21434177e-02 -2.03074869e-02 -2.15932373e-02
      -1.90670807e-02 -4.42346931e-02 -1.83074363e-02 1.87836681e-02
      2.84053273e-02 -3.24753299e-03 -1.22558530e-02 -2.88662743e-02
      -1.11087896e-02 -2.46493910e-02 2.08379608e-03 -6.05235528e-03
      -1.16608394e-02 -1.11394590e-02 2.12566331e-02 -1.79356243e-02
      -1.11509226e-02 1.27565404e-02 1.48390960e-02 1.12053612e-02
      8.61252565e-03 -9.57464613e-03 -3.77360173e-02 3.44759226e-02
      8.01936910e-03 -8.71639606e-03 -1.10402908e-02 -3.12268035e-03
      -8.31571314e-03 3.84070575e-02 -1.08527746e-02 -2.99996529e-02
      1.76562481e-02 3.01476996e-02 -1.19683724e-02 6.31119162e-02
      7.54721509e-03 2.79001556e-02 -5.94645040e-03 -5.88345341e-03
      -1.02720372e-02 -2.07033791e-02 4.54250444e-03 -6.98151672e-03
      1.32714016e-02 -1.19166709e-02 -1.52400939e-03 5.28608635e-03
      5.31698065e-03 -5.71768284e-02 3.96786034e-02 1.08361458e-02
      6.16089674e-03 -1.93172432e-02 1.21519128e-02 -7.85330217e-03
      -1.03031285e-02 3.16471867e-02 2.05817469e-03 -1.60437543e-02
      9.06134248e-02 -9.06477869e-03 8.86077643e-04 -1.73954095e-03
      -2.96029374e-02 1.79821756e-02 -9.85578634e-03 -7.88682234e-03</_>
    <_>
      -3.05900536e-02 1.45594990e-02 -1.81194134e-02 2.90353056e-02
      2.97907945e-02 3.90064530e-02 4.55334857e-02 -2.44558379e-02
      -7.24776136e-03 1.91125590e-02 -3.14976438e-03 -2.56308131e-02
      -6.85084146e-04 -3.60373035e-02 -7.09366053e-03 6.82281703e-03
      2.62950510e-02 -7.78271910e-03 -2.01057047e-02 1.99922211e-02
      -9.91581194e-03 -1.79595668e-02 2.69386452e-02 -1.11801960e-02
      2.83850147e-03 -3.11197378e-02 -2.98717711e-02 -3.41743394e-03
      8.89172126e-03 9.71844047e-03 -1.53392786e-02 4.28019883e-03
      -3.94960977e-02 -3.11553385e-02 -3.02637052e-02 6.86257263e-05
      4.62317616e-02 4.53246385e-03 -5.62110124e-03 -2.68325750e-02
      -3.21798809e-02 -3.15852021e-03 -2.44027153e-02 -2.35720705e-02
      -5.97172603e-03 -1.15320878e-03 -5.34575293e-03 3.46552283e-02
      1.65692177e-02 9.36048944e-03 1.21253785e-02 -1.80785661e-04
      3.56141967e-03 -2.83821747e-02 -1.78225730e-02 5.33918329e-02
      1.60457790e-02 -1.65726487e-02 -1.72475390e-02 -1.05558094e-02
      1.84122939e-02 2.62835752e-02 -1.27414493e-02 1.01495115e-02
      1.00994250e-02 4.81886603e-02 -1.96299590e-02 3.36121395e-02
      -1.24075152e-02 3.96861620e-02 4.32149395e-02 -1.17508834e-02
      1.41617861e-02 3.20802396e-03 -8.46225396e-03 -2.12572608e-02
      1.33989444e-02 3.98555392e-04 1.30234836e-02 -1.60452053e-02
      -1.15176744e-03 -5.05868569e-02 4.97588105e-02 -1.68867095e-03
      3.69728939e-03 -1.17456485e-02 -2.90296916e-02 6.12712000e-03
      -3.72573882e-02 1.85453538e-02 5.62030710e-02 -4.23146151e-02
      7.14051649e-02 -1.14581371e-02 -9.18946974e-03 -3.59044373e-02
      -1.87807176e-02 2.33568773e-02 -3.33040543e-02 2.20331345e-02</_>
    <_>
      -1.65618788e-02 -1.30229257e-03 -2.80272681e-02 6.01460040e-02
      -4.27139224e-04 8.30945000e-02 3.97268832e-02 -3.32298465e-02
      2.32006405e-02 2.94980612e-02 -1.38639305e-02 -1.40034105e-03
      8.09228327e-03 -3.54119167e-02 -1.09469201e-02 1.61390156e-02
      7.39297783e-03 -2.27959026e-02 6.31802576e-03 3.96454670e-02
      -2.19935342e-03 -7.54138157e-02 2.40003914e-02 -1.80945713e-02
      -3.69945308e-03 1.11369118e-02 -5.81247322e-02 -1.77515652e-02
      -5.68414945e-03 -1.97772821e-03 -1.82281472e-02 4.66902507e-03
      -2.12871432e-02 -2.46838778e-02 -8.35837424e-03 -8.85644462e-03
      8.78082141e-02 3.44136613e-03 -2.86262110e-02 -4.98614460e-02
      -5.02725989e-02 8.78877472e-03 -4.20760140e-02 -6.60565272e-02
      4.34294576e-03 1.22407302e-02 -8.52216501e-03 4.84515801e-02
      -2.16494016e-02 1.05740689e-02 3.67213115e-02 -1.36357350e-02
      4.41092387e-04 -4.81435880e-02 -2.31938884e-02 9.61064845e-02
      1.96318310e-02 -4.76562604e-02 -1.05956011e-02 -3.95188145e-02
      -1.00997351e-02 2.63709016e-02 -2.03834474e-02 1.15800491e-02
      -2.23450456e-02 5.51415235e-02 -3.88349779e-02 3.47632058e-02
      -6.95106806e-04 2.28408650e-02 6.38200268e-02 -1.82868987e-02
      4.02753067e-04 -3.68163525e-03 1.40329972e-02 -9.08964023e-04
      2.89215613e-02 1.99798569e-02 8.86865612e-03 -2.98120324e-02
      -2.03192867e-02 -5.23841418e-02 9.38566774e-02 1.81361474e-03
      2.02520806e-02 -3.18141282e-02 -2.44503561e-02 1.22585176e-02
      -3.02212276e-02 2.01043617e-02 4.31628563e-02 -7.67563209e-02
      7.63785616e-02 -1.97262689e-02 1.58449952e-02 -1.78289618e-02
      3.29555161e-02 1.23368977e-02 -6.02464415e-02 5.96350282e-02</_>
    <_>
      -8.77511725e-02 1.43198539e-02 -6.45489991e-02 8.68940875e-02
      1.82111785e-02 7.75302425e-02 4.31233980e-02 -3.73041667e-02
      3.65007445e-02 5.53938076e-02 -1.43264085e-02 -2.80842222e-02
      4.24595084e-03 -5.30271567e-02 -5.10931835e-02 -5.03969798e-03
      -3.15967971e-03 4.70761955e-03 1.63719412e-02 6.59513772e-02
      -3.16856094e-02 -6.18642718e-02 3.56786475e-02 1.23773823e-02
      -2.58451737e-02 -2.67722514e-02 -6.36854842e-02 -3.44138891e-02
      1.50080665e-03 3.15418541e-02 -2.52382811e-02 1.42144673e-02
      -4.89210673e-02 -3.92994918e-02 -4.17335294e-02 4.29050587e-02
      9.71220657e-02 5.97563712e-03 -1.28371352e-02 -6.01860993e-02
      -7.25629255e-02 1.33627709e-02 -3.90510634e-02 -1.14359945e-01
      1.48205496e-02 1.16249349e-03 9.65556304e-04 6.84856102e-02
      -1.16350204e-02 2.53200736e-02 3.35440226e-02 -9.12646763e-03
      1.35840066e-02 -4.70224805e-02 -1.74479205e-02 1.19050525e-01
      2.19572242e-02 7.76701234e-03 -1.86040960e-02 -2.12409198e-02
      -1.36469090e-02 5.03115728e-02 -4.89117466e-02 2.22294126e-02
      2.76980624e-02 5.11633307e-02 -6.18893169e-02 9.36972052e-02
      4.77588512e-02 3.14828306e-02 7.94948339e-02 -8.47812090e-03
      8.49123608e-05 -9.05061793e-03 5.13278833e-03 -4.44211205e-03
      4.90669534e-02 1.28017934e-02 -2.02637967e-02 -7.05740005e-02
      1.04980376e-02 -6.43963069e-02 6.25426620e-02 1.44470641e-02
      2.56264601e-02 -4.07869183e-02 -9.19685140e-02 8.22344050e-03
      -4.32851613e-02 4.55802530e-02 2.84534469e-02 -9.58814248e-02
      7.82190934e-02 -4.66764253e-03 -1.76086917e-03 -4.34227772e-02
      9.97733325e-03 1.89623684e-02 -4.70580310e-02 8.03135410e-02</_>
    <_>
      -9.36482325e-02 1.80582348e-02 -4.83009964e-02 8.56964663e-02
      4.80988026e-02 7.67738074e-02 7.75473416e-02 -3.32472324e-02
      5.03201317e-03 8.95560458e-02 -2.68767169e-03 -2.99937651e-02
      -4.69424762e-03 -4.19208929e-02 -5.40626496e-02 -4.95547894e-03
      2.43782476e-02 -4.50509191e-02 -8.85308441e-03 4.86413017e-02
      -3.87256071e-02 -3.44574414e-02 1.50083052e-02 -2.27254559e-03
      -2.42663939e-02 -5.41203693e-02 -6.30848631e-02 -3.18397358e-02
      1.04984548e-03 -2.48655509e-02 -1.09108922e-03 1.43819433e-02
      -4.98185083e-02 -4.09639813e-02 -3.20251957e-02 2.17590667e-02
      1.04014292e-01 1.62514914e-02 1.62422601e-02 -5.01148552e-02
      -7.23604560e-02 1.40396971e-02 -8.14227853e-03 -8.42412114e-02
      1.05208224e-02 1.71723339e-04 -1.99762695e-02 8.46200809e-02
      -2.53127124e-02 3.02939266e-02 3.57199311e-02 -5.53083280e-03
      -2.88771512e-03 -3.29819545e-02 -2.52242945e-02 1.21210955e-01
      3.35849752e-03 4.79570813e-02 -4.04435731e-02 -6.19432665e-02
      4.79954062e-04 4.47429121e-02 -5.67766465e-02 4.06012647e-02
      1.42163865e-03 7.31806085e-02 -5.03583774e-02 5.20906448e-02
      2.32151933e-02 1.23079363e-02 7.82525390e-02 -2.19409540e-02
      6.62771286e-03 1.21337781e-02 9.49458033e-03 -2.09943354e-02
      6.48426414e-02 4.82755568e-04 4.35377145e-03 -8.32134709e-02
      -8.15620087e-03 -4.05367427e-02 7.56643042e-02 3.02288216e-02
      2.86064148e-02 -2.85597164e-02 -7.82488734e-02 3.33292922e-03
      -6.66694492e-02 5.69094308e-02 4.75782789e-02 -8.99815261e-02
      5.73366545e-02 -7.70194456e-03 3.67682870e-03 -4.77968119e-02
      2.73204205e-04 4.09668982e-02 -5.15199564e-02 6.73770234e-02</_>
    <_>
      5.77082904e-03 3.31300404e-03 -1.28864367e-02 1.93659533e-02
      -4.56087990e-03 2.48677433e-02 2.07590386e-02 -1.91886127e-02
      -3.41138951e-02 9.87105072e-03 -3.21232248e-03 5.19552967e-03
      -1.12534883e-02 7.66266312e-04 1.39754429e-03 -1.18074929e-02
      6.56351307e-03 2.55298167e-02 -1.24899400e-02 -1.87258385e-02
      -2.87059192e-02 -6.29988452e-03 9.09056980e-03 1.33544086e-02
      9.33061063e-04 -3.19641940e-02 -1.58731155e-02 2.32901803e-04
      -1.90392230e-02 1.04835518e-02 -9.09146667e-03 -4.55747731e-03
      -8.97897687e-03 -1.16329603e-02 -1.81154478e-02 3.26190963e-02
      4.45228033e-02 -1.53227651e-03 -4.56784572e-03 -2.85011134e-03
      -1.81891564e-02 -9.02928784e-03 2.42381764e-04 9.40654334e-03
      -7.84884021e-03 1.03012845e-03 9.96424071e-03 2.12768447e-02
      -3.56609304e-03 6.30052667e-03 9.44825821e-03 -2.62064696e-03
      -2.82508992e-02 -2.15279926e-02 2.74440506e-03 3.69501710e-02
      -1.11798104e-02 -2.19950848e-03 -2.78788712e-02 1.08844573e-02
      1.45412078e-02 1.51008209e-02 -2.10235044e-02 6.51965663e-03
      7.06238346e-03 2.96666045e-02 3.97437159e-03 2.35881004e-02
      -1.05915149e-03 2.28190087e-02 -7.55613437e-03 -1.84184462e-02
      -2.47960817e-02 -1.42400302e-02 1.99283771e-02 -1.12488754e-02
      1.25994254e-02 1.26660410e-02 -7.59959919e-03 8.59185308e-03
      7.31826108e-03 -3.30164731e-02 3.86614241e-02 6.69072440e-04
      -3.67111119e-04 -1.36446981e-02 1.61450244e-02 -3.12690996e-03
      -1.73198171e-02 -9.13288072e-03 2.37557366e-02 -1.71886776e-02
      5.72539791e-02 -2.11084522e-02 -2.21757162e-02 -6.50452217e-04
      -1.26932943e-02 -7.56371720e-03 -1.70859264e-03 2.56315600e-02</_>
    <_>
      -6.80360124e-02 2.90727597e-02 -5.30328974e-02 1.09364271e-01
      1.39551582e-02 8.60296041e-02 3.75887640e-02 -4.89726588e-02
      7.83768855e-03 6.04501851e-02 -2.65398249e-02 6.72590081e-03
      4.76881210e-03 -2.06674077e-02 -3.26961465e-02 2.55829114e-02
      -2.83657899e-03 1.73102284e-03 -5.28045185e-03 4.66868207e-02
      -2.02136952e-02 -6.02474548e-02 8.24610051e-03 1.48996133e-02
      -2.98871864e-02 -2.76456624e-02 -5.97920045e-02 -5.24144918e-02
      -4.08227928e-03 -6.79102447e-03 -1.50451232e-02 -1.92059521e-02
      -4.25095819e-02 -4.08094488e-02 -9.54469573e-03 2.62086559e-02
      1.13171637e-01 1.58181693e-02 -2.71782838e-03 -4.82627898e-02
      -6.40754402e-02 -2.66684312e-02 -4.36521843e-02 -1.25160754e-01
      2.39026779e-03 -1.08262198e-02 -3.31862876e-03 8.06232914e-02
      -5.20292111e-02 3.46806906e-02 4.49184850e-02 -2.16362830e-02
      2.36930922e-02 -3.79411615e-02 -2.94999611e-02 1.35931805e-01
      3.22850384e-02 4.00808379e-02 -1.82511844e-03 -1.71608031e-02
      -3.97830158e-02 4.45340462e-02 -3.27271335e-02 7.64888385e-03
      4.45686020e-02 7.41577670e-02 -4.89942543e-02 8.01389515e-02
      2.51029991e-02 6.55508973e-03 7.30122775e-02 -1.11609856e-02
      6.04382344e-03 2.47468278e-02 1.28702987e-02 -1.77200120e-02
      3.18237506e-02 8.35016090e-03 -1.89189166e-02 -8.26502070e-02
      2.48591788e-02 -7.65160322e-02 7.21691474e-02 2.84265354e-02
      3.01554962e-03 -2.46591829e-02 -6.73793703e-02 -3.74889448e-02
      -5.95608875e-02 3.55820991e-02 5.34992591e-02 -8.56560543e-02
      8.15801248e-02 -5.57836406e-02 1.32478643e-02 -3.27723846e-02
      1.82290152e-02 4.00283076e-02 -5.53737655e-02 6.52380809e-02</_>
    <_>
      1.03234099e-02 -1.43918989e-03 5.11937402e-03 2.08445662e-03
      -7.32646929e-03 9.11630131e-03 5.41191129e-03 -6.09355513e-03
      2.21537962e-03 1.25075988e-02 4.22678562e-03 -5.24612330e-03
      4.06929245e-03 -1.13844844e-02 1.17157744e-02 -6.03724085e-03
      -4.78108972e-03 -3.35228676e-03 -3.61642288e-03 -1.27217798e-02
      -1.70814656e-02 -1.02402056e-02 -1.16491104e-02 -1.01076444e-06
      -7.56095396e-03 -6.28867373e-03 -7.96536170e-03 -9.88328084e-03
      -2.15374213e-03 9.54891928e-03 -1.85865760e-02 1.32543244e-03
      3.70865292e-03 -5.74447634e-03 -6.78473245e-03 1.80232227e-02
      1.48800584e-02 -1.12835970e-02 -8.88960622e-03 -9.37459338e-03
      -6.12703012e-03 5.37755014e-03 -1.39756789e-02 4.95877396e-03
      9.43246949e-03 1.26366103e-02 7.80846085e-03 9.96629056e-03
      -9.37603973e-03 9.06962063e-03 -2.77217804e-03 1.06214285e-02
      -1.02028307e-02 -3.85275180e-03 6.71491632e-03 2.61441879e-02
      5.93652250e-04 7.14538246e-03 -4.14651865e-03 -3.84803908e-03
      1.10171502e-02 1.97219141e-02 -3.35985348e-02 4.34276182e-03
      -2.63682613e-03 1.01321721e-02 -4.52701421e-03 1.42575707e-02
      -3.36627499e-03 1.24153364e-02 -7.65352603e-03 -4.24391963e-03
      -9.57077369e-03 1.37390557e-03 -1.84194581e-03 -1.74714196e-02
      1.68502983e-03 2.90815881e-03 1.11194886e-02 -3.49417818e-03
      6.36689598e-03 -3.08331121e-02 3.79710980e-02 8.08094442e-03
      -1.39268255e-03 -1.54594816e-02 2.09352933e-02 6.10620249e-03
      -6.31286716e-03 -1.31732300e-02 -1.08546074e-02 -1.20627135e-02
      5.37577681e-02 -4.53842897e-03 -3.59541923e-03 -1.47541880e-03
      -1.39436964e-02 3.19199613e-03 -5.01220755e-04 2.20477814e-03</_>
    <_>
      -2.68395450e-02 -5.88308871e-02 -7.57898986e-02 5.82737774e-02
      -7.61721795e-03 9.87176001e-02 2.76123937e-02 -1.75715890e-02
      2.07015555e-02 5.70281036e-02 9.78048891e-03 -2.94695906e-02
      8.01666174e-03 -3.58189233e-02 -1.38618806e-02 1.08528032e-03
      3.25684547e-02 -3.10019236e-02 3.07835266e-02 6.57430738e-02
      -1.83852892e-02 -5.15521616e-02 2.19501257e-02 -1.18379258e-02
      -2.59226561e-02 7.91402534e-04 -7.09606558e-02 -2.03982852e-02
      1.31529430e-03 -1.97679992e-03 -3.46117802e-02 3.04638278e-02
      -1.49086248e-02 -3.92393880e-02 -4.03634943e-02 2.18542404e-02
      5.12304716e-02 7.28582218e-02 -2.37531047e-02 -2.97069121e-02
      -9.63268355e-02 3.04312780e-02 -3.07089351e-02 -2.74629667e-02
      1.04978904e-02 3.90550345e-02 3.08656855e-03 1.02579385e-01
      -1.39199188e-02 -5.13785072e-02 2.90419403e-02 -3.76002751e-02
      -3.56369577e-02 -7.98848197e-02 -2.47767307e-02 1.13797225e-01
      1.08728837e-02 -7.12425411e-02 -1.13465125e-02 -5.39348014e-02
      -1.21289846e-02 7.44945854e-02 -6.15344159e-02 4.54996787e-02
      -1.13666341e-01 5.16361892e-02 -6.46279156e-02 6.54581934e-02
      1.74469443e-03 7.11785704e-02 8.11829269e-02 -2.88732946e-02
      1.70735475e-02 -9.19296639e-04 1.26515254e-02 1.11691095e-02
      9.32237729e-02 6.55796705e-03 -4.02759481e-03 8.76705162e-03
      4.52045770e-03 -6.60198256e-02 8.42517912e-02 3.10491305e-02
      3.99551131e-02 -4.83031347e-02 -3.27614471e-02 5.51576447e-03
      -4.17098440e-02 4.33819629e-02 3.96499522e-02 -9.19195563e-02
      5.83684891e-02 -2.73680519e-02 8.43189657e-04 -2.35461835e-02
      3.56459655e-02 7.61071360e-03 -6.92284405e-02 5.97056635e-02</_>
    <_>
      -1.45321041e-02 9.64639895e-03 -4.14367989e-02 7.37162381e-02
      -7.67891388e-03 7.33259842e-02 3.63191776e-02 -4.23986353e-02
      -1.92298293e-02 2.89678127e-02 -2.14162059e-02 -1.91822499e-02
      -4.17359360e-03 -2.64828485e-02 1.02286506e-03 -3.18926061e-04
      -2.25531980e-02 -4.46766026e-05 -6.25253329e-03 3.22923511e-02
      -2.61880532e-02 -3.10504790e-02 2.35290788e-02 -6.68204725e-02
      -6.36881404e-03 -3.18574756e-02 -6.81069940e-02 -1.34050641e-02
      -2.50236262e-02 -7.98952393e-03 -1.11058112e-02 1.71010327e-02
      -5.21160178e-02 -5.60039468e-02 -3.89622971e-02 3.55556831e-02
      8.58525410e-02 9.45565850e-03 -1.93694085e-02 -2.55291816e-02
      -4.86878417e-02 -1.40414266e-02 -4.90463525e-03 -9.01203975e-03
      1.37745440e-02 7.87115470e-03 -1.65230092e-02 8.22045580e-02
      -4.00599129e-02 -3.03863510e-02 3.42258550e-02 -2.51717109e-04
      2.17491575e-03 -5.82114682e-02 -2.54972186e-02 9.79494378e-02
      -1.89839420e-03 -3.93122770e-02 -5.63383177e-02 9.15928569e-04
      1.55297825e-02 4.77709025e-02 -2.14553252e-02 -1.18559562e-02
      -3.28157917e-02 6.96000457e-02 -3.62420492e-02 9.79758874e-02
      4.15758006e-02 6.59949034e-02 4.69525531e-02 -1.75293591e-02
      1.84184741e-02 -4.84272884e-03 3.09437159e-02 -4.66827210e-03
      9.54892859e-02 1.06183346e-02 4.75740031e-04 8.82236287e-03
      -2.27338611e-03 -4.96065989e-02 5.46725467e-02 1.90148577e-02
      2.60616117e-03 -2.70191096e-02 -2.75382157e-02 -4.12322534e-03
      -4.78648096e-02 4.83043641e-02 5.24892658e-02 -5.05624972e-02
      8.06517899e-02 -2.61214469e-02 -1.66051486e-03 -3.15062329e-02
      -5.28385304e-02 4.05335762e-02 -4.11034189e-02 2.80081704e-02</_>
    <_>
      -2.17052232e-02 1.52085954e-02 -2.63623521e-02 7.57166967e-02
      3.00863124e-02 3.30787860e-02 7.25324452e-02 -3.57584842e-02
      -2.19892487e-02 5.50096035e-02 1.78866033e-02 -3.71387489e-02
      3.37426527e-03 -2.38680523e-02 -1.72805730e-02 6.65896246e-03
      3.57216038e-03 -8.64763744e-03 -2.81966105e-02 4.41646092e-02
      -1.56185562e-02 -4.59647514e-02 2.36309990e-02 -2.81302705e-02
      -2.15669069e-03 -3.76641229e-02 -8.38676170e-02 1.51300489e-03
      -6.78724190e-03 1.87286697e-02 -4.77262493e-03 1.54031347e-02
      -6.20860532e-02 -1.39885927e-02 -1.93363391e-02 2.07594093e-02
      9.43126082e-02 -2.50326265e-02 5.89974318e-03 -5.31144328e-02
      -4.28508595e-02 -1.21122031e-02 -5.39192371e-02 -4.94201891e-02
      -1.93083733e-02 1.16577521e-02 -2.99183726e-02 9.34085026e-02
      -2.81774774e-02 1.47751421e-02 4.99037951e-02 -3.08193173e-03
      -8.90326127e-03 -1.49856983e-02 -3.15284692e-02 8.67871046e-02
      -7.15770852e-03 5.04438654e-02 -4.49593440e-02 -8.86807777e-03
      2.05325559e-02 7.66664892e-02 -2.71186233e-02 1.34535152e-02
      4.36641276e-02 3.37361731e-02 -2.49262098e-02 5.49923033e-02
      9.01895110e-03 3.52292471e-02 5.58412224e-02 -6.77388674e-03
      -2.66497936e-02 2.07891613e-02 4.30951361e-03 -2.46387459e-02
      4.15854156e-02 -2.67279008e-03 2.03390885e-03 -5.53927459e-02
      1.38220862e-02 -3.70045677e-02 5.32483794e-02 1.23453988e-02
      2.04420704e-02 -1.25697013e-02 -4.49864380e-02 2.10657232e-02
      -6.31152987e-02 2.54725143e-02 3.72734256e-02 -7.11056143e-02
      9.61157605e-02 -2.20662374e-02 1.21866574e-03 -5.09550571e-02
      -3.17887776e-02 1.27702653e-02 -8.47863853e-02 1.10693015e-02</_>
    <_>
      -2.78619714e-02 1.81256086e-02 -1.11456029e-02 3.44497524e-02
      2.01308914e-02 1.87500250e-02 1.75881516e-02 -9.93581302e-03
      4.68244404e-03 1.57081950e-02 1.77868828e-02 -9.73279588e-03
      4.94072633e-03 -2.01931223e-02 -1.85109861e-02 -1.94418803e-02
      2.53983564e-03 -2.12980201e-03 -2.08057873e-02 1.69809572e-02
      -7.77507201e-03 -2.04454549e-02 3.99964629e-03 -2.71778461e-03
      -3.44022934e-04 -2.72012912e-02 -2.36673728e-02 -1.40287094e-02
      -4.11026180e-03 7.81850703e-03 -6.72713993e-03 -2.25206669e-02
      -6.67846622e-03 -1.97848063e-02 1.44696899e-03 1.66991502e-02
      1.92667097e-02 6.44300308e-04 6.26199180e-03 -1.07619874e-02
      -2.35886220e-02 1.12767108e-02 -3.18079107e-02 -2.40018200e-02
      -3.31901899e-03 7.13488553e-03 1.04417105e-03 9.59630869e-03
      6.89702807e-03 1.68400351e-02 2.90765017e-02 3.85168125e-03
      -4.28339140e-03 -1.58012286e-02 -4.63749329e-03 5.94372787e-02
      -3.40495189e-03 -3.98977064e-02 -5.24065411e-03 -1.97253618e-02
      -9.35819652e-03 2.44181100e-02 -1.10978829e-02 2.13067848e-02
      -2.22984087e-02 4.15152162e-02 5.08687517e-04 1.59949083e-02
      2.77352723e-04 4.19855826e-02 2.13596225e-02 -4.71441634e-02
      6.13268605e-03 -3.33621469e-03 -7.47815100e-03 -5.81251923e-03
      1.27383806e-02 -5.71198436e-03 -1.23130148e-02 -2.15223450e-02
      1.17146445e-03 -3.55978832e-02 4.71083857e-02 1.77375451e-02
      9.99948476e-03 -4.65379190e-03 -2.85300985e-02 -2.28798413e-03
      -4.00059372e-02 8.78816564e-03 2.73183864e-02 -2.46099737e-02
      6.44712150e-02 4.45869844e-03 7.71270460e-03 -6.49040681e-04
      1.20725576e-03 9.13118292e-03 -1.78070217e-02 2.41264291e-02</_>
    <_>
      1.30099533e-02 1.77274644e-01 8.13079923e-02 -1.58964023e-01
      3.85361575e-02 -6.42635152e-02 6.81807622e-02 3.95190381e-02
      -1.90489106e-02 -2.15987220e-01 -9.90960561e-03 6.13249131e-02
      6.21912330e-02 6.03909530e-02 6.51199138e-03 2.81361826e-02
      8.18482693e-03 5.07036857e-02 -6.12475984e-02 -2.26871092e-02
      1.03434406e-01 3.89244072e-02 -4.57581226e-03 -2.38364208e-02
      1.45311067e-02 2.22700518e-02 5.66918477e-02 1.08041186e-02
      1.79944653e-02 -7.44301453e-02 4.32717055e-02 -8.14354606e-03
      -1.44858882e-02 -2.40436047e-02 1.47092184e-02 3.77619453e-02
      -1.07869752e-01 -1.14729971e-01 -2.61023454e-02 -8.25608522e-03
      8.72810557e-02 -1.32682741e-01 -8.25999072e-04 -1.23789907e-02
      -8.79045501e-02 -3.87234613e-02 7.36897662e-02 -2.80863702e-01
      2.51395479e-02 1.79123476e-01 -6.51210546e-02 4.52095941e-02
      1.13914661e-01 7.94060156e-02 -2.73423754e-02 4.87237014e-02
      9.10404325e-02 3.45278974e-03 2.13457868e-02 5.62883168e-02
      6.55498356e-03 -5.23945987e-02 7.60838613e-02 -2.14129269e-01
      3.17291051e-01 -7.71246552e-02 4.45574485e-02 -3.63406651e-02
      8.04759189e-03 -3.88345420e-02 -2.36470193e-01 1.62837636e-02
      -9.09370556e-02 4.14076671e-02 -1.15274951e-01 -4.22800407e-02
      -1.29977807e-01 4.48564067e-02 1.33385304e-02 -2.54770201e-02
      1.05204741e-02 -1.30046466e-02 1.30950743e-02 5.21782376e-02
      6.82356656e-02 5.87146133e-02 2.63401167e-03 -3.72962169e-02
      3.34126092e-02 3.28415073e-02 -6.50535002e-02 3.39350328e-02
      1.06298730e-01 2.77034380e-02 7.05234408e-02 1.87756903e-02
      -7.21558034e-02 1.63741205e-02 2.96787471e-02 -1.72448128e-01</_>
    <_>
      -3.66272815e-02 5.68346493e-02 5.68767032e-03 -3.61456163e-02
      1.38329668e-02 -3.61549258e-02 1.83198862e-02 5.03232256e-02
      -1.51204737e-02 -3.77675183e-02 8.03172309e-03 1.99000333e-02
      1.02953324e-02 8.43690615e-03 -2.26555709e-02 9.10410937e-03
      2.01074351e-02 -7.15859840e-03 -1.65233500e-02 6.37385529e-03
      6.14611432e-02 -1.40900100e-02 2.53923563e-03 -2.49401648e-02
      2.44573527e-03 -3.80970049e-03 1.35370798e-03 1.34182244e-03
      1.17887501e-02 1.95388924e-02 6.96022483e-03 6.73573511e-03
      -2.73785368e-02 -3.93981929e-04 3.47688864e-03 3.73482890e-02
      -3.57234888e-02 -2.42965370e-02 -2.00163350e-02 -1.77802984e-02
      1.11230649e-02 -3.07669733e-02 -3.61112282e-02 -2.36214120e-02
      -2.82700416e-02 -1.20940106e-02 2.03681290e-02 -3.34933847e-02
      1.99172515e-02 6.97064847e-02 -6.15248689e-03 7.22334627e-03
      4.21224572e-02 2.41442136e-02 -1.52413454e-02 4.19888571e-02
      3.29449996e-02 -1.36410892e-02 2.10532621e-02 1.20791914e-02
      1.36931753e-02 -2.24799127e-03 2.46408898e-02 -3.88821326e-02
      9.63400453e-02 2.83049862e-03 -1.87490080e-02 -2.48303972e-02
      -2.01406293e-02 -9.12136771e-03 -2.03360431e-02 5.44064399e-03
      -2.65212525e-02 4.16797064e-02 -3.29790786e-02 -2.17597317e-02
      -4.02170941e-02 2.35302560e-02 8.23976751e-03 -3.45825888e-02
      1.22431787e-02 -8.86026584e-03 2.02543614e-03 -7.39910407e-03
      2.61227563e-02 5.93773462e-03 -5.46260364e-02 5.81083447e-03
      8.94350116e-04 -1.51592093e-02 3.31776366e-02 -2.49301661e-02
      2.53588930e-02 2.99899820e-02 1.22970743e-02 -2.03134380e-02
      -1.63174719e-02 1.20055135e-02 -2.08517294e-02 -3.23687829e-02</_>
    <_>
      -2.45129541e-02 2.88755447e-02 2.66571753e-02 -2.62638200e-02
      -7.62505166e-04 -7.70167168e-03 1.74646527e-02 2.31273994e-02
      1.94991957e-02 -1.86116043e-02 -2.38623703e-03 3.62708867e-02
      2.40638889e-02 -5.17174555e-03 -2.03283969e-02 1.89894289e-02
      1.19511364e-02 -9.45837516e-03 -1.39656151e-02 2.47393306e-02
      5.09271510e-02 -5.95490150e-02 4.65899659e-03 -8.40892270e-03
      -6.19585486e-03 3.06913927e-02 2.20163749e-03 -1.59341674e-02
      1.72678716e-02 -2.65030190e-04 1.65369455e-03 -1.09259849e-02
      -4.37732041e-03 8.09514243e-03 3.28002162e-02 2.03770045e-02
      -2.01128460e-02 -8.63053277e-03 -2.27211956e-02 -3.15943621e-02
      2.28130934e-03 -6.24861568e-03 -3.49591374e-02 -5.58221452e-02
      -9.88327339e-03 -2.95842346e-03 3.87342982e-02 -3.66168506e-02
      5.92032960e-03 7.47145936e-02 -1.21519985e-02 2.10843165e-04
      4.22509871e-02 -3.34673352e-03 1.25206485e-02 4.07654196e-02
      2.57638805e-02 -6.47676215e-02 2.11104173e-02 -1.76494606e-02
      -9.18212626e-03 -2.90565584e-02 8.11451674e-03 -2.94183847e-02
      5.25931269e-02 1.05933128e-02 -1.75750982e-02 -2.99062729e-02
      -1.50202289e-02 -4.23498340e-02 -2.08811974e-03 3.92757077e-03
      -1.72883794e-02 5.17316610e-02 -3.83830816e-03 -1.25602745e-02
      -3.06666587e-02 2.60197427e-02 1.15624378e-02 -4.95423675e-02
      -7.53050903e-03 -1.16101950e-02 2.08757315e-02 4.51453729e-03
      2.33528763e-02 1.51250754e-02 -2.88814716e-02 4.32898616e-03
      1.06371632e-02 -5.24525251e-03 1.94971934e-02 -5.47979809e-02
      1.83156077e-02 1.40109127e-02 2.37299483e-02 6.64897356e-03
      1.79676618e-02 8.36509001e-03 -2.46907771e-02 -3.29654031e-02</_>
    <_>
      -1.09164774e-01 1.09815590e-01 4.43208683e-03 -6.82292655e-02
      2.62202770e-02 -3.47202718e-02 2.82671563e-02 3.18553858e-02
      4.49655717e-03 -2.13965997e-02 -1.79015647e-03 3.79485339e-02
      4.36943285e-02 -1.15450146e-03 -6.79708496e-02 9.86396614e-03
      8.03818181e-03 4.88852412e-02 -2.39952393e-02 3.94193940e-02
      6.06710538e-02 -2.83358507e-02 1.24715045e-02 9.78852436e-03
      -2.42861137e-02 -7.56552955e-03 1.72648020e-02 -1.91481225e-02
      3.86622362e-02 1.73945408e-02 -1.23148011e-02 1.30475974e-02
      -2.65515763e-02 -5.96923614e-03 1.86135285e-02 2.83281971e-02
      -2.45574918e-02 -4.76496853e-02 -3.76258530e-02 -3.46878543e-02
      2.86543947e-02 -1.90976262e-02 -5.06357960e-02 -1.28332958e-01
      -3.29456218e-02 -4.25655628e-03 4.99052219e-02 -8.94220695e-02
      8.72590020e-03 1.42842829e-01 -3.62299941e-02 5.23656374e-03
      8.58709142e-02 2.07350068e-02 -5.51658543e-03 7.01469854e-02
      4.42997925e-02 3.75990383e-02 4.13322821e-02 1.29255531e-02
      -9.31505300e-03 -7.34684840e-02 1.76915154e-02 -3.57179008e-02
      2.18312070e-01 8.85240920e-03 -2.19493229e-02 -4.64711487e-02
      1.41413510e-02 -6.99449703e-02 -8.17380194e-03 1.57075282e-02
      -6.59977645e-02 5.26217557e-02 -5.13758585e-02 -2.41282377e-02
      -6.92615733e-02 4.44803461e-02 -2.12223884e-02 -1.11338250e-01
      2.42593661e-02 -2.02378142e-03 3.12138312e-02 1.96143705e-02
      7.52632916e-02 2.29652226e-02 -1.21152267e-01 -1.19401067e-02
      3.78558831e-03 -4.85802162e-03 1.93298012e-02 -4.79045548e-02
      4.07342315e-02 4.24874052e-02 4.38787751e-02 -2.67605931e-02
      7.56663678e-04 1.81543659e-02 -3.31701408e-03 -8.18309411e-02</_>
    <_>
      -9.36596096e-02 5.69409207e-02 -3.86800966e-03 -3.11032496e-02
      2.44812109e-02 1.00697693e-03 2.75122784e-02 3.03230565e-02
      7.18404958e-03 1.23901060e-02 6.02142466e-03 3.35454084e-02
      5.33190742e-03 -7.69363437e-03 -4.64279689e-02 1.35329003e-02
      1.33432960e-02 -2.27058292e-04 -2.38842070e-02 1.96713153e-02
      4.91585545e-02 -7.05229305e-03 1.88505054e-02 -6.67917915e-03
      -1.80681702e-02 -2.12176573e-02 -1.19433214e-03 -8.79964791e-03
      3.33232880e-02 7.26777315e-03 6.74824370e-03 -3.85099254e-03
      -3.25294286e-02 -2.24296823e-02 1.62934996e-02 4.23509330e-02
      -8.14437773e-03 -3.16621065e-02 -1.00343572e-02 -3.60538401e-02
      -9.82238678e-04 -3.75261367e-03 -3.01866923e-02 -1.02422260e-01
      -1.78737640e-02 -1.70772914e-02 2.77432725e-02 -5.46835586e-02
      1.16992891e-02 1.12125821e-01 -6.15406875e-03 -8.78282264e-03
      5.63654713e-02 1.00343609e-02 -6.98902924e-03 5.57871200e-02
      1.39233088e-02 2.28852350e-02 2.13927329e-02 -2.86656264e-02
      1.51864707e-03 -4.87133525e-02 1.07015294e-04 -1.78272184e-02
      1.59866005e-01 8.33787583e-03 -3.22417282e-02 -1.06360614e-02
      7.71440379e-03 -4.83234562e-02 -4.25623730e-03 -5.30527858e-03
      -2.61025131e-02 6.34454638e-02 -2.15632971e-02 -1.21593084e-02
      -6.00089133e-03 3.48920301e-02 -5.00561995e-03 -8.14649984e-02
      1.11544412e-02 5.79699175e-03 1.15514128e-02 1.68242063e-02
      4.44653444e-02 1.54585354e-02 -9.67423692e-02 -4.16790834e-03
      -1.83784664e-02 9.70441941e-03 3.33500318e-02 -5.40273711e-02
      6.34519197e-03 2.51477752e-02 1.09016709e-02 -1.86929516e-02
      1.59295648e-02 2.19821986e-02 -2.50201449e-02 -3.29486094e-02</_>
    <_>
      -6.58603525e-03 2.09206101e-02 1.33049283e-02 -1.19529804e-02
      -2.02191900e-02 -2.85452232e-02 1.12902028e-02 2.55264752e-02
      -8.52034986e-03 -4.12457697e-02 8.87878146e-03 2.95658559e-02
      3.26724746e-03 8.47026054e-03 -1.86884291e-02 8.56557488e-03
      1.94307566e-02 2.21544281e-02 -1.93462614e-02 -3.07683460e-02
      -1.58926792e-04 2.75698234e-03 2.25050782e-04 6.15268294e-03
      -3.69786657e-03 -6.95892610e-03 2.21487805e-02 1.26059176e-02
      2.80278530e-02 5.83674060e-03 -4.86196764e-03 -1.17927808e-02
      8.69163126e-03 -1.01950550e-02 -3.14918696e-03 3.95952277e-02
      3.69437295e-03 -3.60482419e-03 -4.57243295e-03 8.61210190e-03
      1.45569863e-02 -4.75009978e-02 -6.48242561e-03 3.13020777e-03
      -1.80220548e-02 -2.21919846e-02 3.54072675e-02 -9.67217796e-03
      3.41006145e-02 3.03765386e-02 -1.86638366e-02 3.89823923e-03
      -1.00422576e-02 -8.03459901e-03 1.58147775e-02 2.90432964e-02
      -1.38640834e-03 -2.01464929e-02 1.72040090e-02 8.65631271e-03
      1.33745410e-02 -1.84860416e-02 9.94438399e-03 -2.59907935e-02
      6.13196455e-02 -3.15447291e-03 -1.03405189e-04 -3.67296562e-02
      5.62958419e-03 -2.12785508e-02 -4.64575253e-02 1.38058737e-02
      -1.31823653e-02 1.52098248e-02 -8.04053713e-03 -1.11716869e-03
      -3.34747992e-02 1.87796522e-02 -9.32766497e-03 -1.34590868e-04
      2.89185550e-02 -1.20465877e-02 -2.14639846e-02 -5.60161052e-03
      -5.65074477e-03 1.77115537e-02 -1.16219185e-02 1.98565167e-03
      1.08794514e-02 -2.88796388e-02 1.58926118e-02 -1.41415186e-02
      3.93115357e-03 1.60665829e-02 -3.74838780e-03 4.36088294e-06
      -2.15807501e-02 -5.97830862e-03 1.06143691e-02 -7.79741036e-04</_>
    <_>
      -9.95781571e-02 1.32198527e-01 4.43760538e-03 -2.42513381e-02
      2.05469001e-02 -6.14873953e-02 3.11746597e-02 3.51366377e-03
      -3.12201073e-03 -1.68343652e-02 -2.74508633e-02 6.84898049e-02
      4.76938076e-02 2.37986296e-02 -4.32594977e-02 4.19088379e-02
      7.54295196e-03 4.58399989e-02 -3.45477089e-02 2.21515112e-02
      7.03757256e-02 -2.25684810e-02 -2.83942334e-02 7.37557001e-03
      -2.22920328e-02 -1.02946954e-02 1.53205683e-02 -6.25208840e-02
      3.49191427e-02 1.83136016e-02 9.06114839e-03 -4.04866785e-02
      -3.15765068e-02 -2.16844771e-03 3.67731340e-02 5.39299175e-02
      -2.11679712e-02 -2.47091614e-02 -2.47467570e-02 -3.47328186e-02
      1.71327554e-02 -4.30111103e-02 -4.94476855e-02 -1.43171057e-01
      -2.76693590e-02 -5.12602367e-02 4.43187356e-02 -5.50436638e-02
      -3.52920331e-02 1.50471076e-01 -1.97949111e-02 -4.44928370e-03
      9.45046395e-02 3.12006678e-02 -2.66078021e-03 9.17425901e-02
      5.77293560e-02 4.48785499e-02 5.48204519e-02 1.42501304e-02
      -4.16817330e-02 -6.84801191e-02 2.94765607e-02 -3.96360904e-02
      2.28133708e-01 -1.92162779e-03 -6.72431372e-04 -4.96853739e-02
      -7.73678999e-03 -7.62854218e-02 -2.49492656e-03 1.52381528e-02
      -4.06918302e-02 7.36042112e-02 -2.00383458e-02 -3.75006534e-02
      -6.81852028e-02 4.76169288e-02 -3.11456267e-02 -1.22190095e-01
      2.10566428e-02 -6.04742067e-03 8.34115129e-03 2.94272024e-02
      5.90715185e-02 3.24525945e-02 -9.67311412e-02 -5.96077666e-02
      -1.47789204e-02 -2.19297614e-02 4.15948369e-02 -3.74693163e-02
      3.70939784e-02 -2.24648807e-02 6.07970990e-02 -8.94599315e-03
      7.32557941e-03 3.35149914e-02 -1.66348889e-02 -6.02133982e-02</_>
    <_>
      1.37213990e-02 2.68566627e-02 4.22515236e-02 -3.75445820e-02
      -2.27503441e-02 -5.74341863e-02 3.87009094e-03 2.51963902e-02
      -6.96356827e-03 -5.63025288e-02 1.04966126e-02 1.99011341e-02
      7.27833435e-03 2.73958351e-02 2.70566496e-04 6.13039173e-03
      6.49155211e-03 9.19454079e-03 -2.21912730e-02 3.39834369e-04
      5.83555037e-03 1.16647892e-02 -1.05148517e-02 -1.43543479e-03
      -1.19099794e-02 1.26997698e-02 2.65176110e-02 -2.95906793e-03
      9.94318444e-03 7.38464808e-03 -4.67583956e-03 9.70237539e-04
      1.97797967e-03 2.76729781e-02 1.20980507e-02 1.03909560e-02
      -3.49088833e-02 -2.47050803e-02 -2.62862090e-02 8.60663410e-03
      3.24929021e-02 -5.17847016e-03 -2.33968943e-02 -3.96748492e-03
      -1.89208370e-02 -4.17861901e-03 2.31683068e-02 -1.45061174e-02
      -4.24231822e-03 3.20833400e-02 -1.33301476e-02 -5.94984833e-03
      6.02541352e-03 9.75557044e-03 -2.39156093e-03 1.18350331e-02
      2.63775885e-02 -1.08113782e-02 1.63542069e-02 2.11844072e-02
      1.62203219e-02 -4.46406892e-03 6.68884162e-03 -2.47598626e-02
      -3.80907231e-03 2.18774471e-03 3.13463509e-02 -4.44799699e-02
      -9.40235890e-03 2.55591422e-03 -5.81432022e-02 1.40009429e-02
      -1.66288111e-02 1.95548758e-02 -1.82109307e-02 -1.34854252e-02
      -1.46695357e-02 1.05753716e-04 1.78239830e-02 -1.89275462e-02
      5.40683372e-03 -1.32615371e-02 3.95243987e-03 5.30372560e-03
      -4.84606298e-03 1.66436005e-02 -4.76511195e-03 -4.59232088e-03
      9.55431070e-03 -8.93249642e-03 -2.40662624e-03 4.20735683e-03
      3.15978825e-02 3.36545333e-02 -1.12882908e-02 3.31814284e-03
      -1.19047267e-02 1.95394992e-03 1.02490485e-02 -3.43271419e-02</_>
    <_>
      -3.15880924e-02 -5.69024589e-03 1.38037815e-03 -3.10730189e-03
      5.44808665e-03 -1.06002567e-02 -3.60555784e-03 1.70056149e-02
      7.59118609e-03 9.62338038e-03 -1.49939291e-03 8.50534532e-03
      5.65367285e-03 -9.59600136e-03 -1.22405812e-02 1.68544427e-02
      1.57293789e-02 -1.33616850e-02 2.56717298e-03 8.80323816e-03
      1.24730542e-02 -1.55698881e-02 1.13607077e-02 1.03292940e-03
      -1.37779424e-02 -9.67421802e-04 -1.21540027e-02 2.81486986e-03
      9.48583242e-03 5.58813848e-03 -6.55062869e-03 3.49738542e-03
      -1.00007243e-02 -1.11051660e-03 6.91077253e-03 1.40785147e-02
      -3.14983539e-02 3.03319562e-03 -5.48228947e-03 -1.51146157e-02
      -1.74183249e-02 5.45175746e-03 -7.89971650e-03 -2.17059329e-02
      -3.14382743e-03 -4.29414120e-03 1.42924720e-02 -2.75212317e-03
      5.71547961e-03 1.73465367e-02 -7.79748010e-03 -4.92742704e-03
      8.95061344e-03 -9.18729231e-03 6.54236600e-03 2.34226286e-02
      1.32107651e-02 -1.40006263e-02 2.10496951e-02 -2.40929294e-02
      -1.02488855e-02 2.04898929e-03 -1.54510711e-03 2.07576831e-03
      2.48020422e-02 1.19237257e-02 -2.17065290e-02 -1.65658928e-02
      -1.21605564e-02 2.87110405e-03 9.70662944e-03 1.41597283e-03
      -4.07648413e-03 1.98472813e-02 -5.51729137e-03 3.99796013e-03
      -6.87089283e-03 1.56620201e-02 1.15841990e-02 -3.11338645e-03
      -1.27156847e-03 4.73596854e-03 5.22857159e-03 7.29304506e-04
      1.78052820e-02 7.12114293e-03 -2.30236053e-02 3.87734908e-04
      -5.50600607e-03 -2.52207945e-04 1.89254433e-02 -2.50552557e-02
      6.71525719e-04 1.32580372e-02 3.31046805e-03 -3.76528385e-03
      8.52162391e-03 1.51963439e-02 -1.78355537e-02 -7.99695402e-03</_>
    <_>
      -2.32962761e-02 5.26263714e-02 5.92602696e-03 -1.96281914e-02
      -6.91106590e-03 1.09380474e-02 2.08661016e-02 2.38816943e-02
      -1.16700465e-02 -4.18199636e-02 -1.20245647e-02 3.32164466e-02
      1.71922445e-02 1.16623910e-02 -2.61940085e-03 3.91079346e-03
      -1.30980261e-04 9.04067606e-03 -3.38285528e-02 2.23642774e-03
      5.93698844e-02 -3.80100752e-03 1.00769484e-02 -3.75074707e-02
      -8.70618317e-03 5.15884720e-03 6.48620771e-03 6.64462976e-04
      1.38736414e-02 -5.75003633e-03 1.14669586e-02 1.40817063e-02
      -3.23902182e-02 -1.54327257e-02 6.65822439e-03 3.71521413e-02
      -2.93262545e-02 -1.17271552e-02 -1.90856215e-02 -1.39647163e-02
      1.12242242e-02 -5.62421940e-02 -7.57865049e-03 -1.68804303e-02
      -2.76883971e-02 8.37388169e-03 1.63641702e-02 -3.24907117e-02
      1.05405552e-02 3.94473113e-02 -7.53042521e-03 1.28720459e-02
      4.09748517e-02 1.27307614e-02 -1.60325523e-02 5.60719445e-02
      2.22314727e-02 -4.77158092e-02 2.98965070e-03 1.52887627e-02
      9.69110057e-03 -1.16771078e-02 8.50061979e-03 -6.87695518e-02
      9.30470452e-02 -1.09907016e-02 -7.88048841e-03 -1.05969817e-03
      -2.62037735e-03 -9.86100920e-03 -2.70971488e-02 8.99946608e-04
      -1.25158820e-02 4.95689474e-02 -1.03776914e-03 -8.85913521e-03
      3.46032251e-03 2.71511264e-02 1.43845035e-02 -1.95118636e-02
      -3.15059791e-03 -7.64586637e-03 -3.79299908e-03 8.53218324e-03
      1.82535425e-02 2.38454584e-02 -4.04018834e-02 -9.83086228e-03
      -7.79858883e-03 7.87876267e-03 9.22066066e-03 -2.20199097e-02
      1.24612367e-02 3.56223201e-03 1.48726040e-02 -1.43634183e-02
      -3.01440526e-02 1.83113907e-02 -2.49622501e-02 -4.14668769e-02</_>
    <_>
      -4.34123836e-02 1.07004449e-01 1.49435494e-02 -1.79525558e-02
      3.64764705e-02 -4.93974909e-02 1.86953712e-02 2.32490283e-02
      -2.18237005e-02 -7.88289011e-02 3.32911499e-03 2.87292749e-02
      3.36839668e-02 1.34921260e-02 -2.08976790e-02 1.28123071e-02
      -1.23411193e-02 2.68636979e-02 -6.26240820e-02 2.39205100e-02
      6.05574474e-02 -2.79953219e-02 5.27361687e-03 -2.64880992e-02
      8.26540310e-03 -1.01687843e-02 -9.32651851e-03 2.25761998e-02
      1.68925300e-02 2.22291294e-02 1.73689779e-02 8.19771364e-03
      -3.73906195e-02 1.42019531e-02 1.65188462e-02 4.49791215e-02
      -2.42393371e-02 -6.43806756e-02 -6.57689292e-03 -4.41024639e-02
      2.87260972e-02 -5.50130196e-02 -7.55913258e-02 -6.25074506e-02
      -6.39667287e-02 -4.99257632e-03 1.93350762e-02 -3.39978598e-02
      4.33411216e-03 1.20922804e-01 -1.06483297e-02 3.22148320e-03
      5.51200509e-02 4.33764346e-02 -1.37308463e-02 7.32969344e-02
      1.47394845e-02 6.42440543e-02 2.96342513e-03 1.69151016e-02
      1.53876049e-02 6.37701806e-03 3.62332761e-02 -7.66734630e-02
      2.06585020e-01 -6.70783548e-03 3.83654633e-03 -2.05632281e-02
      -1.24534569e-03 -7.50040344e-04 -6.46036267e-02 1.37813231e-02
      -5.89567795e-02 5.59882410e-02 -4.02388722e-02 -5.30506596e-02
      -9.48299989e-02 2.94012204e-02 4.85852500e-03 -5.79155199e-02
      1.96789503e-02 2.25215666e-02 -1.13713124e-03 6.54990878e-03
      6.30289987e-02 3.48549746e-02 -6.18732832e-02 6.22205157e-03
      -2.01430395e-02 -2.42344886e-02 4.05627452e-02 -4.29022312e-02
      5.59781641e-02 2.19196044e-02 3.15077938e-02 -3.58558111e-02
      -2.43083257e-02 -6.93610311e-03 -5.14942519e-02 -7.99146220e-02</_>
    <_>
      -5.17870672e-02 5.28860837e-02 2.46983096e-02 -3.53141092e-02
      3.29973688e-03 -3.10352053e-02 2.98035447e-03 3.41139771e-02
      -3.38693406e-03 -4.03100811e-02 4.42536687e-03 2.34459415e-02
      2.74183080e-02 -3.32685839e-03 -1.85782555e-02 1.18126310e-02
      2.58146059e-02 -1.45174721e-02 -3.52396145e-02 5.21697709e-03
      4.00503725e-02 -4.45466768e-03 -3.87913897e-04 9.63095203e-03
      -6.81126444e-03 8.53723672e-04 2.27966327e-02 6.80241082e-03
      3.13266963e-02 6.56971848e-03 8.88705545e-04 -2.77564265e-02
      -2.77935853e-03 2.24008933e-02 2.42898613e-02 1.93258040e-02
      -4.04985026e-02 1.19377375e-02 -1.00118751e-02 -2.93138232e-02
      1.22679258e-02 -2.39381157e-02 -2.98079811e-02 -4.26759757e-02
      -2.82953717e-02 -2.10822020e-02 2.96775140e-02 -3.65612991e-02
      3.69123295e-02 6.59624934e-02 1.92533701e-03 2.47877720e-03
      3.26865613e-02 1.97477080e-02 3.22135389e-02 3.50925699e-02
      8.79051723e-03 -5.42203337e-02 2.38972083e-02 -8.02569836e-03
      -2.61149742e-03 -1.62260737e-02 2.50820955e-03 -3.59725859e-03
      6.14826046e-02 -5.79777826e-03 -1.50068216e-02 -4.96770963e-02
      -8.16952344e-03 -1.72521435e-02 -5.61494799e-03 -1.56808998e-02
      -2.14655381e-02 4.37239707e-02 -2.36589368e-02 -2.29989346e-02
      -4.15667817e-02 7.12755136e-03 -4.08203283e-04 -4.70044576e-02
      1.85933039e-02 -3.90270306e-03 9.59023554e-03 1.13203190e-03
      2.95830388e-02 3.50873880e-02 -5.39998226e-02 -7.33979139e-03
      3.13126645e-03 -2.24863412e-03 2.13619191e-02 -1.94049086e-02
      1.06174815e-02 3.83138955e-02 6.70223357e-03 2.05298536e-03
      -5.74397761e-03 1.23392623e-02 -1.39213484e-02 -1.45712188e-02</_>
    <_>
      -4.85635586e-02 -1.66351702e-02 -3.68561223e-02 3.49886380e-02
      -8.68519023e-03 1.03826914e-02 -2.16533300e-02 -1.43841011e-04
      -5.38089639e-03 2.01446619e-02 4.20469185e-03 -1.66602470e-02
      -4.68190527e-03 -2.83751227e-02 -2.19064672e-02 -3.27359838e-03
      1.74646731e-02 -1.59650738e-03 -2.52210535e-02 1.58758461e-02
      -1.70659348e-02 -1.08710565e-02 1.18797990e-02 -1.52115589e-02
      7.05206208e-03 -4.43209633e-02 -1.49640683e-02 3.64213856e-03
      4.65015275e-03 6.02013543e-02 -1.05171856e-02 3.41613814e-02
      -2.17952784e-02 1.12025021e-02 -4.62920824e-03 2.07550195e-03
      2.40682587e-02 1.46411015e-02 -1.39163854e-02 -2.55957153e-02
      -1.68322716e-02 2.94945743e-02 -3.77879739e-02 -1.83102842e-02
      2.44376473e-02 4.26750593e-02 -3.38063724e-02 7.13947192e-02
      2.58066561e-02 1.00492942e-03 3.35383788e-02 -2.84699276e-02
      -1.44349067e-02 -2.28259917e-02 3.42075573e-03 3.12704146e-02
      -1.91821977e-02 7.12995464e-03 7.94179272e-03 -9.49179661e-03
      1.91856585e-02 -1.56415403e-02 -7.12006353e-03 6.01944402e-02
      -9.47843958e-03 5.12145013e-02 -1.73965767e-02 1.05569838e-02
      -2.75686402e-02 5.85595006e-03 8.26807469e-02 -2.85358867e-03
      2.42940839e-02 -9.36966483e-03 8.10842961e-03 -2.49661673e-02
      1.64929498e-02 4.71857842e-03 1.57089494e-02 -3.69853787e-02
      7.70572759e-03 3.14825550e-02 9.36285942e-04 -1.75699294e-02
      -1.87353883e-02 -8.00508074e-03 -5.89852519e-02 2.62667723e-02
      -2.22672820e-02 -3.58807184e-02 7.79553056e-02 -2.27247067e-02
      -4.68211994e-02 8.71002953e-03 -1.02367830e-02 -4.31521796e-02
      1.30201140e-02 4.74026240e-03 -3.34912725e-02 6.43332899e-02</_>
    <_>
      -4.64144237e-02 -5.02140820e-02 -4.72147726e-02 5.79171926e-02
      -4.14055102e-02 1.97682530e-02 -4.12749462e-02 -1.59522202e-02
      5.00028767e-02 9.21324790e-02 3.53590166e-03 5.75026125e-03
      -5.06586861e-03 -3.97254713e-02 -3.14218216e-02 -1.50860904e-03
      3.55825666e-03 -1.85610745e-02 2.27282010e-02 5.15877418e-02
      -1.74184199e-02 -9.23555121e-02 -3.99957830e-03 -1.73877869e-02
      -2.48531178e-02 1.77780949e-02 -5.66744544e-02 -6.22443249e-03
      -8.45034607e-03 7.39528909e-02 -2.21438613e-02 2.47032549e-02
      1.72459334e-03 2.76289415e-02 2.69809943e-02 -1.19534377e-02
      3.90279554e-02 3.96354161e-02 -2.75130402e-02 -6.01134337e-02
      -3.72294746e-02 8.24404061e-02 -6.79508150e-02 -9.31206569e-02
      4.71763015e-02 3.90282534e-02 -2.83130575e-02 1.61019310e-01
      -2.61841714e-03 -3.22552100e-02 4.10090461e-02 -4.17058952e-02
      -2.10216343e-02 -5.14183715e-02 5.14638424e-03 2.18002740e-02
      -3.17209549e-02 -6.35689124e-02 1.78712681e-02 -3.63745429e-02
      -1.54627319e-02 -3.37097608e-02 -2.96070967e-02 1.13493115e-01
      -7.28875473e-02 6.88866973e-02 -4.05088402e-02 -3.89450055e-04
      -3.74590307e-02 -2.79257838e-02 1.74322203e-01 -8.77785124e-03
      5.23483530e-02 1.92910749e-02 7.96186253e-02 1.75176859e-02
      2.65030432e-02 1.24831842e-02 1.14562176e-02 -6.75384402e-02
      -2.93274950e-02 -2.78594205e-03 1.78181846e-02 -3.11814006e-02
      1.70254782e-02 -3.08119841e-02 -3.60544994e-02 3.89557816e-02
      -6.09808834e-03 -3.36315297e-02 8.40976536e-02 -8.00796971e-02
      -3.66384983e-02 2.09723716e-03 -4.35851701e-03 -2.10561436e-02
      9.50495750e-02 6.10927399e-03 -5.74003793e-02 8.78569335e-02</_>
    <_>
      -1.09528378e-01 -4.63952608e-02 -7.76050389e-02 9.81709138e-02
      -1.72160584e-02 1.72088537e-02 -4.11982983e-02 -1.49036348e-02
      3.58533338e-02 1.51927650e-01 3.28626391e-03 -2.61732861e-02
      -2.04219371e-02 -5.56840338e-02 -7.16661364e-02 -2.05804203e-02
      1.43607026e-02 3.01793730e-03 4.39725518e-02 4.76717688e-02
      -4.23490033e-02 -7.08928481e-02 1.34847313e-02 3.24094445e-02
      -3.57964933e-02 -2.43720785e-02 -4.22146469e-02 -3.19672637e-02
      1.44666005e-02 8.81940648e-02 -4.79524545e-02 2.68491413e-02
      -1.65028851e-02 1.37127703e-02 -6.87816693e-03 7.33288703e-03
      7.51043260e-02 5.27357012e-02 -2.02598777e-02 -3.87255177e-02
      -5.80833815e-02 1.19177580e-01 -5.21895811e-02 -1.26984358e-01
      6.15596510e-02 2.78384667e-02 -2.50629410e-02 1.96388945e-01
      1.24030386e-03 -1.88541524e-02 3.11711952e-02 -4.41383049e-02
      -2.01608855e-02 -5.20524792e-02 2.09475737e-02 1.95617825e-02
      -4.37775068e-02 4.25019264e-02 1.48235708e-02 -3.83016020e-02
      -2.66458094e-02 -3.07847261e-02 -5.46961240e-02 1.66801080e-01
      -2.77967993e-02 8.82440209e-02 -7.68519491e-02 -1.06515195e-02
      1.25418119e-02 -3.90724503e-02 1.77905753e-01 -3.59998853e-03
      4.52007726e-02 5.74139971e-03 7.99857751e-02 1.09301470e-02
      5.97450584e-02 6.34514447e-03 -2.82726474e-02 -9.32608768e-02
      5.46738273e-03 1.70726050e-02 2.72074882e-02 -3.01036444e-02
      1.94204412e-02 -3.83274108e-02 -1.21804364e-01 2.65570264e-02
      -3.26917134e-02 -3.99405621e-02 8.31930861e-02 -8.46996084e-02
      -6.09037876e-02 1.17010754e-02 -2.45229620e-02 -5.31535223e-02
      7.00596869e-02 4.85685514e-03 -3.51190642e-02 7.78412521e-02</_>
    <_>
      -1.19309381e-01 -4.10532989e-02 -7.42032751e-02 1.14894338e-01
      -4.66582179e-03 5.00724539e-02 -2.39089485e-02 -1.43233696e-02
      3.50285098e-02 1.79871902e-01 -9.54977993e-04 -3.44070569e-02
      -2.04032417e-02 -4.58138846e-02 -8.45882595e-02 -3.11319698e-02
      -5.38255414e-03 -3.15175392e-02 1.23228040e-02 2.90689766e-02
      -3.75119001e-02 -4.27854806e-02 5.14541380e-03 1.54731171e-02
      -2.80140676e-02 -5.66476882e-02 -4.42593023e-02 -3.31462361e-02
      2.39259261e-03 6.63217530e-02 -1.01463990e-02 1.89171713e-02
      -3.07211354e-02 1.68475993e-02 -5.06507931e-03 -8.86095595e-03
      9.98536348e-02 4.72616963e-02 1.84211601e-02 -4.14011702e-02
      -6.59066513e-02 9.90950912e-02 -2.97637470e-02 -1.08352870e-01
      5.22269346e-02 3.98577452e-02 -4.78731208e-02 2.26073042e-01
      -7.59326806e-03 -4.14388534e-03 5.68822250e-02 -3.48788202e-02
      -2.14688815e-02 -4.18392308e-02 1.91663411e-02 1.88504253e-02
      -5.46771251e-02 5.76644950e-02 -8.83883610e-03 -6.86552823e-02
      -7.27317855e-03 -4.31338176e-02 -6.28403574e-02 1.68055028e-01
      -2.69640181e-02 8.02543536e-02 -5.75878881e-02 3.38208340e-02
      2.01901468e-03 -4.25180532e-02 1.69261456e-01 -3.09800263e-02
      5.44466078e-02 1.80718191e-02 7.72742331e-02 -1.41584612e-02
      1.20442495e-01 -8.85328092e-03 -2.74616107e-03 -1.31197214e-01
      -2.04575714e-02 4.52136435e-02 1.17605960e-03 -9.59207769e-03
      -9.69090674e-04 -2.94915531e-02 -1.01498336e-01 1.64947938e-02
      -5.06205112e-02 -2.82345470e-02 8.20382312e-02 -7.39013553e-02
      -7.36467689e-02 -6.20460371e-03 -2.30516233e-02 -6.21139482e-02
      5.98967262e-02 -2.68238503e-03 -4.83684167e-02 1.13125235e-01</_>
    <_>
      -9.62100085e-03 -2.98388358e-02 -1.59654412e-02 7.93221667e-02
      -3.32413726e-02 -4.83311107e-03 -3.54681350e-02 -1.19083123e-02
      7.71050015e-03 -3.22221927e-02 -4.84992051e-03 -2.59371562e-04
      -3.12005151e-02 7.33883958e-03 -1.25100566e-02 -3.44533920e-02
      1.23648085e-02 2.62277182e-02 -9.17794649e-03 -2.01891959e-02
      -3.16038802e-02 -9.60527919e-03 -1.81733456e-03 2.45148074e-02
      9.71664325e-04 -2.60516517e-02 3.96048231e-03 5.36784204e-03
      1.22171678e-02 5.09345047e-02 -2.28812899e-02 -9.52813495e-03
      1.15345167e-02 2.48565450e-02 -1.34474563e-03 3.64122950e-02
      4.30858582e-02 9.83786397e-03 -7.02493824e-03 1.84164848e-02
      -3.65585298e-03 3.58941592e-02 -1.53162600e-02 -7.83768191e-04
      9.73904319e-03 1.66028012e-02 -1.96698774e-02 1.35110885e-01
      5.47502469e-03 -3.18294540e-02 -8.54991609e-04 -3.52827422e-02
      -4.87294458e-02 -3.83956246e-02 4.48251180e-02 -6.52022567e-03
      -3.51832546e-02 -1.77492741e-02 -9.98702832e-04 1.47041166e-03
      8.32436886e-03 9.46586020e-04 -2.45503765e-02 7.20894188e-02
      -3.64702493e-02 3.29474472e-02 -4.29745438e-03 -4.38615158e-02
      -1.41460942e-02 1.26771508e-02 1.44499242e-02 -6.91289175e-03
      1.98705792e-02 -1.02002081e-02 4.37085927e-02 -1.94497444e-02
      2.79209092e-02 7.56461080e-03 -1.12509271e-02 3.14523373e-03
      4.81656007e-03 1.71396900e-02 -2.15756577e-02 -3.19853202e-02
      -2.22496130e-02 -2.28852928e-02 2.80101993e-03 1.13264183e-02
      5.73511235e-03 -6.16006739e-02 8.03515017e-02 -1.00877546e-02
      -3.39900441e-02 -1.88426301e-02 -3.79919708e-02 -8.46849103e-03
      9.13574081e-03 -3.67601775e-02 2.44433992e-03 1.26555890e-01</_>
    <_>
      -1.06388815e-01 -2.53942125e-02 -7.11982772e-02 1.23515837e-01
      -2.45935563e-02 -1.76606886e-02 -4.21174429e-02 -3.37957703e-02
      1.55329155e-02 1.69429660e-01 -1.30660040e-02 1.61695294e-02
      -1.84316058e-02 -2.56409179e-02 -5.13603315e-02 1.02429865e-02
      1.10325394e-02 -1.05094379e-02 2.03583743e-02 2.73621883e-02
      -2.74387226e-02 -6.40780255e-02 -2.09615808e-02 2.96686739e-02
      -4.29330915e-02 -3.79449055e-02 -3.39866243e-02 -6.38578385e-02
      1.43300043e-02 8.76265839e-02 -3.13135348e-02 -2.85876151e-02
      -1.83837824e-02 2.32622325e-02 2.39086188e-02 7.38059031e-03
      8.17988962e-02 7.80993327e-02 -2.93377554e-03 -2.67127883e-02
      -5.30165955e-02 8.29707906e-02 -5.10621704e-02 -1.36158317e-01
      4.57729958e-02 -6.71346532e-03 -2.99009625e-02 2.17658222e-01
      -3.90349329e-02 -1.26313856e-02 4.62426357e-02 -4.86027300e-02
      -1.36237796e-02 -4.96329069e-02 2.18993407e-02 3.29113454e-02
      -3.17232460e-02 4.56637070e-02 3.60882767e-02 -2.94945203e-02
      -5.00707142e-02 -3.19999829e-02 -3.82946953e-02 1.68650240e-01
      -6.12126477e-03 8.73286948e-02 -4.66382205e-02 -2.90035978e-02
      -1.33322198e-02 -4.34822105e-02 1.91844925e-01 -6.74072793e-03
      4.70511615e-02 3.02932560e-02 1.01247780e-01 -1.18641248e-02
      3.02827638e-02 7.05539016e-03 -2.32603662e-02 -1.17930092e-01
      1.33855613e-02 4.85747214e-03 -8.28985474e-04 -1.38955945e-02
      -3.95340426e-03 -2.10443679e-02 -8.44870135e-02 -1.09992959e-02
      -4.27510925e-02 -5.52068129e-02 1.01827867e-01 -7.04806969e-02
      -5.62205501e-02 -4.97381091e-02 -1.30923176e-02 -3.27160694e-02
      8.08750018e-02 2.08633579e-02 -4.52074856e-02 1.05754621e-01</_>
    <_>
      1.75447576e-02 -2.21226588e-02 9.47098015e-04 -2.21497566e-02
      -4.19915579e-02 -2.66355462e-02 -1.69044100e-02 -3.96831380e-03
      1.29278097e-02 -1.45969531e-02 6.52875332e-03 -1.39175644e-02
      5.49478689e-03 7.91149680e-03 -6.42928714e-03 -3.29813594e-03
      1.99235473e-02 1.11935483e-02 -1.03141461e-02 1.32166779e-05
      -9.20023210e-03 6.46999897e-03 -1.03878248e-02 3.29125719e-03
      -7.13136001e-03 8.90307408e-03 1.52277772e-03 7.35947955e-03
      -5.29664382e-03 2.60159802e-02 -7.04680756e-03 2.28434969e-02
      7.09942123e-03 2.47206260e-02 -1.08206198e-02 1.84629962e-03
      5.57303615e-03 -1.04786758e-03 -1.62967928e-02 -4.63340664e-03
      -1.50680752e-03 3.65027003e-02 -1.25084259e-02 8.71738512e-03
      2.66556013e-02 3.43947373e-02 -2.04022955e-02 3.61723267e-02
      -2.39891019e-02 -2.61632055e-02 2.32782848e-02 -1.86636709e-02
      -1.02053965e-02 -3.28500429e-03 1.78942662e-02 -7.68376095e-03
      -7.88886845e-03 -1.27589367e-02 1.09513504e-02 1.08661037e-02
      1.86104868e-02 9.02799249e-04 -1.03697022e-02 1.52971770e-03
      -4.76987176e-02 1.04012219e-02 -8.10644124e-03 -9.21945740e-03
      4.14250325e-03 -2.13017855e-02 -4.84680117e-04 3.54278390e-03
      -1.21467002e-03 -8.30831751e-03 2.12732404e-02 -1.19289858e-02
      -1.48476101e-06 -5.97456237e-04 1.14448639e-02 -1.20696723e-02
      -5.71630569e-03 1.15382264e-03 -2.91074486e-03 -1.64654497e-02
      -1.88389122e-02 -5.80765074e-03 1.46607617e-02 2.41765920e-02
      -1.11448718e-03 -2.99285408e-02 2.00973805e-02 2.72967387e-03
      -2.67908419e-03 1.67207830e-02 -3.55488132e-03 -2.83897435e-03
      1.72960025e-03 4.25634999e-03 1.90173986e-03 5.75642027e-02</_>
    <_>
      -5.18538952e-02 -1.42585114e-01 -8.84096697e-02 1.11419439e-01
      -7.76325166e-02 1.07186204e-02 -6.75274432e-02 -1.61390344e-03
      4.08865586e-02 1.95337489e-01 2.21460387e-02 -2.49186177e-02
      -1.67117976e-02 -5.37977368e-02 -1.68131478e-02 -1.20184189e-02
      3.66063006e-02 -4.33508232e-02 5.45999967e-02 4.41673771e-02
      -3.65630351e-02 -5.95009327e-02 1.65909305e-02 -1.80643355e-03
      -3.37145180e-02 5.77888044e-04 -5.14093228e-02 -1.47112720e-02
      1.65000744e-02 9.29345191e-02 -6.27740920e-02 3.70758995e-02
      2.99770269e-03 1.34453475e-02 -1.35024516e-02 -1.83923636e-02
      -5.01025654e-03 1.27603963e-01 -2.67587733e-02 -2.34875530e-02
      -1.01882204e-01 1.48264781e-01 -6.50622770e-02 -2.19760574e-02
      7.75236264e-02 6.20761290e-02 -2.63208766e-02 2.63151318e-01
      8.95488169e-03 -1.04150176e-01 4.03307043e-02 -8.32897276e-02
      -7.94971287e-02 -9.03826207e-02 9.15551372e-03 2.53053978e-02
      -4.85519953e-02 -1.15260258e-01 1.63484514e-02 -6.42191172e-02
      -2.32605692e-02 3.61690074e-02 -7.83280432e-02 2.11349964e-01
      -1.84497714e-01 9.60693806e-02 -7.71575123e-02 -7.31400773e-03
      -7.18119517e-02 3.40705737e-02 2.09289104e-01 -1.91468615e-02
      7.43225217e-02 1.37434257e-02 1.06677301e-01 3.91275994e-02
      7.82810599e-02 -3.06893000e-03 -2.40561622e-03 3.01256240e-03
      2.72381073e-03 -1.28569081e-02 1.60473809e-02 -5.45009226e-02
      4.16939519e-03 -4.70270403e-02 -4.86838520e-02 4.23488468e-02
      -2.86804326e-02 -4.82184105e-02 9.98738632e-02 -9.13083553e-02
      -9.08234119e-02 -8.53655487e-03 -3.02965492e-02 -3.16382349e-02
      9.78696793e-02 -4.37005656e-03 -6.53269142e-02 1.34850919e-01</_>
    <_>
      -3.48795541e-02 -4.30723242e-02 -4.07236293e-02 1.10240817e-01
      -3.50998230e-02 5.89047633e-02 -2.35957131e-02 -3.11857332e-02
      -1.08251432e-02 4.85121235e-02 -1.90061033e-02 -9.22652334e-03
      -2.09369138e-02 -2.01369859e-02 -4.61761141e-03 -2.26352829e-02
      -5.23936516e-03 7.74011947e-04 1.41885122e-02 1.52257672e-02
      -3.25535350e-02 -1.86689831e-02 3.81323393e-03 -8.56910869e-02
      -5.18976664e-03 -2.87674665e-02 -5.14905788e-02 -6.17304677e-03
      8.80393840e-04 5.30365035e-02 -5.52967424e-03 3.21880393e-02
      -3.47192548e-02 -1.10718596e-03 -5.04141534e-03 7.48235453e-03
      5.07774837e-02 3.67401503e-02 5.15128812e-03 -3.72503309e-05
      -4.10439968e-02 2.94094775e-02 -1.57412291e-02 -5.09587489e-03
      3.62988487e-02 4.54894863e-02 -5.27659059e-02 1.75686553e-01
      -2.55478676e-02 -6.57977089e-02 4.65725586e-02 -2.71943957e-02
      -2.45073270e-02 -4.72482368e-02 3.43420403e-03 3.59110758e-02
      -4.92764749e-02 -4.64360751e-02 -2.83554811e-02 2.64254725e-03
      8.79289024e-03 2.87045054e-02 -2.37786174e-02 4.07238640e-02
      -7.75189549e-02 5.45987785e-02 -3.82779837e-02 4.80832718e-02
      -2.12107617e-02 2.39521712e-02 1.14611082e-01 -9.76053812e-03
      5.91021590e-02 1.47324502e-02 8.36035609e-02 8.05595890e-03
      8.97819772e-02 1.19060883e-02 -1.02584092e-02 -9.91998706e-03
      -1.25327772e-02 1.43869212e-02 -3.06252185e-02 -2.27572694e-02
      -1.26841338e-02 -2.36560851e-02 -4.52635922e-02 9.66560841e-03
      -2.19419003e-02 -1.91140007e-02 9.03145522e-02 -2.62554791e-02
      -3.94041725e-02 -2.31335610e-02 -2.67054401e-02 -4.44050506e-02
      -4.69613029e-03 1.63904447e-02 -4.58883606e-02 8.41824561e-02</_>
    <_>
      -3.85759920e-02 -2.58271322e-02 -4.29159701e-02 1.17956020e-01
      4.92560910e-03 4.56204172e-03 -3.98038700e-02 -2.04773657e-02
      -8.38127639e-03 8.95477906e-02 8.56795162e-03 -3.46670076e-02
      -4.63649584e-03 -2.28361133e-02 -2.85363439e-02 -1.43581582e-02
      -1.68360490e-02 -3.59631842e-03 -1.58439931e-02 1.74969584e-02
      -2.04837546e-02 -4.48853150e-02 1.49706891e-02 -3.72011103e-02
      3.13589792e-03 -3.18022408e-02 -6.12659194e-02 9.87466052e-03
      -3.05600907e-03 7.43804350e-02 -6.67064544e-03 3.33116651e-02
      -3.27030793e-02 4.80476171e-02 1.50324171e-02 -3.36512877e-03
      6.22913614e-02 1.32616311e-02 1.33098951e-02 -3.87311243e-02
      -3.14233489e-02 3.18624116e-02 -7.07818791e-02 -5.42371646e-02
      1.17253130e-02 4.61412929e-02 -5.81126995e-02 1.92562237e-01
      -7.99867976e-03 -1.38141755e-02 4.32385281e-02 -3.02498452e-02
      -3.31728347e-02 -1.48661612e-02 -3.55922687e-03 2.78584119e-02
      -7.05222711e-02 7.76765794e-02 -1.91224609e-02 -2.04904713e-02
      1.26150567e-02 5.09585626e-02 -2.90477406e-02 1.01814106e-01
      4.09206329e-03 7.01589882e-02 -3.40835415e-02 1.14439595e-02
      -1.08473385e-02 4.44614403e-02 1.05930492e-01 -2.94417865e-03
      5.73072163e-03 1.03990324e-02 6.28349259e-02 -3.88698578e-02
      2.58738874e-03 -1.05371485e-02 4.71810345e-03 -5.34157157e-02
      1.72787160e-02 4.05698754e-02 -2.15084516e-02 -3.34011950e-02
      -3.94910201e-03 -1.54620670e-02 -6.09455891e-02 4.13394384e-02
      -4.81239744e-02 -6.55903220e-02 9.88996625e-02 -5.31769767e-02
      -2.69002896e-02 -7.65651511e-03 -2.15820558e-02 -6.19815029e-02
      1.80265252e-02 -1.62630379e-02 -7.54655898e-02 5.19633032e-02</_>
    <_>
      -6.87153935e-02 -3.42599116e-02 -2.35508084e-02 7.24226311e-02
      -3.69736739e-02 -3.74418423e-02 -3.09079587e-02 -2.44923402e-02
      -1.35094421e-02 4.07425538e-02 1.46640614e-02 4.43612039e-03
      -7.26463366e-03 -2.89460868e-02 -2.32491158e-02 -2.00586244e-02
      1.51107730e-02 -3.40266898e-02 -2.68652551e-02 1.28399273e-02
      -1.75476037e-02 -3.10927313e-02 -1.22607201e-02 2.51737684e-02
      1.97577872e-04 -3.39985639e-02 -2.96793785e-03 -4.09739232e-03
      1.97161082e-02 5.92913255e-02 -1.41678089e-02 -1.94626637e-02
      8.07609502e-03 3.79457101e-02 2.57924665e-02 -3.19117215e-03
      -1.30688939e-02 5.14092222e-02 2.52216533e-02 4.57938854e-03
      -2.79735439e-02 8.98303390e-02 -2.68734600e-02 -4.04058546e-02
      3.00056674e-02 3.76716838e-04 -3.70751508e-02 1.16664678e-01
      3.37444060e-02 -1.57716684e-02 4.59299348e-02 -3.18785198e-02
      -2.84742508e-02 -1.22209573e-02 4.53383140e-02 1.54289752e-02
      -4.36327979e-02 -5.50997891e-02 1.65537763e-02 -4.69686352e-02
      -2.46561095e-02 1.55952470e-02 -1.36990398e-02 1.40734777e-01
      -6.23526499e-02 6.68057874e-02 -3.30435042e-03 -4.84932996e-02
      -2.27535777e-02 4.04667901e-03 9.53618735e-02 -4.63745520e-02
      5.17444275e-02 4.39702673e-03 5.92660010e-02 -1.94473192e-02
      -1.70919131e-02 9.35613550e-03 -2.23197713e-02 -4.83513512e-02
      7.58580584e-03 2.93938015e-02 1.19367894e-02 -6.67091506e-03
      -9.73261707e-03 -6.13320433e-03 -7.41105080e-02 2.53801439e-02
      -3.64101380e-02 -5.20585626e-02 6.99143335e-02 -1.50589878e-02
      -3.85436974e-02 9.03751981e-03 4.03269613e-03 -6.43586274e-03
      3.45797352e-02 -1.94701366e-02 -3.37719284e-02 1.05071366e-01</_>
    <_>
      -1.12229295e-03 -5.68903936e-03 1.26297325e-02 -6.10882125e-04
      -2.89265206e-03 1.22497706e-02 -6.84422208e-03 -1.28787477e-02
      8.85086972e-03 1.12801827e-02 -2.23800191e-03 1.16305910e-02
      7.86069594e-03 -6.16193563e-03 -7.86433520e-04 3.23834037e-03
      -1.67115498e-02 1.55330577e-03 9.87286214e-03 2.29031919e-03
      3.08269658e-03 -1.58751216e-02 -4.49319649e-03 2.75948388e-03
      -9.16105136e-03 1.96928550e-02 -2.88299704e-03 -2.84363609e-03
      -8.30848515e-03 -9.16753151e-03 4.89383610e-03 -3.97446752e-03
      1.84186157e-02 1.79236045e-03 1.99294295e-02 -8.04149825e-03
      8.87072459e-03 -6.28355239e-03 -1.20542021e-02 -1.07726939e-02
      3.72548657e-03 1.40373893e-02 -4.28349338e-03 -1.81023143e-02
      5.19760000e-03 4.23854357e-03 -3.13447928e-03 1.28893915e-03
      -1.22622708e-02 2.28485977e-03 -1.83703448e-03 -1.19110737e-02
      -3.73037206e-03 -4.99468390e-03 6.59947051e-03 1.37079367e-03
      -2.70310021e-03 -8.37104861e-03 7.45527213e-03 -6.10345742e-03
      -1.14837959e-02 -3.32702510e-03 -1.44934375e-03 -1.84320801e-04
      -7.24750978e-04 4.17061336e-03 5.21971786e-04 -4.92564682e-03
      1.04087768e-02 -4.71811229e-03 7.54616875e-03 1.99641520e-03
      -5.14054997e-03 1.14952009e-02 1.76874008e-02 1.56277753e-02
      -8.13363772e-03 7.81369116e-03 3.00929789e-03 -1.57277919e-02
      -1.10010086e-02 -1.87692384e-03 9.65793710e-03 -2.44660000e-03
      1.97441038e-03 -1.38297607e-03 5.40693384e-03 1.01421855e-03
      4.48402204e-03 3.61643708e-03 -2.79492955e-03 -1.19193457e-02
      -8.93083634e-05 -9.99321043e-03 1.04400497e-02 1.09433318e-02
      1.10300099e-02 -7.17167603e-03 -1.03055621e-02 -3.91563773e-03</_>
    <_>
      -3.23069207e-02 1.86795706e-03 -7.19500845e-03 1.95148401e-02
      -1.44231727e-03 4.24971757e-03 1.13277277e-02 -1.05486009e-02
      2.00232081e-02 3.42129730e-02 -4.15920885e-03 1.45032792e-03
      2.96041556e-03 -3.92142544e-03 -2.80482788e-02 -8.87347944e-03
      -7.73116015e-03 2.73036305e-02 1.63119417e-02 2.64941528e-02
      -6.82915328e-03 -1.60326157e-02 1.65074691e-02 1.94628034e-02
      -2.06542239e-02 1.37256207e-02 -7.28660217e-03 -2.22147610e-02
      2.19289511e-02 3.83012812e-03 -1.34221623e-02 5.98735223e-03
      7.10483920e-03 -8.18978064e-03 3.11211729e-03 1.24305347e-02
      8.12496804e-03 -6.39357651e-03 -1.54310092e-02 -5.58638992e-03
      1.30800821e-03 1.77909564e-02 -6.43074419e-03 -6.66875690e-02
      1.00910934e-02 -1.45378744e-03 2.67557614e-02 2.14790199e-02
      -8.07475951e-03 1.33077027e-02 -1.30543420e-02 -6.71682926e-03
      1.08724618e-02 -2.99865752e-03 3.19386902e-03 7.01264013e-03
      -9.33685806e-04 2.22773142e-02 1.31759401e-02 -1.30752316e-02
      -2.61759888e-02 -2.65449695e-02 -2.03697495e-02 -3.10390496e-05
      2.38112491e-02 1.02388570e-02 -2.02398468e-02 3.52154602e-03
      3.37727219e-02 -2.91031003e-02 2.08128244e-02 1.04083912e-02
      -6.44294219e-03 5.78464707e-03 1.37253739e-02 2.11717300e-02
      2.75147543e-03 1.24715697e-02 -2.14127935e-02 -3.88290249e-02
      -9.40903381e-04 -2.63987365e-03 1.20476785e-03 1.08270748e-02
      1.30317928e-02 -1.44219361e-02 -3.64660397e-02 -7.49344612e-03
      5.12005703e-04 5.71819954e-03 -3.43958382e-03 -2.79663932e-02
      1.43950025e-03 5.98482182e-03 8.70795269e-03 -4.41738463e-04
      1.09204995e-02 2.02427991e-03 2.45505315e-03 -1.78410355e-02</_>
    <_>
      -4.02974673e-02 5.15792752e-03 5.10080438e-03 1.89346485e-02
      3.82924778e-03 1.58088864e-03 2.55119661e-03 -8.12865142e-03
      2.63002478e-02 2.91197710e-02 -1.13211095e-03 2.11033016e-03
      8.96794430e-04 5.93373040e-03 -1.14830025e-02 -1.04992203e-02
      -8.32551345e-03 6.21266384e-03 -3.87140107e-03 1.05520394e-02
      -4.10739944e-04 -8.90525710e-03 1.43334828e-02 1.12927621e-02
      -4.66100778e-03 -4.46167216e-03 -3.42537672e-03 -1.35265794e-02
      1.57000888e-02 -1.12726809e-02 4.24202858e-03 -1.63033931e-03
      1.17772343e-02 -2.23297044e-03 2.90155900e-03 -8.43673199e-03
      1.04146330e-02 -1.90202368e-03 4.76607122e-03 -1.26496004e-02
      -1.30506873e-03 9.85073671e-03 1.50717166e-03 -3.33155841e-02
      5.49774896e-03 8.90496594e-04 5.47634065e-03 9.90581606e-03
      -7.61851855e-03 1.30271912e-02 -1.57374982e-03 -1.15758060e-02
      -4.32639010e-03 1.24280131e-03 -4.68994165e-03 1.03722913e-02
      -1.61875356e-02 1.76718608e-02 4.13957052e-03 -2.22067367e-02
      -1.68838277e-02 -1.25422115e-02 -2.26778090e-02 8.12542066e-03
      1.25549650e-02 1.18398620e-02 -9.68171749e-03 1.03259059e-02
      2.35541109e-02 -1.87642332e-02 1.02398088e-02 -5.76241268e-03
      5.63475350e-03 1.36780413e-02 4.90885181e-03 9.55072511e-03
      1.63993873e-02 1.36478832e-02 -8.02998152e-03 -3.64630446e-02
      -3.91676417e-03 4.53079399e-03 -1.98078388e-03 1.26694785e-02
      -1.07919471e-03 -3.29559040e-03 -1.29313767e-02 -1.09203961e-02
      -1.07277762e-02 1.20976679e-02 -4.52107342e-04 -2.36567948e-02
      -7.87225831e-03 9.86461644e-04 9.80730401e-04 -5.93131455e-03
      2.64705140e-02 -4.30796761e-03 -7.39805261e-03 1.38417287e-02</_>
    <_>
      2.24467013e-02 -2.43254472e-03 9.17248987e-03 1.35208182e-02
      -1.64576527e-02 -6.34663599e-03 -7.49886967e-03 -1.07098930e-02
      6.73837867e-03 -1.29638473e-02 7.37350900e-04 1.81089481e-03
      -6.98163966e-03 1.13217663e-02 -3.63279996e-03 -1.30361458e-02
      -1.60502568e-02 2.29604524e-02 -1.21580111e-03 -1.25386985e-02
      -1.44591499e-02 6.66176202e-03 -2.54852418e-03 1.84097830e-02
      -4.80269268e-03 2.67419778e-03 8.18592217e-03 1.07371937e-02
      5.45902597e-03 -2.03619571e-03 -2.61248858e-03 -8.39134306e-03
      1.96166467e-02 -8.99712148e-04 -2.58727395e-03 1.69747006e-02
      1.24050723e-02 8.12840706e-04 2.44805077e-03 2.14163270e-02
      1.35799088e-02 -1.13202035e-02 7.66260782e-03 1.21157980e-02
      -3.53706256e-03 -8.74690432e-03 1.27148032e-02 1.01678418e-02
      -1.76982174e-03 -2.55347900e-02 -1.49638187e-02 -3.35150957e-03
      -2.38544289e-02 -9.19635966e-03 1.09338593e-02 -1.71277095e-02
      -2.09881626e-02 -6.60394970e-03 -1.03079155e-02 6.12750556e-03
      4.67809616e-03 7.77096488e-04 -1.04646543e-02 -3.35181481e-04
      -1.11658797e-02 -1.08673060e-02 1.47180539e-02 -5.91250230e-03
      2.65932572e-03 -8.44421517e-03 -3.29280123e-02 1.03877345e-03
      -1.01505378e-02 -1.63267441e-02 1.85888410e-02 4.75712307e-03
      -4.33002086e-03 1.12244366e-02 -1.82872582e-02 2.28251070e-02
      1.94600609e-03 2.06447835e-03 -5.86815737e-03 -4.35257331e-03
      -1.39934681e-02 9.62116406e-04 3.40346992e-02 2.15449301e-03
      8.55702162e-03 -1.29416874e-02 -2.10926239e-03 1.63707025e-02
      6.89743040e-03 -1.41134544e-03 2.14855885e-03 1.27066560e-02
      -3.31510021e-03 -1.21287480e-02 1.41727170e-02 1.97430234e-02</_>
    <_>
      -3.14289294e-02 1.82720777e-02 4.69811214e-03 5.22308387e-02
      -3.38788005e-03 -1.86876468e-02 1.00161368e-02 -3.03606577e-02
      1.30887050e-02 4.40689549e-02 -1.88349131e-02 3.23812850e-02
      4.21282742e-03 7.00323284e-03 -5.25691360e-03 1.16830384e-02
      -1.08399456e-02 1.10383825e-02 3.81928490e-04 1.10439947e-02
      2.94759200e-04 -4.71336581e-03 -8.82400386e-03 2.72734240e-02
      -1.76314134e-02 1.19200748e-04 -5.35117742e-03 -4.39880677e-02
      1.58328060e-02 -3.78857623e-03 -1.05042558e-03 -3.96814980e-02
      1.12177795e-02 -3.54757649e-03 1.89420823e-02 9.31823684e-04
      1.58621855e-02 -2.25353544e-03 -2.38071429e-03 -2.54678191e-03
      -4.36881464e-03 -1.21478504e-03 -2.17185705e-03 -8.23969990e-02
      6.49422593e-03 -3.59537341e-02 2.02051755e-02 3.16096358e-02
      -3.78094390e-02 1.53165897e-02 -1.51097029e-03 -1.34489173e-02
      2.67221909e-02 4.45881300e-03 3.03642801e-03 1.30385514e-02
      7.97710475e-03 2.40156669e-02 2.92820614e-02 -6.08448125e-03
      -4.40449864e-02 -2.18259320e-02 -1.03235655e-02 4.40279429e-04
      2.91030332e-02 1.32681429e-02 7.58816605e-05 4.65446571e-03
      1.45622464e-02 -4.08529527e-02 2.06283573e-02 9.19001270e-03
      6.83833100e-03 2.62131728e-02 3.69586200e-02 1.00663835e-02
      7.45398970e-03 1.84111912e-02 -3.00575793e-02 -5.54763637e-02
      3.17900558e-03 -6.05246238e-03 -8.28465354e-03 2.79384386e-02
      1.03501063e-02 6.65368326e-03 -2.25465950e-02 -5.22167608e-02
      -1.83992125e-02 -6.46325760e-03 1.22522879e-02 -2.50422359e-02
      -2.39385571e-03 -4.11335453e-02 2.15567332e-02 2.48499848e-02
      2.32596397e-02 1.93792116e-02 -2.76940269e-03 -1.26358271e-02</_>
    <_>
      2.93263942e-02 1.07159792e-02 1.03393821e-02 3.40002659e-03
      -1.22084208e-02 -2.35620383e-02 -5.66918729e-03 -6.46277703e-03
      -1.18844528e-02 -1.04425447e-02 -1.68542773e-03 -3.82293062e-03
      -2.39752512e-03 2.92006359e-02 -4.90105420e-04 -7.53922015e-03
      -6.85009500e-03 1.46494135e-02 -8.68963357e-03 -1.11261923e-02
      -1.36087853e-02 2.29035970e-02 -1.94797684e-02 6.19685324e-03
      -8.49001296e-03 1.64742023e-02 4.33195382e-03 -1.23922527e-02
      -7.96554703e-03 -2.43348908e-03 -2.11000536e-03 -4.91890870e-03
      1.19603220e-02 8.40905681e-03 -3.80990957e-03 6.72359951e-03
      -6.64155651e-03 -4.52992227e-03 -1.80831691e-03 1.46830892e-02
      5.84633183e-03 9.73230880e-03 4.37115971e-03 8.81678611e-03
      6.82656467e-03 -5.83419518e-04 -8.37738719e-03 3.72893468e-04
      -1.35913147e-02 -1.91943888e-02 -4.35731956e-04 -9.35776718e-03
      -1.15540624e-02 2.95403064e-03 7.32365670e-03 -1.61471888e-02
      -6.77650794e-04 3.28191963e-04 2.74505233e-03 6.13539480e-03
      1.54359508e-02 8.72383639e-03 -7.66028976e-03 -8.92231427e-03
      -1.13579985e-02 -5.12793846e-03 1.00690005e-02 -1.43315643e-02
      6.97183376e-03 -1.33624477e-02 -3.28457765e-02 6.55394187e-03
      -3.93654825e-03 -4.25609993e-03 1.00725591e-02 1.37385270e-02
      -5.82691003e-03 -9.55410767e-03 -1.77539873e-03 4.90218215e-03
      -8.03428050e-03 -8.65482783e-04 3.16123338e-03 8.63431487e-03
      -1.27898715e-02 4.63819643e-03 3.27133052e-02 -6.97798561e-03
      1.10533675e-02 -1.17924483e-02 -1.66195352e-02 1.92455854e-02
      1.50907543e-02 -2.21926766e-03 3.16092744e-03 1.92815717e-02
      -7.55284345e-05 -1.70827273e-03 2.90494021e-02 -6.28535263e-03</_>
    <_>
      -4.17312561e-03 -3.92015874e-02 -5.27262315e-03 1.59187950e-02
      -9.67401732e-03 2.10154545e-03 -5.47172828e-03 -1.35329552e-02
      1.18565755e-02 3.44471820e-02 -5.41870110e-03 2.47687963e-03
      1.25727355e-02 -1.35365492e-02 6.70816097e-03 -3.37099866e-03
      -7.25725573e-03 -6.75525283e-03 1.38402842e-02 1.10894348e-02
      -6.71025738e-03 3.73977004e-03 2.49637244e-03 3.08146863e-03
      -1.12707671e-02 1.09826261e-02 6.59859739e-03 1.33694778e-03
      8.00487213e-03 1.52746995e-03 -1.53780039e-02 1.14995269e-02
      8.07264075e-03 2.47430452e-03 -4.10214299e-04 -1.42051252e-02
      -1.30309574e-02 1.90862603e-02 -2.75187008e-03 -2.37038778e-03
      -1.52633404e-02 3.16591412e-02 -7.30412081e-03 1.23637810e-03
      1.46920467e-02 1.97528489e-02 1.62909944e-02 1.89145319e-02
      -9.03460383e-03 -2.53656078e-02 -1.11608319e-02 -2.65455693e-02
      -2.43002009e-02 -1.48748131e-02 -5.13721677e-03 1.60720311e-02
      -1.96085591e-03 -2.66638920e-02 1.12829404e-02 -2.74777729e-02
      -1.87577587e-02 4.50289296e-03 -2.62175817e-02 2.67235953e-02
      -3.37029472e-02 1.85841806e-02 -1.69280935e-02 -1.30083635e-02
      -1.02609685e-02 1.27154458e-02 2.09544785e-02 -7.51300156e-03
      1.57874823e-02 2.91715725e-03 1.90961231e-02 7.46916793e-03
      2.93270517e-02 4.37864428e-03 -4.70439624e-03 5.52076381e-03
      -8.83504190e-03 1.32875741e-02 1.04023470e-02 3.59803298e-03
      6.42955722e-03 -3.48564354e-03 -7.40522868e-04 2.29937071e-03
      -6.27147779e-03 4.46171826e-03 6.73185149e-03 -2.38406770e-02
      -1.38449389e-02 -1.19985892e-02 1.69261787e-02 1.57697108e-02
      1.83345340e-02 -4.59940685e-03 -1.73496827e-02 1.09090526e-02</_>
    <_>
      2.79402453e-03 3.06063308e-03 5.44365589e-03 1.56452246e-02
      -8.25810246e-03 6.82487525e-03 5.03512472e-03 -2.04983130e-02
      -9.85575188e-03 -1.08539243e-03 -1.44346412e-02 1.24384472e-02
      -3.09488131e-03 9.48569644e-03 5.54793933e-03 -6.49815612e-03
      -2.11593639e-02 1.00152921e-02 6.46248867e-04 -4.14143782e-04
      -5.24729397e-03 5.34345396e-03 4.83512878e-03 -8.51465389e-03
      -7.43124075e-03 5.16497530e-03 -2.73446785e-03 -3.54708149e-03
      -1.18424650e-03 -1.35928104e-02 -8.91650736e-04 -1.48164004e-03
      3.04297515e-04 -1.54025359e-02 -4.54426976e-03 -2.37677945e-03
      1.15106013e-02 8.28361325e-03 -2.35722400e-03 1.01301800e-02
      2.05352809e-03 -6.63949922e-03 1.06954500e-02 -5.96487720e-04
      3.91465332e-03 9.82929580e-03 4.66678478e-03 3.87480273e-03
      -1.39509523e-02 -1.64728407e-02 -4.51075524e-04 1.69451785e-04
      1.11062429e-03 -5.11747319e-04 -2.01167000e-04 1.13356570e-02
      -8.55937786e-03 -1.41806565e-02 -5.36988163e-03 8.43938440e-03
      -1.21020607e-03 -3.88652924e-03 -1.14516849e-02 -7.26877060e-03
      4.35915124e-03 -1.00825094e-02 2.39280239e-03 3.68951866e-03
      1.03571154e-02 -4.42653941e-03 -6.98043872e-03 -6.43823016e-03
      -2.67796963e-03 8.34429730e-03 1.06567228e-02 8.32755305e-03
      1.53398532e-02 1.16636306e-02 -1.07782558e-02 4.33458341e-03
      -6.79417746e-03 -6.91684312e-04 -2.90014897e-03 5.83780184e-03
      -3.69546865e-03 1.33071598e-02 1.20353913e-02 9.79638891e-04
      2.15150695e-03 1.03262365e-02 -1.16954499e-04 -5.98631625e-04
      1.54206355e-03 -1.59189701e-02 4.03707474e-03 2.05517397e-03
      -6.00139564e-03 9.37633496e-03 1.70673302e-03 2.03747279e-03</_>
    <_>
